,0,1,2,3,4,5,6,7,8,9,10,11,12,13,14,15,16,17,18,19,20,21,22,23,24,25,26,27,28,29,30,31,32,33,34,35,36,37,38,39,40,41,42,43,44,45,46,47,48,49,50,51,52,53,54,55,56,57,58,59,60,61,62,63,64,65,66,67,68,69,70,71,72,73,74,75,76,77,78,79,80,81,82,83,84,85,86,87,88,89,90,91,92,93,94,95,96,97,98,99,100,101,102,103,104,105,106,107,108,109,110,111,112,113,114,115,116,117,118,119,120,121,122,123,124,125,126,127,128,129,130,131,132,133,134,135,136,137,138,139,140,141,142,143,144,145,146,147,148,149,150,151,152,153,154,155,156,157,158,159,160,161,162,163,164,165,166,167,168,169,170,171,172,173,174,175,176,177,178,179,180,181,182,183,184,185,186,187,188,189,190,191,192,193,194,195,196,197,198,199,200,201,202,203,204,205,206,207,208,209,210,211,212,213,214,215,216,217,218,219,220,221,222,223,224,225,226,227,228,229,230,231,232,233,234,235,236,237,238,239,240,241,242,243,244,245,246,247,248,249
fr_C_O,0.06203667091889996,-0.1138877202418782,0.06959386723243413,-0.054910757203968166,-0.018001573500789007,-0.05746993939707387,0.35000677460079355,-0.07832068096896679,0.286261489140084,0.1966289899057538,0.17921749691053068,0.1587176689266966,0.0,0.03676911298237277,0.0,0.03208279310522995,0.2798306213426732,0.050353468063880344,0.004665932380973734,0.10600410488434593,0.0,0.04106709943188518,0.11660402880619,0.13391423086389698,0.14739776640222105,0.11540578521589882,0.14040227587844775,0.2977348810219927,0.0,0.04803740111036272,0.03652600730063283,-0.0047323747111988855,0.0,0.7339760268537566,0.4182616220562713,0.1852496345185331,0.14087841554528663,0.14671073369568394,0.1654245911790192,0.0884924262547484,0.0,0.16316913880647355,0.18106873622505185,0.37444427634935296,-0.07517735125138522,0.2431468687406852,0.13983532184233682,0.0,0.03054826874743612,0.33359825743004007,0.0,0.33620106699988583,-0.03210824751094688,0.013412052350158653,0.10590877108587902,0.0,0.21551943721915087,0.0758901574992191,0.01651404454197776,-0.09424781800227981,0.010962404398881968,0.2078522387250397,0.055720189268280096,0.0461722764228142,0.0,-0.005098897178582929,0.0,0.19206754799523795,0.04194400486003138,0.0,0.06492823189791165,0.11695174192219014,0.07954732803458603,0.23006447351286224,0.0,0.0,0.13919778842235886,0.41455136870505116,0.28658871004825526,0.1627245437897761,0.0637289592880286,0.0,0.0915797116798106,0.16891328638406572,0.0807118203817357,0.26685319991688844,0.30701585951534915,0.0,0.2769784712172403,0.25651515301074534,0.0,0.05897980015609716,-0.006234677638807138,0.10887489936188183,0.4790997896060327,0.4199427312993589,0.08962471424598398,0.15207801810060745,-0.11417763685738068,0.09427830428361403,0.016499857640567637,0.0,0.24380585411005523,-0.2820143274841056,-0.07867954735617075,-0.11906278924907825,0.015762155807727777,0.0,0.0,0.10156182371194694,0.24757495811055488,0.1060062677587346,0.15651177107689845,0.03096282320977529,0.0,0.1967981965999945,0.1925610047106033,0.27041698521605234,0.0,0.48877494945574457,0.20674281676154566,0.22460851291143835,0.0,0.574315519245061,0.12050440837181263,0.0,0.12726424266093186,0.3002192424198955,0.22136353273781065,-0.0033218704862900497,0.0,0.007418194023802295,0.04345854444774315,0.11920278886387967,0.15351729597497193,0.0737157471692013,0.053755301060220174,0.014882216960467315,0.06627045835846611,0.0,0.0,0.1091099075985399,-0.01277941343743484,0.0,0.394837327179747,0.12659131452311212,0.2944056312337799,0.0,0.0,0.07010565785140434,0.004516446742553368,0.23663250739868,0.25167229427788634,0.03432491347169775,0.016028272967541505,0.055025938968672514,0.2135093464124417,0.14786899863873854,-0.13632889918734628,-0.007396566299015986,0.37845570048836563,0.09160398889714577,0.19651248128545434,0.07967343771574567,0.006526589427843368,0.010694211927915045,0.21843504534819447,0.1107384665239218,0.06805768362046577,0.4496781161685675,0.004040486881258031,0.15497932817720905,0.07822835666116454,0.006547985359224284,0.13114228913551917,0.0,0.0,0.12975259753802842,0.3232654555533422,-0.07828743293542621,0.10999483075688565,0.0,0.14417539495671078,0.24580382224748012,0.2693014249083375,0.32828400778548794,0.3297267400490654,0.0,0.10393940044329607,0.0,0.053746782579777795,0.20446793475764738,0.15793325653184184,0.02559833629144461,0.28902818918019035,0.20925289304068712,0.11278871876047288,0.246104541694499,0.0474110031160616,0.045331483082598954,0.04789008165475159,0.0710210906385713,0.038153738355034585,0.0,0.09736645528699013,-0.08260823761300114,0.32694026196478193,0.12565853827794743,-0.00955603069038177,-0.3334436757721719,0.3498103810142874,0.04094911299719107,0.047541384217676806,-0.02625226872777021,0.002072635209970971,0.030344625310279646,0.0,-0.019317528440963554,0.0,0.463684641742781,0.0369077957374452,0.16072197704368915,-0.0005220221313182972,0.34733785436210834,-0.3300226908997141,0.28641752712349805,0.5265714421477438,0.49187521061335854,0.18361906140383324,0.31288151038042217,0.7331375291654715,0.18943771235811774,0.09810252312717231,0.0,0.09934603239827255,0.34972010250023744,0.35487297721549216,0.03401765506158291,0.2257058845765678,0.0,0.09917690034404732,0.13081874732035517,0.20842579324897917,0.16551153910553518,0.021401417636543345,0.0910346762355939,0.0,0.09208667051690839,0.09103673080369172,0.05996741904618213
TPSA,0.037901805192840324,-0.36310764913029003,-0.15988953347698726,-0.07586058593907848,-0.04542938044682402,-0.373131314040338,0.14123959996867314,-0.16620154669878293,0.2079819632030181,0.11399033439602176,-0.145081774245842,-0.3192726481741598,0.0,0.0,0.0,-0.08957766121143866,-0.059598330648295644,-0.06029190081257193,0.0076910196600043605,0.35998636947108426,0.0,0.0,-0.38224368369466316,-0.28686937801282614,-0.18958341750052557,0.1696363786255569,0.13769668642734698,0.09460663376903346,0.0,0.003581190858266614,0.0,-0.14758921504575373,-0.057029054102575416,-0.7927317569376979,0.12034594058851743,0.05529840058886623,-0.3482432840054779,0.13201474343857367,-0.09105326909760095,0.19805154130292416,-0.3535529591564832,0.0,0.08691898132672636,0.1821452988680867,-0.07368017861193878,-0.24007142543706936,-0.20940525125357193,-0.035617168449374056,-0.08923494529620249,-0.24559838948002796,-0.09442986372560244,0.21835882159712458,-0.09875405565221008,-0.06806607694848901,-0.3949721006842142,-0.2691027881281893,0.07241460217291167,-0.03030943341405694,-0.03503673798168918,0.0480385056410576,-0.04777371132431251,-0.17809868633907974,0.017537358058053964,0.12476204992368056,0.0,-0.07458125726880968,-0.09076118591632258,-0.08475330359538283,0.0,0.0,-0.008608508338502139,-0.08111208902745574,-0.36704434107476863,-0.2021221769474308,-0.5841623540318301,0.0,0.0034748920368969354,0.2798676502176412,0.3125290636254357,-0.016327333867512554,-0.05214740049535873,-0.06279112603492085,-0.0020788969613162577,0.030596698869784777,-0.08662048793974819,0.0,-0.107766410604596,-0.22130847188250244,0.15121673176424763,0.416491044463354,0.0,-0.10850059146137271,-0.1841927731234168,-0.05975267807364017,0.45618744977982684,-0.3136739199365487,-0.10522044752257408,-0.12030413704434086,0.13296835445149235,-0.15818255205452286,-0.07023589217078512,-0.11264432701252959,-0.06738818718441043,-0.4171923827880331,-0.2136418998969501,-0.5886100440542105,0.0,0.0,-0.19929840626972942,0.06355779392159816,0.0,-0.09360241868519514,0.12933607907879727,0.023243559103714735,0.0,0.04646048406999691,0.04952120996669063,0.14703604081535196,0.0,0.16342043590018795,-0.042910656157293135,-0.01671112539655681,-0.3069223623247252,-0.14625084337317545,-0.1983427498670002,0.0,0.0010908391636256125,-0.03898498391488528,0.3480899882257129,-0.1399897092622385,-0.2129664803542797,-0.08314267286239586,-0.1923045231628444,-0.032668865033477316,0.1596123503803416,-0.10336053562839963,-0.3496007584596079,-0.01189890722505715,0.0,0.0,-0.04155203203090613,-0.009501371215674365,-0.09697657870642347,0.0,0.18118448651450622,-0.23494999282295198,-0.14025578744787914,-0.0033603507103231933,0.051327612111297015,-0.03470596619583303,0.0053251339718209225,-0.6910566726841882,0.08944113981035748,0.0005535294990092211,-0.11955535667598138,-0.11093276340544887,0.2057271181429396,-0.03954450027585193,-0.41897917141721636,-0.25394749194392313,0.17164708829188458,-0.23124139754040468,-0.020728055603045116,0.04827308976717276,0.1676243445075965,0.0,-0.02444645893166418,0.007031211163948348,0.0,0.36802896506178634,0.0,-0.027643909814055748,-0.5966438341548392,-0.06790891329102149,-0.02471533833034618,0.0,-0.014709646711321555,-0.31297907974436384,0.1091603376967182,-0.2697711716193906,0.03012465477090606,0.0,0.07374685261077801,0.29234325873880257,0.04419306173765206,0.04514553085046308,0.062424252731714175,-0.09322173543727068,0.06834326781678787,-0.08809661176351735,-0.07993064258887705,0.14262192731373086,0.1713076279066022,-0.09236853266077448,0.07503474126295509,-0.01767360251215072,-0.09972322191674812,-0.07241006296276027,0.49684405769531265,-0.08070501316855455,0.04921556245065726,-0.0691754913302351,-0.12497659573730967,0.0,0.03892135215108353,-0.19147369389487093,-0.026086489103721754,-0.23834597687627018,-0.20066600168385548,-0.12323357714142445,0.07742991228147882,-0.4154916403644793,-0.08259008029600966,-0.27596417694694464,-0.14362942356163694,-0.03748202864633784,-0.03513759178553839,-0.0396213292272672,0.0,0.30324334535673586,-0.05248501472708689,-0.0035184464890184427,-0.38027548854495885,-0.19682149768095902,-0.6042394249726383,0.0817291455315505,0.15045598015055814,0.3834893570827627,0.29739098386248847,0.06973976079009674,-0.4726636046434409,0.011502712292315653,0.06382490709247558,-0.013019156686236332,-0.03715148431074246,0.03297336784890148,0.12484176231303357,0.0,0.16278249722559182,-0.20160193363405685,-0.1685096079705419,-0.26937901054235186,0.08182847121045893,-0.23910143576294665,-0.0325687300259915,-0.03780717430837025,-0.025122259765496684,0.0,-0.10629408678116255,-0.26721123737998154
SMR_VSA1,0.10187147611563392,-0.13611168359781162,-0.14051943597002045,0.0,0.0,-0.08487836736530971,0.43232897785741825,-0.11374978117963137,0.2309402849014964,-0.20983573859175939,0.4677408458470198,0.36658090294054835,0.45368872641780816,0.1352642648277947,0.46936583311428137,-0.03752109475878469,0.1295641074391193,0.14362573754765484,-0.004022391075613062,-0.01444228455609213,0.0,0.2619695660479714,0.14542794740523457,0.1620596209953707,0.3185239858313662,0.11202828113636674,0.0,-0.013090452719856243,0.0,0.17400619342541357,0.14938356384237964,0.14240232167278408,0.15720258334253143,-0.4518329636541305,0.18929935643977502,0.0,0.13961165703932196,-0.042946114460336256,0.21674466630626926,0.221758349264858,0.3512043514124909,0.027436944980983775,0.09088712011868144,0.4089816125283443,-0.00032389324392933307,-0.18256159852666665,-0.1744928621342033,0.07113863571204793,-0.06187426031605173,-0.11187715226525789,0.06482781286473466,0.7147686909433546,-0.0651040266355854,0.10390126311025383,0.03247516223822643,0.07153804187129129,-0.35774371261443044,-0.06907787998123731,0.04770988476033697,-0.1613545131804553,0.362858199321934,0.861976713461997,0.006815976530837219,-0.2109587813900417,0.21764194597606865,0.005575413557446284,0.1363383316889043,-0.20891642467665553,0.17402750821534516,0.018061695882144617,0.036153881232339195,0.01766244917782081,0.25497508739223734,0.053609202426540686,0.0022976894798844116,0.0,0.047593951988235066,0.12597378993760336,0.32851801806921976,0.2542974894592932,0.15938620081719812,0.03531622293366472,0.12104150589928948,0.3830141806259096,0.16222972024738463,0.0,0.25545762309578235,0.14143171773144708,0.1091946413260916,0.17775491491449355,0.1628563931500345,0.18738040176649048,0.15904240651775764,-0.02690906558709388,0.22471442176897582,-0.38031860725439515,-0.009387689374221336,-0.22953094235529223,-0.2277269901438389,0.1835219724667592,-0.013346288687441159,0.31182507436625223,-0.039536305945467656,-0.08469871987536616,0.01618778792717352,0.22480524743282898,0.029614787349866344,0.18067543700983146,-0.2537502352358034,0.10432236364827895,0.0,0.49839924296003774,0.29983868947705794,0.11221119670120512,0.037171459893223964,0.5554822338196799,0.3774377677375053,-0.2189947224561159,0.3767617075962598,0.12179230907067706,0.03765394177521391,-0.004779852188852552,0.011127847744597755,0.15131308495219348,0.516274578344949,0.0,0.21980319304464774,0.4121604642605692,0.005307376924473155,0.06180445891306487,0.0502286771758963,0.11534956765030811,0.26647814635346406,0.46616718663186796,0.25301877332789113,0.2497665083418344,0.47952858804843157,-0.18348175533999422,0.221438266779938,0.3053474766582107,0.29340360190676457,0.22420593700577232,-0.019523749839670052,0.04274168600907537,0.03637836275557392,-0.09253324207453503,-0.16711646343782438,0.0,0.0,0.01843947922104285,0.22969261877036373,-0.28994502648177306,0.06170659438152043,0.13131402867257438,0.03727825239715644,0.1752763416128964,-0.22446136258628158,0.011150714246800449,0.013534853242393336,-0.0007004288614287943,0.0008692965143751655,0.339766535905673,0.32317618681578814,0.1960439096286688,0.27390161754941467,0.13348623158364584,0.3638649358773153,0.5235023199241274,0.23248338002763513,0.1406016357717961,0.13364304890217363,0.09635989147958504,0.03714850503223094,0.006552361714500763,0.25084825530169846,0.07922888462587115,0.0,0.15783106805482414,0.237060545944668,-2.0323784273488507e-05,0.26606140473773615,0.0,0.5670524279057658,0.512268437574396,0.34180674362165087,-0.014814077496648983,0.4305889430914168,0.0,-0.08825000997195007,0.21369943386729107,0.3702520391131261,0.010971738556806826,0.09802387765618624,0.07294676414619493,0.3945224021864595,-0.02687742672139295,0.054342903813371236,-0.12112731753508277,-0.19702222282181533,0.1010359045710075,0.09353265533041541,0.23241993121032298,0.1207126736989155,0.16761088644921157,0.04044899157647286,-0.2379167519787771,0.04611512359656839,-0.05706051585689993,0.3263431779230662,-0.3712977811247072,0.49989348282856605,0.3584348154494366,0.11018523405291109,-0.11024738184480601,0.5457460834294393,0.06441478381807492,0.17964007360745984,0.1170304521303853,0.22526391484314431,0.3746726936453098,-0.11980897216414009,0.06733339949358814,0.052703562159753546,0.21469854848375775,-0.12175246523180298,0.05321536581401255,0.6177303169624379,0.1173997926194978,0.9579698054312584,0.2854830488417868,-0.6030450940983517,0.14184340451298152,0.0,0.1108412235572761,0.04156048484200854,0.0,0.5773427514184754,0.2429047334881156,0.0027205458814228726,0.26207074146804926,0.2853371068758623,-0.032441362233083304,0.23071666546562627,-0.03628943258481819,0.16115636843284664,-0.029932203558368814,0.11652353667300352,0.08669925566013681,0.4366835092875903,-0.04895731423205895
NumHAcceptors,0.0,-0.15422092313176936,-0.07417369732049246,-0.18554200237373272,0.0,0.000506180587421506,-0.6202561331392423,-0.1687145012332663,-0.32763739643799067,-0.19440115854295056,-0.14990961397130642,-0.5436339528617412,-0.20707444298742514,0.0,-0.07666218288115016,-0.17377699463463903,-0.4266834293258057,-0.17686581389308906,-0.13905810287298154,-0.13828934408886162,0.0,-0.06973577481640565,0.0754171996641011,-0.4678137356914504,0.10734391093144562,-0.18454081957383675,-0.1134405447498093,0.2991606905064303,0.039744504651745546,-0.23510562742686492,0.0,-0.28067037234222186,-0.1694672297115227,-0.9050898536717538,-0.3704149640667509,0.0,0.0637853559046276,-0.2706847738326662,-0.054170355317172666,-0.6920683635475676,-0.09237242476337812,0.0,-0.14699751359909968,-0.6007527464722922,-0.248490030798876,-0.30734871329404884,-0.20203457178794484,-0.05958592990539403,-0.12554580499688928,-0.4429079384076915,0.0,-0.35797493788047025,-0.030278927932307572,-0.0294449811666209,-0.014002285484083133,0.0,-0.22996610559812222,-0.20010059688664544,-0.3686598264398809,-0.32483575448905655,-0.2547130608878486,-0.3805416295545633,-0.33607941937161384,0.28384571467365194,0.0,-0.01605965264030497,0.0,-0.29117390551815986,-0.1404360622771221,-0.01023631995937129,-0.20576589340875534,-0.09023898723086511,0.013949573716367047,-0.17907822606768647,0.0,0.0,-0.09523793059153655,-0.009281834193389507,-0.17483614851108367,-0.3831004513179425,-0.2512856382994722,-0.21089884300397874,-0.22676914455143685,-0.3007222893935256,0.0,0.028073245159602803,-0.4185018458093397,0.0,-0.23156870029258816,-0.7029519593619784,-0.0672879559481391,-0.21849215923333662,-0.081941451615522,-0.16377513072554198,-0.3846996286028595,-0.42679603108226083,-0.12424012316258888,-0.15958774856682922,-0.2256599590856044,-0.2606061033269452,-0.05284403080842349,-0.08305580508690594,-0.13926980293239727,-0.03505543614415163,-0.09255775493646318,-0.25911987801414116,-0.2686396490231346,-0.2247821270355454,0.0932274139724211,-0.18352438301330307,0.0,-0.46177978083924875,-0.3718486322073216,-0.047841705029780385,0.0,-0.44294585677419784,-0.2643633832934175,-0.007811096949631907,-0.2615965689824927,-0.3338010733425872,-0.049364679917919235,-0.17975542002850955,-0.01200539802171683,-0.25050194863761027,0.0,0.0,-0.26991505111304553,-0.21213136661742557,-0.03595213116654602,-0.2081517878006393,-0.2126619670098536,-0.05869748488856041,-0.4800600832358474,-0.470771627049631,-0.3320311118453511,0.0,-0.27204030865900375,0.004266699264106461,0.0,-0.30209745957700684,0.0,-0.254389661723937,0.03965874777239982,-0.02319343674747857,-0.12185589915085449,-0.2541271986473541,-0.1956962734191288,-0.03986217297512858,-0.2775988686245984,0.0,-0.20082067453870717,0.0907665866399891,-0.15068009921069928,-0.0651068246675391,0.0,-0.01707930099676197,0.021489520451595013,-0.2669982374576626,-0.26910126826656067,-0.3475993613605799,-0.1057158754472048,-0.532065185917745,-0.4335637795652448,-0.1614626098048213,-0.4968528712969065,-0.13082415994750526,-0.3614279943577492,-0.19064943002698473,-0.34801312456816,-0.4147478123444714,0.0,-0.19299540104120896,0.05049477559326045,-0.06457038438491333,-0.08185798586605417,-0.051760314412659124,-0.04218368020978384,0.16237033197564316,-0.30585539395460015,-0.23827092196821717,-0.31579304632401445,-0.02384119982604215,-0.43003853833692557,-0.5889354231494612,-0.46943246383949894,-0.3064361309491579,-0.5621597607219401,0.0,-0.10959661478419797,-0.27563202636013406,-0.23658989612687936,-0.05781406009813249,-0.021463281064838257,-0.16180772000422028,-0.4178457765386324,-0.26220484221996226,-0.13283486500386685,-0.1982118792390983,-0.15526512050238278,-0.2955689569906092,-0.03940872819636265,0.05479754173020351,0.007148048013026539,-0.1272795649480464,-0.0459931609727585,-0.14640803403289443,-0.42734253411853756,-0.07086763077908723,-0.3140522138100544,0.01605932664514923,-0.2654538914837033,-0.21350343208405537,-0.3576120470767001,0.023214346457228544,-0.36684073497367087,-0.09278997348418468,-0.02132712068634815,-0.0944541760885225,0.0,-0.4509483233365706,-0.1099150057775985,-0.11772826630517115,-0.30130324392406316,-0.35892741810715184,-0.10035447945639497,-0.24006016920332268,-0.4101538175821976,0.04102707170908658,-0.9116384604807658,-0.436051340477485,-0.4837100633967618,-0.35817167104815983,-0.0170137169518033,-0.06298818561923775,-0.22719088266564857,0.0,-0.727425101826433,0.0,-0.22991431519995248,-0.17837310020868186,-0.06337626868395334,-0.1376275003939533,-0.11227842013698057,-0.07811487644538939,-0.09644110837923234,-0.2089583078743295,-0.05701915210656906,-0.1677339926869666,-0.7850714212159017,-0.059026299207117265
NumAromaticCarbocycles,-0.128033709652527,-1.2483716088578793,-0.1995724313315914,0.0,-0.12451171722561406,-0.08221398744583693,-0.5263443050479594,-0.5996249774178573,0.3047756836646878,0.28670966375004764,-0.11695124525867734,-0.9366489636295824,0.0,-0.20188398847631137,-0.026910397776676514,-0.7171941087143342,-0.3601378612900233,-0.15991914359033624,-0.4598480867104379,-0.07971175589567134,-0.3135519177706453,-0.1355969935107889,-0.3140827114996893,-0.5146943580914608,-1.0449092003206524,-0.01030310291742937,-0.35131532327065035,-0.5123927364374334,-0.26058665484328036,-0.11993298540372922,0.0,-0.07348917260331003,0.0,0.4005737346936509,0.12892481528780786,-0.0695995452225191,-0.8195445549303085,0.17696919768338398,-0.6719719726085622,-0.16691257370677098,-0.5474725405675754,-0.23005696406775078,0.2058851423060409,-0.7290142259345774,-1.2387844648797985,-0.5709921035822654,-0.6873521558699689,-0.30380728595223927,-0.22764681232574874,-0.12570956733589528,-0.0467283978438216,-0.21326954664633443,-0.25702144993725945,-0.49490714936212904,-0.23103584748614003,-0.04208560075206747,-1.3268566185666504,-0.1518829479349191,-0.2993708192898024,-0.025559162406056896,-0.28355098763688813,-0.5623256583039123,-0.2107012778692699,-0.7860920549679721,-0.10335442370661956,-0.3378789525813265,-0.18325650177950953,0.1749634323384407,0.0,-0.26110639396444973,0.35826413334026785,-0.5791498973114062,-0.3747019373583399,-0.005369581744608681,-0.49299606401305524,-0.36426791399135816,0.19688098273902097,-0.4018233206057077,-0.18612211788895341,-0.0978940537718251,0.33187412631513485,-0.5251138604900317,0.17233197937251507,-0.052882446614465284,-0.07131647534002249,-0.04977130056463351,-0.19887064910492525,-0.14531025253329205,-0.4865582864931864,-0.6762808632157051,-0.2508730662079616,-0.34058283823699803,0.0865135812789185,-0.5561324039280293,-0.9941046172382764,-0.4045513909483861,-0.6548732170722786,-0.30215492978864095,-0.29565305546615517,-0.015075304819091308,-0.8597141991128684,-0.3685423907251254,0.21013644064288417,-0.28714483226238807,-0.48195640967905345,0.87443546061658,-0.22559224934677444,-0.22138789172600273,-0.21185166082756274,0.278344017612424,-0.09762319752520043,-0.6512781510381519,-0.1343881638344884,-0.4759972440435699,-0.17477044483665016,-0.1600801401359553,-0.45839099857872945,0.19286914949150208,-0.20847472008447554,0.02750898296724744,0.01434011397000223,-0.4532346399030413,-0.4055000752368564,-0.29749545882528905,-0.1831344719563298,-0.1761345084939772,0.067545502060178,-0.6396267281213286,-0.21219032199593385,-0.1578787683658056,-0.11650217822870729,-0.5135460346055725,0.082685684401338,-0.39839362482076707,-0.42052573331243753,-0.11784957162152607,-0.2776537083811703,0.37438282385832755,-0.2585403386883809,-0.548610767651687,-0.8693795620029969,-0.08761178166348113,-0.13447447429770903,-0.059585203222655085,-0.19893175053278986,-0.6781353949731048,-0.7039747121300776,0.005554657787749259,-0.2710187030497337,-0.031319554686907086,-0.3773316112456135,-0.443202906470471,-0.4367549419801371,-0.002112521428368242,-0.4212540516890967,-0.2315548033384653,-0.8278920681021612,-1.0106179539119666,-0.07233208025711313,0.8661331842540925,0.1759346017868489,-0.30576929281707294,-0.42915862824454737,-0.439423056012802,-0.3236217219994719,-0.10483613443066167,-0.22909727359529422,0.5979789166368519,-0.29407789384616223,-0.3722058526096733,-0.18813388407772635,-0.27360865839967086,-0.633168656671588,-0.179646008300996,-1.1601900393968125,-0.2208327521027135,-0.20860159443514145,-0.5576875718400103,-0.1715313320237783,-0.12878133982550943,0.28884214985397855,0.0,0.1327594429626707,0.20462038402265578,-0.46611220794024266,0.11186645783199176,-0.6915391406024155,-0.0839863594447984,-0.10552071012302869,-0.5347023007031342,-0.7190389588873316,-0.034958053938873426,-0.10514534135463731,-0.2884045774415842,-1.0605071311160545,-0.40149887480634633,-0.5957882314186206,-0.06782871012966658,-0.1851248260728915,-0.17384914032611207,-0.08607983893651541,-0.19940438938591798,-0.22995312022283473,-0.1496197237901103,-0.3723839483898764,-0.4634462272350606,-0.4082924665953138,-0.27300229874363946,0.49715070596360683,0.6068945881937932,0.13874959883795918,-0.42135186011941445,-0.15187393726450613,-0.8612383945297998,-0.2179461466100963,-0.578233426069856,-0.07763987269279761,-0.13634058160349452,-0.06340555679329708,-0.16993541190680947,-0.36757196771321965,-0.4238821026771909,-0.3925750309139115,-0.32580421839883794,-0.727954795383914,-0.6192815623859903,0.4184559603001913,-0.32212958936376734,0.11431409554201778,-0.7566838848774761,0.2638407617400975,-0.2624937544702395,0.16197555106840408,-0.09374251140409262,-0.25862954829947954,-0.2066730053970292,-0.4449483364859486,0.0,-0.3964877554934683,-0.33325436903558353,-1.034425927561358,0.10271339420921985,-0.12209005609796995,-0.05845009701084171,-0.663697246710574,-0.5139857001278223,-0.2731053212393704,-0.06239330813055743,-0.2696153826698551,-0.09696326695393648
NumHeteroatoms,0.0,0.9749432663322981,-0.17964921900039607,-0.1468872476112355,0.0,-0.10378147056164459,0.22026993952720683,0.6125092529398762,-0.669238150459077,-0.5336467659505935,-0.016826113460506043,0.7712196769236945,-0.02064810941694993,0.0928235208105196,0.0,0.5548695595142201,0.22342641934776397,-0.09651670741867689,0.21980341418210486,0.10045695238945983,0.0,0.08419844147558511,0.033481783938551314,0.46825230984013094,0.07876162063732427,-0.21794981064271302,0.06010072949039541,0.23862784573149767,0.0,0.14381864428223823,-0.22098647277773487,-0.020187093717064182,-0.12745684674181998,-0.6070544240449547,-0.25358947218541333,-0.10904725684148955,0.32032771683717765,-0.4341093206630163,0.5900067641098065,-0.1749605576665672,0.0,-0.04713164784825926,-0.25565638190982665,0.6897236706299945,1.1673800328507897,0.621844957563131,0.8462055350281403,0.25869794401257046,-0.19123196957173402,-0.015761654074688703,0.0,-0.16689575089308964,-0.08166708461208862,0.09840538811243732,0.032061156481855146,-0.050034896933750884,1.0631223325318282,-0.03716676252463712,-0.055841603939689836,-0.27613090032318993,-0.10609412300889524,0.16329703407565038,0.11991044607923135,0.5566703347411052,0.0,0.4538203630424895,0.08849398062321838,-0.48053631906779715,-0.007255497736330531,0.0,-0.24763547138702843,0.6797384015167464,0.08994766791057357,-0.2792457663093303,0.0,0.0,-0.5554792757045016,0.32914852930906235,-0.1566452186244853,-0.04874107725102179,-0.5886216290334428,0.28620787355490446,-0.0629547211655676,-0.3297170586527975,0.0,-0.11024235293879389,-0.11494264832755077,-0.007318120222254623,0.6295238632992918,0.1460786688121656,0.0,0.09582124044374483,-0.27524390699053264,0.454520788218463,1.0389039858560307,0.509671544220297,0.6672179182782456,0.3537567152777559,-0.2144551501645452,-0.05750834141375751,0.9371777941408188,0.011049704425041402,-0.4009280494592678,0.046589016531413424,0.3022063863201972,-1.1625422503749177,0.0,0.0,-0.1135222201072778,-0.5586104796315559,-0.1509800049815989,0.2235204897600441,0.06036016544446056,0.22622071709006358,-0.14260402666098698,0.15168333006764312,0.3527470964620847,-0.3869213487590873,0.0,-0.028961394904527336,0.0852136942232065,0.4714947416966217,0.0,0.029182856717463887,0.06815864420142936,0.0,0.13280830468624066,0.6743912447108612,0.2356751451569894,-0.027732319909895504,-0.14805429469950138,0.4106295424941039,-0.22642870114597297,0.1140112713186457,0.45844392361819764,-0.14048515861599278,0.02201622687859538,-0.5529720448285057,0.1845170660799778,-0.07543172525817256,0.0,0.03638681149637031,-0.14606671505839608,0.0,0.2363245461334521,0.7760424119714538,0.6804764312862617,0.12193529474249724,-0.227394059724481,0.0,0.3058791004982373,0.32100215375748803,0.2712267963449666,-0.14419285485385763,0.04036805593609752,-0.03752902918206553,0.5622380851854282,0.7291330822717449,-0.17499626769710128,-1.1648390170588572,-0.38699726792783096,0.13846546851155017,0.3729495981141373,0.31817854134676404,-0.041799413693201844,0.02622353801685362,0.18291100527742735,-0.7854376810656122,0.0,0.18219024723406335,0.0,0.37512012004483725,0.15490463282835645,0.012729801124303533,0.8871541796020733,0.0,0.0,0.2342226382889542,-0.11909814965463143,-0.06210860492469207,-0.555254998823526,0.0,-0.17070399177264142,-0.3148776764275158,0.3977188311413815,-0.3289995979804108,0.45680753163942145,0.0,0.01237487405487278,0.0,0.1724833085669549,-0.09771554955939633,-0.11629498166109736,0.2077235795798684,1.0306166893048894,0.5190903485634839,0.6212428870384055,0.07861980834188909,-0.2371662467948034,0.0,0.0,0.0,0.0,-0.012904241709806554,0.0,0.34759562037897834,0.3023912156980023,0.12778823512903276,-0.8713054399504474,-0.7981606616761833,-0.26834164651322095,-0.01209101390099098,-0.0024221310885801945,0.724412031697842,0.05712482480310786,0.4265413847685141,0.0,-0.15583771718650935,0.0,0.05695477651444852,0.1126923436035925,0.46763909964076644,0.1631564945466921,0.10009096729961794,-0.23799762540000444,0.25509449994388617,-0.5392821485433215,0.1753904846596102,-0.26521514299864424,0.522288427108353,-0.6523442607098728,0.21559414347559208,-0.16406712631209291,-0.10398676080241981,0.20062125648231355,-0.07041741608135868,0.3460919001243051,-0.13407290773481606,0.34342064728666805,0.0,0.451080789515309,-0.22291722675559467,-0.06143604934156958,0.014226706279682578,0.6108509624507399,0.661845789190159,0.27447170333992027,0.04565848337711033,-0.4775500064694181,-0.06027211579683109
Chi4n,-0.04530822406153524,0.22162648719998868,-0.06108894588885505,1.2754623188366051e-05,0.32857722830665625,0.08635958024879896,0.4470006569230487,0.33190383868097395,0.7396160366289775,0.5418358662941799,0.32573473002223263,-0.1988805491850541,0.16276857448622095,0.09699154646368993,-0.059367606418116455,0.22201580371518512,0.010691625580657558,0.46801324026668495,0.29237949725114215,0.4354544829786092,0.0,0.0,0.1563022600798703,0.07470085263523309,0.059882966512084565,0.5250893011117372,0.6552838843775296,0.7829747816145839,0.0,-0.0022946856634071633,0.0,0.0,0.07037069964872292,0.5898287784302308,0.18584366427399657,0.0,0.895698757458471,0.5717777794285227,-0.04904765622285838,0.3100986982963089,0.0,0.05545592367574193,0.19712647651285553,0.2794974620468945,0.23632636983580213,-0.00031483283121204193,0.009633763494816282,0.044678867687826085,0.8002341372350309,0.2823982050725508,-0.06570842211543897,0.1973468418928934,-0.008316987338162763,0.03011715949031861,0.2573486806769392,0.019310248725352256,0.6391468860110272,0.5760669326012288,0.7997191887922072,0.49110538622902744,0.31831850089904273,-0.07213700776818806,0.3459077969912088,0.2918954722958816,0.0,0.5116825326670372,-0.06510931251365308,0.5092842416117344,0.0,0.03553725536110697,0.5417239400304861,0.07539457920709464,-0.05908386097975638,-0.028003193229115705,0.0,0.0,-0.16553583934087254,0.30031139792562084,-0.01420544883939598,-0.1064143189379896,0.5042920929978414,0.14528778263070524,0.4518448026358699,0.46580071336447787,-0.16131182479060546,0.0,0.9359530863934109,0.11185810765771534,0.23441056375745023,0.08217385624808703,0.0,-0.047673080381339404,-0.05995331680394183,0.24908036235770922,0.35735507045641884,-0.028071903106690728,0.009563364642361714,0.1687861373659706,0.7889828911641187,0.09136802211510599,-0.006170754709234178,-0.1929699106249609,0.18136865124857132,0.20887746766816823,0.3226305158322313,0.0654151557923759,0.0,0.14772068198468724,0.5712184421153986,0.5867166877930854,0.01574165837967014,0.04589166949844278,0.1415438700320225,0.22348140136196537,0.0,-0.05593554929936291,-0.2344193805526035,0.6218294774132084,0.21048614456750114,0.303097764187643,0.46611061859451947,0.13581704014710885,0.0,0.3596259556766963,0.4865024982613894,0.0,0.4935607753074047,0.3972773721450242,0.03630370880291426,-0.0743920620451471,0.0,0.19427116406386297,0.03391763704727198,0.36227690348595276,0.3359001971969518,-0.13674119391025058,1.1907826362696066,0.3999169131329664,-0.09852057419947109,-0.016368090074820242,0.0,0.1969809969212172,0.017115013148339967,0.0,0.48774334942275144,-0.2239212637768868,0.07251483756548191,-0.02684579670436263,0.39600609982094664,0.004945491413471071,-0.06788368148039273,-0.29194927532517745,0.2770748890113806,0.0,0.0914850274484488,0.368587249766394,0.5138673822906014,0.436270769158914,0.4440369932821573,0.3530944480495411,0.005854053223011603,-0.021178685994542996,0.4462098426817101,0.46467008322808406,0.1606453354422813,0.16687834463736473,0.23148985435765784,0.36177631963882684,0.0,0.25715945615503033,0.11255771014567845,0.053359168313903554,-0.012113493542086188,0.0,-0.16931784500033598,0.0,0.019183513829102907,0.25076227713371185,0.16898121444877703,-0.013546252464914147,0.09696373801948865,0.0,0.4150342829985681,0.3547716403403855,0.3854977615387027,0.6227313369732419,0.21976710700839888,0.0,-0.05609480503543751,0.0,0.10426262475043681,0.5118570883905966,0.680597964700213,0.1104398555531495,0.6750539105312853,-0.09722018963822239,0.0,-0.01568251587549991,0.46756239384120607,0.20308291661771527,-0.044763869660130344,0.060379491119496656,-0.27645286525181184,0.0,0.060706948374366444,0.25453492137428296,0.5199103216515263,0.2172763959894288,0.17848063276227158,0.31794090924297874,0.32264392383945245,-0.2613633586581893,0.0778460661710449,0.1835604324032349,-0.04357183539244819,0.1009337032787376,0.0,0.10815529436262389,0.16443726463315972,0.24381280909780026,0.8088668082757778,0.09296685111953383,-0.15017970062042896,-0.007834943243743012,-0.21663110615209824,0.5135107032910263,0.47158232368450886,0.31058666432186977,-0.08738202775195181,0.38351341888444784,0.3261411117481471,0.005820567267385083,0.3951627190444748,0.08745123132044069,0.0025106940779578346,0.0,0.6336008854587906,0.31757761324168615,-0.1259297966849554,0.0,0.7732058394438844,0.22570293212084727,0.2596382625046517,0.3739365566841645,0.4688913321914309,0.013629620456689914,0.06263380193395787,-0.004253287468426599,1.4475135820347795,0.2015661084978356
VSA_EState10,-0.3490947313317153,-0.8507804871925285,-0.32731040665423383,-0.4159846104252239,-0.5092757291621706,-0.34321059383786534,-0.675732701867841,-0.6441868922705569,-0.9486642251516659,-0.9290983814914767,-0.30732315590734705,-0.7936569584736759,-0.35527445896486964,-0.35325226348079447,0.0,-0.37473861169583544,-0.24788622905265054,-0.7601306957551784,-0.3374789152042065,-0.39350634862261624,0.0,-0.15297551654191757,-0.5124463858600458,-0.5428118423470496,-0.013922004475122497,-0.6839674337559475,-0.6463798815034589,-0.6641304299120091,-0.2234987162071729,-0.21013753864966278,-0.25234754173141555,-0.0073467854935269205,-0.2576978509245905,-0.8795051880704732,-0.2104064564738055,-0.10326023551113839,-0.7591220584377769,-0.9591146340949352,-0.09343481041695599,-0.9557847598590012,-0.20695357140597467,-0.29422882485133856,-0.3910212504658757,-0.44796807006589084,-0.48013167909682597,-0.45149678726176207,-0.3476726889156655,-0.3696430884241682,-1.0102708457452465,-0.47829866982304203,-0.3276975957014223,-0.7243141151378341,-0.5021811738230335,-0.48194820174821956,-0.48812090768020105,-0.3981723723072611,-0.6403144150159571,-0.7719713187097572,-0.9986161527592265,-0.8947256804611018,-0.45241508418977827,-0.5174267592593956,-0.4778901909537897,-1.0706001832535328,0.0,-0.5962455968065267,0.0,-0.7276034809967894,-0.08832264874600716,-0.0814672398980372,-0.24084270414874265,-0.3110897287256491,-0.061085633130596166,-0.11761693216555413,0.0,0.0,-0.25493311013201525,-0.6027045655237621,-0.4619735399724283,-0.22196209907533024,-0.4902091390385735,-0.20029812666942368,-0.531232039633781,-0.5466657204880043,-0.013645879392196789,-0.13856917681613556,-0.7522911280738658,-0.06632342080555416,-0.5308023828640833,-0.6315185599294044,-0.36600559071863004,-0.2648502737391271,-0.12810212469592153,-0.4714806614080437,-1.0778627496855135,-0.4275089036251032,-0.31972303920050615,-0.47276129039227777,-1.225424273698499,-0.34133719819317065,-0.4986964584329156,0.0,-0.6351734625351154,-0.6741069415045745,-0.6779293043796562,-0.5253189227136392,-0.3252540608332544,-0.30339778146137136,-0.7960494221661357,-0.9811328347580142,-0.10315785820424489,-0.2912908957144611,-0.5105039381554894,-0.5213269839670008,-0.17935460735087247,-0.035229582009378924,-0.09390482431775252,-0.9192079479717828,0.0,-0.4066081021755214,-0.4235848040105323,-0.49702317692144066,0.0,-0.623469357732742,-1.1447880379259316,0.0,-0.5528826032325549,-0.8413569695647702,-0.6427921926488924,0.035866695664640694,-0.18417731121414793,-0.15635607467888588,-0.0450275012130394,-0.4231816984153083,-0.43899967919598704,-0.0599915277516166,-0.9104182306157155,-0.6159473235681318,-0.14591521146364006,-0.3199716339798084,-0.26649771920142595,-0.25176944088810493,-0.23153916426237098,-0.06656212185231866,-0.6556692480585549,-0.19850329761086088,-0.37896641695917493,-0.35129323000270346,-0.8212621565279707,-0.17429653313903415,-0.45622523995452596,-0.4661724637048877,-0.510802111342188,-0.47040056606951924,-0.5317995893205625,-0.7361008200453728,-0.8388230580946061,-0.5054102607163471,-0.49318804277855754,-0.6198714758364874,-0.6060489073714698,-0.5653530532832136,-0.5873655218992776,-0.7326421402448324,-0.715508918901729,-0.25892967615906165,-0.28346535113435856,-0.8402631536739434,-0.11049827966901066,-0.6549053361461654,0.0,-0.2218917178528521,-0.3270568877133047,-0.751063202110846,-0.9272223532881625,-0.10119246293830962,0.0,-0.3417733453929164,-0.5280598704621922,-0.18173820988683892,-0.3244283362147286,0.0,-0.3702277833162119,-0.6902260833720467,-0.49833758939953715,-0.6022647998945148,-0.35170066808547895,0.0,-0.5156205298313254,-0.21574371525909686,-0.7012470048350651,-0.6080809048651078,-0.6677569635368671,-0.2073590549115352,-1.0010992143134965,-0.39253920124044306,-0.2603813509031844,-0.31459573605471236,-1.4606675216445417,-0.5147586611007551,-0.21193964676207586,0.0,-0.027774249770196484,-0.27787439224253857,-0.5588805610804697,-0.8693957565428793,-0.8620040307832652,-0.4053736573686665,-0.5818324105952213,-0.8137132796968177,-0.579281444404601,-0.3572846170721912,-0.6190459547152942,-0.5249696649004574,0.016821748832011145,-0.31445799975777095,0.0,-0.3903805270886558,0.0,-0.5049392234600827,-0.8268694883673993,-0.2537491191784858,-0.2882687892426667,-0.3991438744208637,-0.16062831488648835,-0.4538427890220937,-0.7421128979958357,-1.1459115597450156,-0.48113175257511803,-0.5767153022708484,-0.5910991528805886,-0.0645717788397003,-0.5955784418818756,-0.4327077449863711,-0.1593947030977337,-0.1362836350157497,-0.6104627047281009,-0.15543396692449443,-0.2653353051506047,-0.39701080174641956,-1.0545801718032604,-0.48803945591958064,-0.36905627689082304,-0.5269139665786227,-0.6868073520722004,-0.4474737701112254,-0.29976530817761754,-0.32674642633290757,-1.9188113651433134,-0.3963727714328711
VSA_EState3,-0.010956068708139935,-0.10595092051389687,-0.28125742545784854,-0.25721710052028657,-0.19610654318570642,-0.09355295725079803,-0.07671852789281527,-0.24092276993545791,-0.3002630626777164,-0.27410895373461847,0.09579144270077738,0.17444606700749668,-0.005919592823963363,-0.11501220133861874,0.0,-0.22718024404218704,-0.10765700064529499,-0.19021889214490825,0.21354665001595513,0.13909093682724,0.0,-0.12093081914547635,0.25978687403789585,-0.16730810418237207,0.3421639265664121,0.39779608735102323,-0.02819162839086564,0.3117732501711201,0.0,0.1410874070827658,0.0,0.1133114769578897,-0.017881353194348405,0.3447965485376298,-0.3424763066487701,-0.18827660522464781,-0.009647394187749866,0.07124133646492205,-0.00802525977468588,0.19176317655939018,0.0,-0.06934617932202161,-0.02773834291600382,-0.07776013845091566,-0.014356504977886363,-0.21069697012887598,-0.1172979651516668,-0.09664177959709237,-0.4673183486998681,-0.19166838728404764,0.03452024309803639,0.44900195303495083,-0.16533382168210436,-0.2390694737610121,-0.07040925533033175,0.21996818579029317,-0.20782002421896886,-0.15467814526831514,-0.3349437859935837,-0.43114933593058885,0.19505695455861513,0.20850133585029273,-0.13324287425824174,-0.052894696663805786,0.0,-0.1448296956683181,-0.15637621603378157,-0.1578064421540217,-0.02047669149180282,0.2613412563482069,0.18505474394296664,-0.147044540687179,-0.05405554189878701,-0.2820714923659792,0.0,0.0,-0.005461988307908676,0.4682473042701089,-0.17431709877953583,0.020038967589277708,-0.05771661840287116,-0.01430571899651903,-0.14472120371879688,0.02237889690832821,-0.19162581394449896,0.0,0.033845093329363314,0.0583319229543879,0.09427586126862932,0.25298845708207,0.0,-0.2397275530227567,-0.1828794698165247,-0.10934940110736065,0.2290342956325422,-0.22470112943487078,-0.11593362896255016,-0.224497207257499,-0.035582446135433515,0.011992095148099123,-0.2958568190976411,-0.11241945399722562,-0.1665016892545179,-0.2610754035921441,-0.03712431420435246,-0.30141507309457016,0.0,-0.1732517116301177,-0.33987768796537204,-0.11738825220075472,0.0,0.06023853095291705,-0.1377735554448837,-0.3913289097034183,0.0,0.07255011561908209,-0.2388595460534008,-0.01641487656989285,-0.08093473160065763,0.034730359093206216,0.05813469107309529,-0.17183584744249322,-0.043054172423941744,-0.3977922006443395,0.0,0.0,0.24403519712812055,0.36320427040907827,-0.062041856108486025,-0.0007277503602271264,-0.12356393913409924,-0.14534949867253213,-0.06393241445595159,-0.05739803911644763,-0.3863114504444428,-0.13348562073859746,0.023869744372523212,-0.2616670482746543,-0.007757661423602626,0.0,-0.2694103710278881,-0.18829110826937961,-0.21930210300284173,-0.09244145992445307,-0.06910181062689803,-0.20472286753726282,-0.08409901967411622,-0.07298292050442479,-0.0428838406578767,-0.18418780338447044,-0.014664843352961065,0.13673722219720422,-0.04355713178676067,-0.030485673251975286,-0.05240144255929216,-0.23544933059204864,-0.4282512429468059,-0.14066632777699659,-0.19981937888911527,-0.11967018266932854,0.11520940199610691,0.4221875207846586,-0.23952111595626951,0.048158892602069604,-0.2732193290160886,-0.1361361521610632,-0.19527914564119347,-0.03059226042343035,0.0,0.10728432779869633,0.0,-0.16733731902081356,-0.13901166018075595,-0.07234983980018163,0.305355374940089,0.3599290899863728,0.0,0.4351041689685391,0.01076009564223825,0.10922378181168252,0.14439278009101086,0.0,0.29334415178267903,0.20764579268692482,-0.17787095795360844,-0.25780358440594175,-0.20359256693967956,0.0,-0.013560600406381561,0.011525210304880342,-0.2096470102505271,-0.11287380899338437,-0.11800728238933281,0.018274302098008458,0.21754908346771828,-0.15095265152428072,-0.23426843495607205,-0.209784743959752,-0.47616128372504224,-0.17920129161409054,-0.08724073153331946,0.02228645303211111,-0.03813934625565109,-0.05587355961532556,-0.14982460038889886,-0.14255866154413616,0.12100169366377594,-0.22823499923660978,-0.03401220421074175,-0.24749679345026826,0.01150656554703863,0.18360120703965713,-0.31426611595085513,-0.3405553870634208,0.37829934429236173,-0.2911085627045425,0.0,0.06073650461007481,0.0,-0.1328044161431043,0.0780298334639014,-0.18923708878402523,-0.05936148357620778,-0.46806364387619054,0.060814568690062035,0.03664029733210248,0.2714691538996985,0.09775568246128628,-0.47165743403356464,0.07620879563069745,-0.12931296186076813,0.054097615555070755,-0.041748243826756216,0.05799927810610744,-0.19822293209380237,0.0,0.6127717416281576,0.0,-0.1071199977308917,0.0,-0.25598518147707583,-0.10318339230686964,-0.027412681147785254,-0.06025723186395406,0.2901161294101019,-0.09189007907613234,-0.14830761293627379,-0.07744075111767039,-0.4870261774531792,-0.2823014603407483
Kappa1,0.3127447008023182,0.7272522270583351,0.6101342006189795,0.4818425016781053,0.30054293944340016,0.7190792796245572,0.5684227933952407,0.7615390357601405,1.2359376765105727,0.7451178641558023,0.9230991599599566,1.5943029126501895,0.7310200231127968,0.7750243859476691,0.7160496852179037,0.34748164837601886,0.7122183717581766,0.6172467782194855,0.414238671489281,0.8269061910296464,0.55354752538719,0.5086677846242893,1.552506536376338,0.5720753821001144,1.8145455709537666,0.3717336072701631,1.2126444249455262,1.510632118382087,0.531446279883655,0.4743343764877546,0.6176278612931413,0.44139608263277685,0.6524057709675712,0.45985354800831096,0.7682170219077333,0.5081415335938458,1.8000469301152453,0.6476593138899597,0.4607643247114986,0.4835585909141038,0.9366267233810449,0.5390185524379837,0.6688987901266955,0.4396980168977084,0.5624859475700563,0.6711524441834098,0.34290174702421383,0.37087593745632874,0.836869110997895,0.6309321840974681,0.6547445960489118,1.0002555220682645,0.4891309474079159,0.7635988847260143,0.4918471398765378,0.6287968428079436,0.6932088085754166,0.3755169085866435,0.6234468618722069,0.537145833661865,0.7129548370487553,1.1486093220562428,0.9558695134565166,0.7145369921039638,0.6030606567328332,0.37820311764188386,0.3993768654305387,0.9591237561215504,0.48164962992385796,0.6298870213047124,0.3575674228754811,0.7844709053356335,1.365026849453823,1.0454896001648961,0.8385358284385851,0.39642454615322553,1.1065799282436237,1.2027734581513136,0.510557902258498,0.3777995262892708,0.6997589357053597,0.5675380582013883,0.36811735698284276,0.5598413762888722,0.43731606517112814,0.06975697796060337,0.8290238842300595,0.8670552020405239,0.6162456237220691,0.6993958886555848,0.9631576129313065,0.6375390096342313,0.7460692005053644,0.9189159994679266,1.2761462985667107,0.34000311091602076,0.44646559067916125,0.20072039405334755,1.149088193806013,0.737651991793391,0.6178548735665241,0.905536647092671,0.916610715249669,0.587591254843315,0.19214645574985872,0.7690614440812434,0.5741405800495331,0.7427723230710392,0.6504393678215038,0.62811238139571,0.5143293864190085,1.2016970206724809,0.8384664855130259,1.1499265310498,0.655209363131495,0.1353665875053823,1.0933967432354275,0.6223702523224187,0.30354831948419414,1.0754330318380243,0.5490029703842838,0.5355495543454367,1.4282869297378704,1.4743609649424045,0.3171935077833471,0.6694222116336576,0.7887849226828682,0.5633981150091124,1.2953806387913713,0.9535659132928392,0.7004518523557304,0.5868796896654599,0.524638999105121,0.8282030202371767,0.6819430802305236,0.4972820323151505,2.0058661687409884,0.7390925148468807,0.2812895759253452,1.4729709669574798,0.8526214822537398,-0.08250730551623428,0.5606935050592171,0.5815044576074665,0.8707963366141032,0.42118903776752215,0.38530889806179125,0.09961988531635885,0.8505697861259933,0.7450749429449004,0.7038234323647491,0.2991142095145343,0.6032910444126294,0.5107673683061041,0.4929662543777093,0.7059973650559861,0.46075324125778905,0.3391946145820504,1.3843704647660533,0.5590415724071028,0.726688150687411,1.2873619221301142,1.4197427283176252,0.10776469516474557,1.1668973829274938,0.5568132855841599,0.9037902751540666,0.5774686458673839,0.5458907447760937,0.6498541043439978,0.6700517224552144,0.5847928629054988,1.56038946392065,0.3902812851628439,2.5040164282547632,0.0,0.7712588569939363,1.2446993569770066,1.3795678439166588,0.45419030058135573,0.6471172244226104,0.3347007987566736,0.7393212299412338,0.7359838106023436,0.9568180380933428,0.06342699392440877,1.0729547747922032,0.5635914375619412,0.28595519495130955,0.8291028513308459,1.0027508107768233,0.6147749128715829,0.8555823703772943,0.5804271719301988,0.2909959146001465,0.30327018189313126,0.4012841977247523,0.4228373499738491,1.420648796474443,0.40926355706796275,0.649292965308908,0.4981429963344942,0.48969284488862674,0.4368954456596622,0.019964421568324633,0.5869942536462173,0.656854893117689,0.5497089976237717,0.4441405980418922,0.19377814201779237,0.21395667024580875,1.253346179966257,0.9916166081117368,0.7449765678482295,1.1112967205624855,0.3483305613665014,0.48722419168535597,0.5223957921586035,0.4009408453924616,0.7584005577115805,0.41060932618549345,0.38514208129723293,0.9631825997339557,1.4315526795090936,2.0508688796157566,0.6345106251086312,1.3505564407113115,1.0596046636762702,1.2906109132100574,0.9932407614020029,0.37298439750758183,0.4249034396497292,0.8487033593320471,0.5893258309104322,0.3602111207417766,0.4680473471321651,1.0104370224250223,0.9289553162505457,0.23319224426524032,0.6940443909333879,1.6283692142557384,0.7131541568860083,0.22773310682528825,0.862351082256455,0.5518741234412803,0.29012844929849024,0.3919523674262283,0.2779350129585697,1.444674849860564,0.7906224498235627
Chi2v,0.3497581839687678,-0.1712326429406734,-0.17214061650321352,0.0,0.42077607585888677,-0.14288308070472358,0.11085018609799414,-0.16290132665216758,0.05062682443136499,0.2665815077055968,0.45061000290921194,-1.4103322791560522,-0.06271124858202384,0.42324180497426295,0.23143993210976138,0.08873870686211116,0.13580833743619536,0.708867802206568,0.10333561038340157,0.0051136542340558784,0.0,0.1002505658098913,0.08497010800401082,-0.024253951259508338,-0.14272706201640015,0.8172637260217109,0.41035537189546695,0.35045445892656046,0.0,-0.04059629297303274,0.4230739095683966,0.39201945768383206,0.0,0.5359792111760886,0.4861426218219678,0.0,0.24285803148062365,0.2502272198261081,0.37166364031193594,-0.1902781087553511,0.0,-0.025279421262855192,0.011346682994496406,-0.20788724112157483,0.0,-0.008032035430869652,0.4304741790495393,0.351101723336576,0.08260355767874687,0.3456307960231139,0.0,0.29009521344185824,-0.24280072141215828,0.05688513707802019,0.09195088109152384,0.0,-0.009617035014746448,0.3655779617709072,0.6308467422344337,0.059783938535108196,0.9011417384707799,-0.20697696995493517,-0.038637876297931494,0.18165247061229015,0.08898924137312192,0.02962323752384087,0.001888462502784589,0.5822650858910515,0.0,0.0,0.25430858667942646,-0.07162883861920293,0.7095230827566685,-0.2709537287772425,0.0,0.4150334257182924,-0.41700431687232337,-0.20982859306829874,0.2533490285487259,0.0,0.770881816059264,-0.23954491355441107,-0.177596531941485,0.18380170879941896,-0.00025991938470097117,0.3143009349901895,0.6350905741808747,0.0,-0.05233178648763642,0.2673980382509479,0.0,0.005760122622248808,0.01331996379353863,-0.5086547692192527,-0.29488610016817574,0.1271084066840862,0.25893799754980146,0.36037640743472027,0.031714210700716325,0.357244107655559,-0.40406313516551,0.049305521930225915,-0.310444090918425,0.05547337581298777,0.390453212226483,-0.05931917455255958,0.0,0.0,0.21344042135676006,0.28547949534255723,0.4967019124876658,-0.44784669367690116,-0.16163020881450862,-0.10787188850424954,-0.1324818511720615,0.11462426486243434,-0.2867681234704047,0.5854957464892007,0.5130048442352545,-0.003923833267446313,-0.08701845347758423,-0.04636614630394572,0.0,-0.3362843766406987,0.08391253364682351,0.0,-0.10061783821937717,-0.22325980757232358,-0.19885102290260356,-0.300766430969533,0.292312744803707,-0.1562040385122826,-0.06479697690986365,0.21452479224131604,-0.15014842007549703,0.0,-0.16582042793518378,-0.0773983190123209,0.0,-0.1287301131597343,0.0,0.32080287988598444,-0.2296776207167575,-0.18284595405071175,-0.07725016214244071,-0.043082229619172685,0.34780350112590647,0.30900412218378154,0.0,0.0,0.022085067081513227,-0.038748983973256636,-0.05461906873187175,0.0,0.06153985283995442,0.049991887611504165,-0.3431448427022945,0.13208418675590186,0.3012421810784873,0.2161291306760632,0.035164571853570525,-0.6254092768565765,-0.12291796088668645,0.23729037190244348,-0.07763832557346736,0.04761562816305529,0.16444776270165584,0.5840409422884645,0.02395029181617459,-0.09226125394085118,0.0,-0.1181882540108746,0.15788643907251912,-0.10653129520142705,-0.281438565559329,0.853149010884334,0.24730976077652148,0.34082112344248333,0.005469290596287657,0.1439972080754109,0.547637443434655,0.0,0.3011140350817541,0.32751127809068636,-0.3026299010034811,0.42032408027341106,0.31711356821957587,0.0,0.11216815665093245,0.0,0.06760701921090616,0.3896531434743473,0.7274627617099194,-0.5121327713728477,0.07175623375558621,0.120645645763007,0.37698284554533634,0.23874141767877674,-0.58854566494847,0.45745272783449425,0.067663577356162,0.23603564944494718,0.0,0.026185063779536187,0.05175440301648008,-0.051812367979550376,-0.150172228637303,-0.15929766496769018,0.7389777771771834,0.1766541914712942,0.3994071963253894,-1.044324873385471,-0.3170340764043733,0.08517477939634002,-0.06708411781735972,0.21736231881857818,0.4103444857805088,0.5746403468783963,0.0,0.14294499416591383,0.3952121125566952,0.054791875330027634,-0.1666032566735045,-0.6184690348682399,-0.7359772943277273,0.8068228932208632,-0.28756420068482713,-0.15644681730627483,-0.7075697873812181,-0.1943374387293984,0.6622440022841758,0.20343521961142313,0.1685610413625314,0.0,0.0055237631768037575,0.024316600372581203,0.416749878360343,0.05873068560116907,-0.02525915639149901,0.0,-0.3497917803145248,-0.08588379573248509,0.5605411763721274,-0.31099404767360017,0.037933176140960104,0.4121156888158845,0.3215297451212126,0.3861894032675986,-0.0706399357067256,0.39428418663775816
SMR_VSA10,0.0,-0.6649665388388772,0.14100493627379687,-0.2778628377581259,0.0,0.5018818756204264,-0.4917092487126073,-0.04721253351400469,0.18816976675372374,0.1034813568383056,0.22610305701212813,-0.6442797578220111,-0.02713882689683353,0.04805533913316402,0.0,-0.1937976175831692,-0.7500557143662303,0.2723474436033261,-0.1221397602712216,-0.4338562671388979,0.0,-0.27770331480248706,-0.3934436290797506,-0.3234979507354638,-0.4442816267212997,-0.25484071182482415,-0.5300674259169869,-0.2992585548999984,0.0,-0.4358766549276551,0.0,-0.3280079897462924,0.0,0.25550881719710483,-0.035642660598821055,-0.15682251989794863,0.0,0.060726660844695614,-0.19963199327631492,-0.3289207947777368,0.0,0.0,-0.37133253714786024,-0.08961725461501366,-3.543780950299855e-06,-0.29883127377098445,0.010600592204124158,0.0,-0.25705988704036814,0.19059908581597185,0.0,-0.42516698982398915,-0.6418623552292275,0.1311040171288896,0.002728315166030136,-0.08608123690314876,-0.6894947135606614,-0.09665244044271325,0.6486028408052378,-0.07811109647538093,0.008899441932645887,0.0,0.18586934286457252,-0.09009416824474328,-0.07669214810070098,0.05078406780590753,0.0,0.4388228287942667,0.0,0.0,0.41913078798243525,0.13727296059289643,-0.17532227081299584,-1.0708383479290269,0.0,0.0,-0.8570214482386119,-0.38744461754235077,-0.5756586232103603,-0.28845723767135756,-0.3810987645128128,0.13230849877424797,0.359424462687588,-0.3745006435640281,-0.12054431990764693,-0.1332079873491557,-0.6422431408299125,0.0,0.0005207069338971791,-0.7641665025160104,0.0,0.2464099571714207,-0.2425001423449792,-0.05230582300906728,-0.6050843921840696,-0.2499354397223525,-0.29771762384733746,0.3738427142971363,0.3511552339067692,-0.03625827924657031,-0.5304926828695816,0.0,-0.4900971385079125,0.37724276182126176,0.672139455796915,0.05146868960934235,0.0,-0.33296555780261144,-0.055241910509122034,-0.29422418467867417,0.0,0.13105212619246018,-0.004021117726546597,0.03483518756884572,0.0,7.162512981682864e-07,-0.4620135199617955,0.0952201433697494,0.0,-0.3922190577567291,-0.2668986514638381,-0.31832741141525883,0.0,-0.8568304809463938,0.06152752360271322,0.0,-0.9263338037222728,-0.26012388370897105,0.0,0.07465354729113095,-0.12316125116315664,-1.1556056632865426,0.01132007530092869,-0.6392475873995942,-0.0511462712627811,0.0,-0.27947450743712443,0.006262574039788961,0.0,0.0,-0.09517567820294075,0.22281627945571225,-0.2983669604698115,0.0,-0.5057951554970157,-0.3323008196842574,-0.3311945472995377,0.13294955392684368,0.0,-0.15251516140330712,-0.3513054335930009,-0.6004739148962712,-0.2416098314924509,-0.34742988144932957,-0.22607477154598563,-0.3145965651374148,-0.571144374479996,-0.672710923717333,0.8058746486563682,0.24990604293770083,0.48331313634692014,0.012421656053437941,0.3869460757854544,0.3094229849960349,0.3875835845309452,-0.18854068694634432,0.028651094095027918,-0.1320098862682791,0.0,0.185249712848898,0.0,-0.13034767952303286,0.06888089601241289,-0.3081210570161398,0.6691248754297874,0.0,-0.27764861854566314,-0.07163190805137958,0.30213055719146753,-7.973105434755342e-07,-0.38098755520363564,0.0,-0.10896136814311821,-0.9461648467678048,-0.14531456576740387,-0.20983442892860424,-0.6737613486879254,0.0,-0.4322712088148948,0.0,-0.28264958789540046,-0.13485540991120346,-0.1822960215058141,-0.9879769494670427,-0.8844244827094928,-0.3058147245267742,-0.2731869106218399,-0.19679790685522558,0.25670373942787683,0.05074446756692148,0.0,-0.03151488979888732,-0.1806949153173403,-0.11246106267244503,-0.08305666343485943,0.5615579005060248,-0.047917536561861304,-0.5001985953905776,-0.03088180716201334,0.9759268750414898,0.41683291455683147,-0.030000315634919707,0.036125967516993776,-0.019917547047249375,0.023248263675269894,-0.16184530404232178,0.0,-0.07747320024999466,0.0,-0.19354908792082248,-0.061808423637221895,0.05086071878036736,0.013672134745378928,-0.8412303921663834,0.7846723331208161,-0.25085828805479854,-1.5555763033262524,-0.1773755844222574,-0.6825911658725736,-0.8111419259772135,0.23292216248033698,-0.5801410915339725,-0.1803175318137862,0.0,-0.005453145868853523,-0.009992534977830626,-0.7894667803334154,-0.13492429531232236,-0.26760890310827545,0.0,-0.6799927514635801,-0.006688101234443346,-0.02792307703811445,-0.3045264969732021,0.18788509899505543,0.08651479708443235,-0.5506177198752275,-0.11807976592525746,0.26748093585099897,0.1971859920754675
SlogP_VSA2,0.03466646808906437,1.8494059093500084,0.0055020483954644475,0.0,0.7507026307962018,1.1675773285005278,-0.32812364743467665,0.9392516002119741,0.0534658359996695,1.472715369387929,-0.030858287092197387,1.1808731316642265,0.0,0.42631095924670226,-0.0747096855960196,0.5596284675481227,0.5813536021276543,0.7844425713484277,0.24851362871856686,1.1784915904505802,0.335370422543414,0.6203356077679578,-0.1289040882193691,0.7129721297412471,0.27714837868624137,0.770722818798673,0.24708272346900384,0.42239587852927185,0.7047879122826924,0.3654096111383377,0.1704080398780469,0.5900493762992235,0.8340710414522017,1.5187127955460737,-0.04910027983450781,0.29863823450807214,0.0,-0.1667755501716195,0.8438023230527749,1.1731602291493446,0.0,0.0,0.05847122016919474,1.1197982922331098,1.3161460784362187,1.079930485646479,1.665107758388323,0.9073215023224602,0.3892426065194251,0.5039406429347105,0.30503429417707206,0.26836125979358955,0.2941378670926238,-0.12448517057473676,0.2064474153185838,0.0,0.676466276262553,0.639303424112069,0.7652597820486469,0.6396397383428395,0.42103585039496216,0.280819774664826,0.5285090189739496,0.7769593491601567,0.0,1.1871001204065563,0.3712046289016513,1.3326979020302587,7.02645914323544e-05,1.1291568861546577,1.1381657822310447,1.937156091439655,-0.3837802761421534,0.6869024018362648,0.0,0.0,0.14264377328492986,0.854566565130189,0.9199590975116295,0.8126452895205262,0.3638894732454251,1.256909726874733,1.5004613880092081,0.33915892781335444,0.0,0.5854137684030697,0.2823681696001027,0.0,1.4967094574033681,-0.3681622920729555,0.0,0.0016796284333867964,-0.07122180265392133,0.635839831454922,0.8242423358511829,1.3013467968844643,0.9004325150772021,1.5979615790023145,0.8231719592776481,-0.012240249342407377,0.36804943183053584,0.0,0.03919248260736452,-0.08677962921530544,0.8768851655393245,0.8607918875555,0.5316818794900494,0.30445332204084596,0.73698608285481,0.010823918391078003,0.1581840261026048,0.25146351502688197,0.4893086205422941,0.4333131867289563,0.02557602883303073,1.0003116922567845,-0.3536181402648726,1.627639089995282,0.3090154524227514,1.2730722699867396,1.1352124250540885,0.706754686104606,0.0,0.21339560975401228,0.0,0.12544507156866339,1.398757217261826,0.8378288958064833,0.7677800391424325,0.33607605410494523,0.19118093980324244,0.26890317055727664,1.0190929235064576,0.11238663341227376,0.27278177474849447,0.1895500678241215,0.4224712294320882,0.6792921570910632,0.5040196504450255,0.0,0.0,0.4692752551923777,0.0,0.9355034491976894,-0.05060734666204788,1.195351072807163,0.8134242936915609,0.9150169248694513,0.4623337922799223,0.0,0.7707765969542061,1.0751148875615217,1.2470364565608671,0.04442691958923936,0.7001415221397772,0.38462502640503543,0.6227550036383681,0.9892719425785743,0.5953220993441007,0.10676861555990182,0.38935320140678464,0.19932173582317642,0.6004350626393223,1.227355519308673,1.1721955684296328,0.37852474458285196,0.3626202482702129,0.36120949477840486,0.5334898810079108,1.6826520119736352,1.0781434156096525,0.924958424906777,-0.4192073681921166,1.1164363586480146,0.32408546906817054,0.30417267834729006,0.004190669953097091,0.21670510696458967,-0.10062300068139214,0.9121048798634074,0.3963706684833827,0.5955767603333975,1.2473106394724227,1.181944527843093,0.4439681984747448,-0.0004791783200834478,-0.00951709701087174,0.05254609488803535,0.5142703198638211,-0.0046488565074397975,0.40646630536876915,0.3313937905008848,0.15131206745284864,0.7488163353903301,0.9477291444954321,1.3442382979559868,0.8388605768922972,0.8299451868993147,0.26099298757422884,0.6552244254420325,0.9952989188886647,0.5149394565384832,0.0,0.6084482139858706,0.5188783211210932,0.9798974409549225,0.8120250882688248,0.6575846100577686,-0.044687200129709975,1.2130418562627374,1.1702802204540361,1.0901466557180775,0.6943467109459143,0.551384889603294,0.6241856447008214,0.24567266522866213,0.4743915029429874,1.2599494109877945e-05,0.574833783684284,0.925943345648925,1.1177918607466149,0.5409810019010997,0.32331621878718786,0.03271832747383813,0.9052662807800352,0.5263584230457325,0.18481023069537686,0.39009847554614946,0.9970528056523554,0.9222003194283462,0.33070766495698645,1.4524123799128352,0.864923342101319,0.625314195662739,0.46177793171335685,0.47550520729800266,0.7336997343541742,0.021049897406824423,0.559736401894053,0.2703730013451587,0.5227730538983353,0.3253531383713024,0.17764355015090305,0.6663223246320781,1.5237825051619538,1.7235873729896272,0.6617155250804536,0.505875841525365,0.478713116535714,0.3712384938196007
HallKierAlpha,-0.32594129681355105,-0.2696543609244279,-0.027839554955299547,0.0,0.0,-0.3236659451908526,-0.14378708752047298,-0.6807469796085416,0.022905256077500675,0.16549377392154122,-0.7663176762743811,-0.12283300381858693,-0.23974618867507644,-0.2607283152062799,-0.19700812476156407,-0.01489014365684495,-0.7978769880551388,-0.6842873702561949,-0.3970685118444786,0.03590004423978756,0.0,-0.623777501623211,0.4533337876797138,-0.41715644527651835,-0.03341415510508192,-0.5006301792249044,-0.687613218730681,-0.41312095955400274,0.0,0.14664816024162666,-0.2268386318337977,-0.1353832718192103,0.0,-0.5041343544162584,0.42391627881054733,0.0,-0.549278092231423,-0.25414064815067594,-0.8293770001391577,-0.556181577325463,0.003610845173890105,0.0,0.09009788160965905,-0.41036447783453883,-0.06715474279406417,-0.24053507676698255,-0.4249782793715731,-0.29816845827178423,-0.35364701698690176,-0.5019799051159775,-0.22999870170982534,-0.38175507094355887,0.12901357117728235,-0.4752772817426591,-0.4151443360606064,0.0,0.059352120618259396,-0.4244660244874785,-0.16163363312598011,-0.1341760857225637,-0.6869937901632843,-0.30552254749685254,0.09667618128469592,-0.015931026334357407,0.0,-0.040892906298534794,-0.13482682364416862,-0.32923217915948283,0.0,0.030482873971921717,-0.2625901162119324,-0.5084860210464653,-0.09087205092241028,-0.3490198524740613,0.0,0.0,0.11570465999994255,0.049074539770231296,-0.25736113116790643,-0.320062827271909,-0.23967869955775425,0.025502620074161736,-0.3382281602808847,-0.7534464551475161,0.0,-0.09821333090468921,-0.30295724967382875,0.0,-0.07751921909348933,0.011524040203164991,0.15316889206934825,-0.40692921880955485,-0.30048870157644586,-0.36173490532093044,-0.2053371506246854,-0.21483836520216743,-0.4243497939980007,-0.21606580758769658,0.43246469458511966,-0.05198844710984985,-0.2710410509049229,0.0,0.09061747728739906,-0.17574790566291748,-0.08472075436652973,-0.6052704220990746,0.0,-0.4348403417134423,0.08262243765675928,0.14946855826104308,-0.44075127190694435,0.3501304560496809,-0.278351749629186,-0.32555558755770364,-0.09294235388774012,-0.27757120061997104,-0.09857291556160987,-0.20096448586104995,0.0,-0.27590787313726484,-0.2330833598490363,-0.4664329208258917,0.0,-0.4622216303389541,-0.6552725964478321,0.0,-0.004244032497042165,-0.22756375697848866,0.14860818750895405,-0.08196612164583789,-0.15928161476742103,-0.4430756207102036,-0.32095522988838343,-0.3095576692166018,0.40549380881054553,-0.05573619879525183,-0.8198693415210547,-0.40634746641734737,-0.33798140137226046,-0.1138232756493658,0.0,-0.13816697722445917,-0.2289645843736464,0.15882248720884468,-0.11504271551272287,-0.1489842005819835,-0.2005527966972934,-0.10392262230387814,0.0,-0.13776870934167887,-0.5926409210316056,-0.6846331574604904,-0.4352555657785376,-0.03521911178684929,-0.3570628718015782,-0.5356246948912765,-0.18364788201361917,-0.4563686391011815,-0.10282507534159376,0.2681550929026785,-0.8019547980599308,0.7807486406831934,-0.36761592224810635,-0.5696440674015512,-0.44758536090186446,-0.0604898756324809,-0.5080689458075917,-0.7114611841986479,-0.0950055531002052,-0.36671779369008384,0.0,-0.5439792420072462,-0.3227505369739697,-0.07753401323387958,0.022350821707795135,-0.040377706279038826,0.0,-0.5978698646542489,-0.8009094269630355,-0.31056008144837693,-0.013602004907496997,0.0,-0.4325346051453275,-0.5590645136710085,-0.38435039214205874,-0.031079081593441815,-0.4703267524151726,0.0,0.005099300363163109,0.0,-0.16272777985089665,-0.40401277129759144,-0.1755998788353898,0.17828793649659522,-0.5516819000756497,0.027823833066563608,-0.28934494213874595,-0.2990261335008313,0.36782550214301213,-0.3751642391538673,-0.573687774697631,-0.3397552048752602,-0.079908431159309,-0.29039163013705416,0.0,0.3178384177214824,-0.3812914423298995,-0.8277320201524486,-0.19327541882352778,0.18967451802330024,-1.2176173184157861,-0.5321619775482691,-0.3141559597168046,-0.6166436393711119,-0.355724883462507,-0.050904496781039046,0.0,0.02153948421106584,0.0,0.0,-0.04649454063433777,-0.41826319946588114,0.05657101752957034,-0.501057611588613,-0.6521493032286505,-0.5133659617649646,-0.10729402128793437,-0.24701802129973868,-0.5081631944954664,-0.45756130995930944,-0.24795818385647989,-0.18885807045075803,-0.27363210962375906,-0.12299831893749938,-0.16818418545701835,-0.13388513650366937,-0.22114202115885195,0.0,-0.2614348745247268,0.0,-0.4548422672925734,-0.5851980886431427,-0.3087608019916758,0.25503765349056506,-0.30630041048971024,-0.29611034113015744,-0.2858261178915398,-0.2448032682252244,-0.08280089345129599,-0.32965783142644545
SMR_VSA5,0.0,1.4376647638490867,0.5140788396393524,0.0,0.0,-0.4968521201211983,1.4843507667848146,0.5419801043134651,0.7010090090836342,0.39074822187503394,-0.01793406956405047,0.36941437585480974,0.0,0.024870472844720746,0.0,0.659481878632608,0.40407420265274535,0.48590352405142573,0.8796122728789014,0.49673486909805387,0.0,-0.029359843516442666,0.009542482699845554,0.7632918088261978,-0.13128831104216546,0.704516568329114,0.7072155265685975,0.0036572384302305705,0.09818547416872946,1.055087390182537,0.0630777749032925,0.6457613894710192,0.015419029309104854,0.7914462579161666,0.7120204941795785,0.051308833716059016,0.22379640683840585,0.8320929632336707,0.9705403956384059,1.319325684736278,0.0,0.0,0.46756636674797164,0.7631524548566663,1.3559284038703288,0.22402621323267938,0.04547279278318019,0.0,0.1411552126872573,0.6384473789288535,0.0,0.4991368780403017,1.025827024856733,0.3480883794750503,-0.11515587143039677,0.0,1.8599958862972663,0.20514448380052624,0.9074260630678789,0.5364399347148945,0.03128241404388217,-0.09162846478297022,0.3503089156316733,0.2125504866476065,0.0,0.5453043383231907,0.0,0.8228682842423496,0.0,0.23780984322187135,1.2583671119546276,0.03156004271365252,0.15601293774887165,1.1090907736024738,0.0,0.0,1.282705637338764,0.1600116722040499,0.7243980271269344,0.5810057465895678,1.0183831652939315,0.23136973680015469,0.25255048531219365,0.4591549407446245,0.16932609559605127,0.0,0.7289932376739777,0.21986276507894642,0.64173240805661,1.559036284831554,0.0,-0.0717133304463794,0.2311440797615451,0.5426537487415569,1.3224571692222375,0.3035723423301368,-0.00886397080878418,-0.07227626687548076,0.11730655503207901,0.3745932703151867,1.276866451920465,0.01894572257597508,0.6978219625824277,0.1382060955313786,-0.0740222014342258,-0.2987329942630894,0.12364540887776063,0.0,0.4467961507564176,0.4479986150340063,0.0,0.002770333377096599,0.1459804097158862,-0.2376417463645478,0.2378526927690994,0.03688794529839425,0.5851500503988167,0.5150808330698248,0.0,0.46696241387534354,1.22759343482776,0.3513802307123522,0.0,0.28884182547425896,-0.31838457676204196,0.0,1.120513370214241,0.13406850963138922,0.5992982422811732,0.637428119581621,0.24900933841002637,1.369089812474506,0.681366948708502,0.7508425169523611,0.728145540706228,0.0,0.9971076443835397,1.0645055157227001,0.17842035190601965,0.0,0.0,0.19352957625196543,0.4412206345640274,0.0,1.7331404341087373,-0.08370786236714323,-0.31756929753960933,-0.15620484292917763,0.004014450369799504,0.004680880049267163,0.4006573049172216,1.1640946342875123,0.17793011239076162,-0.035475130587295074,-0.03130270433735153,-0.021446229402823647,1.0402041044303663,0.6766154678737032,0.39295600283017623,0.5370130338449417,0.0,0.736232815056782,-0.28952083518043426,0.14786897305096405,0.5954657840744382,0.32616336706371335,0.4848864780786563,0.5212342848708884,0.0,0.0638224686529896,0.010711788502050363,0.05695566883919904,0.2745239375495994,0.5498609112392592,0.3439019215196344,0.34990302187761274,0.2234732251514342,0.25654293477968854,1.7549089158335696,0.6205270966035785,0.5166641411053685,0.0,0.3130319608318113,1.4004619351767416,0.8471927195546963,1.071157721549186,0.815077811637321,0.0,1.2546475874024303,0.0,0.07961832707907554,0.3698155545683561,0.6574901773921524,1.4110742625598383,2.1846857573174465,0.0,-0.23151042161580251,-0.009780799479898888,0.5849485930557078,0.2914401184641316,0.0,0.3936145942870858,0.19069176523485948,0.0035082470540393584,-0.04395909680545771,0.1880331743272853,0.6645650466660525,0.26085998359227147,0.9482997108857596,0.5126745401216798,-0.057310405750435396,0.08051183546169827,0.44552527577811596,0.015367930337399267,0.06898973003429709,0.487807766075397,0.0,0.5952705647254232,0.023597547508236786,0.474831678880736,1.389006739581426,-0.104509641751381,0.32577934523537655,1.0262417997337918,0.5374929623825236,0.6878861572495167,0.7638698162255736,0.0088353405043964,1.0992961306945919,1.0131365403633528,0.8251208921947086,0.5744544448534232,0.5229687128373759,0.0,1.0840087623626546,0.0,1.2742659455913574,-0.04788818104238632,0.5699722481579099,0.14412981236564673,0.340734404469198,0.7475604673946793,0.05212551656149108,0.8575463986455846,1.0044375518029585,-0.17003541008732334,0.0,-0.15719104727124913,0.10627766166526541,-0.04682055551860194
VSA_EState7,0.19872034484592316,0.7718741525706619,0.5094127735445005,0.33869573016545806,0.41984095618659356,0.5736448664433947,1.188301169391387,0.7800739567303026,0.5943036285976728,0.7740696977561019,0.25252032888012904,-0.07820165953303414,0.3861794535925547,0.43624568680248915,0.4484039280029123,0.7916561251072257,1.07795035595605,0.9889503623276964,1.1857679725571182,0.5502617908465569,0.0,0.0,0.22030803833861606,0.49705567170207643,0.4110752522167583,0.2612724250904994,0.5121521838319435,-0.04676023379721907,0.09264425044134525,0.24555073526580365,0.30871869351496,0.3733983384256999,0.011521653568936578,0.6855882485249903,0.9082857005099314,0.2677540771245814,0.597539987437904,0.9514720709057641,0.6990925956572407,0.4937793030929046,0.009065124144002063,0.0,0.529111542369132,0.9983475135950359,0.18993541681489437,0.3238456542044384,0.33922532288022117,0.12839553483184468,0.6589181499887504,0.5314530095667596,0.31087663397291493,0.5294655932714054,0.6218109283389055,0.5477005497075409,0.35302011717248294,0.6151832260798886,0.5104982488540646,0.38789484075696484,1.2905578921365288,0.9107274555280029,0.6254596669251173,0.4008197261731459,0.13990332995719998,0.340894265018836,0.30140007908963345,0.6334810606051944,0.36751747519598205,0.5278287346431073,0.5633559172506574,0.09920611602126911,1.1827965470009483,0.06995520709817306,0.48281047763623025,0.5185691384525459,0.0,0.30721769799962845,0.6534241584013325,-0.2576573083899526,1.532576392582383,-0.36432013606237895,0.8895344637608249,0.6178327511935033,0.7462717322040472,0.3399013068145482,0.0,0.38038840364873766,0.8733708372433456,0.5975492034107619,0.8437241689423712,0.6818796677889859,0.08475626135628413,0.13968390395615254,0.8591349367079607,0.6561254444839449,0.18612799576609654,0.5108332545139471,0.4238501751390793,0.5020295070758467,0.6360513213251704,0.12497346468415857,0.652780489244796,0.033064102439787475,0.5207203882935594,0.5632958323714927,0.5684821378536008,0.5587040296958279,0.3433863217922055,0.021285287387250034,0.875757047161773,0.8091791107590367,0.1807477845774079,-0.2188713845158869,0.013093032417336083,0.5768192413615022,0.5305887854254954,0.5460829426052453,0.5202105277227612,0.7265510544786867,0.6056881660507084,0.7617809675149756,0.3804595986746697,0.37643256378000994,0.061258776884528694,0.10742335540770932,2.022773449885382,0.0,0.9985626485254032,0.4175750996623437,0.9162784900891698,-0.09359895501466048,0.5589138208878921,0.6664323395745673,0.060590664940447805,0.761157248222337,0.2455394297352828,0.09954658132995983,1.1801787341000618,0.6602215026352618,0.7186675726359124,0.06623453148590044,0.0,0.7276088725470682,0.5529282253681278,0.3008427484837812,0.591094892816744,0.33135391579803186,0.32069258409759394,0.16623290834518642,0.2392723945506203,0.03320030665709946,0.36972363987770096,1.9863211641200214,0.4997632429446858,0.2934734453293325,0.3141376834788474,0.503873275709438,0.8539105444500392,0.4265423801765057,0.4397736738996655,1.4655679636322805,0.6668474911633764,0.14861937843478418,-0.25722304016085845,0.31983623538541534,0.6850074076016787,0.5122389564158554,0.8670071738805089,0.7321549666158991,0.07452992435301967,0.46037726345900465,0.17813819871402345,-0.08229900624609177,-0.3650531795869316,0.642484976198898,1.294679501625199,0.36410881969792186,0.22837771230021378,0.3637991456874081,0.49447087763952846,0.2953528600893056,0.32670195967473425,0.06384369727254344,0.23688295121905295,0.9204616846257282,0.6795993317297792,1.1362391672758714,0.19087119686108128,0.3025145778303103,1.125528284231257,0.17569663858382206,0.4505101412279294,0.1418652935293699,0.5635988829392573,0.9994252179329366,1.0118388021076568,0.35881155419628985,0.298977623489625,0.36762612257726446,1.1661368414164839,0.6942867115936583,0.5156007361755207,0.0018211077943295487,0.1957807820049388,0.08858840146797303,0.361999057273685,0.5777588245481105,0.5914643398884627,0.8738207525173354,1.126857771656782,1.389667312837155,0.2669100657948186,0.2987285593474762,0.2884224726832642,0.052249510900241235,0.07162027889329671,0.9933133276432379,0.5333093379822555,0.6347079768838817,0.0,0.24530044099981907,0.7120385107028386,0.14021596973390574,0.3009929108086203,0.7991048819756229,1.148855108385587,0.28475171608839617,0.7824802309170955,0.4266130609313966,1.2829419305803182,0.5352213086146146,0.8868657019122619,0.248498554395144,0.5850372012076189,0.2573766304433316,0.787129581120531,0.3922256254634217,0.29787908780398653,0.4772481716917123,0.607813961302084,0.0,0.5322277627705778,0.5934856233892762,0.8055642808400942,0.6655677698719108,0.5655956072385737,0.2518983305152369,0.19301123548987786,0.18324463639138022,0.2441482409405827,0.18762563412703148
FractionCSP3,0.06458751024348836,0.006955652347421965,0.7017376771536904,-0.10252553547307502,-0.08472999357771127,0.1770352950056199,0.7008389391122649,0.6246964673715372,0.7929570335400452,0.6717934565047642,-0.0770661903698203,0.05711216320932613,-0.06912826781927703,0.1445376411443061,-0.3426566353668379,0.6344260927878902,0.42246721059664333,0.7803796211256703,0.0840640906438409,-0.02058942143167944,0.0,0.0,0.005419382910632297,0.029299414025638446,-0.7401212731973585,0.05757917608092267,-0.24548327618487464,-0.11194371466604501,0.0,0.6598745317567011,0.0,0.2982597379090173,0.12618356415933035,0.8709238216115835,0.7605256490549186,0.1712149128613592,0.02818158121360196,0.2505713469398543,0.502476424377618,0.07082323746958909,-0.05573566083493815,0.0,0.19602952437675367,0.5400072257533465,0.7722662710242226,0.3199005081797018,0.1855488193765947,0.23080848068634227,0.43004034652202355,0.5152309530066932,-0.04928007309355971,-0.05208607473591671,0.5900629649476504,0.34154102495817257,0.0008453843017400958,0.0,0.7866206605562208,0.08544206097751628,0.7089510329513913,0.15075359816350437,0.14531173025663124,0.19165036447993758,-0.023206960992843424,0.003444623148364847,-0.2433145352328161,0.7664779280064515,0.053412171494577,0.8803675317920523,-0.010914119359519532,0.10721951355027404,0.521021667511906,0.47563359877579114,0.3116979112528981,0.4916316098563054,0.0,0.0,0.31366020012085705,-0.15707368006994948,0.0595312615204157,0.22146274654552056,0.7053588257543884,0.5418556424583771,0.36744505238059333,0.29315908275618185,0.5173197160990511,0.0,0.30233826494221616,-0.04973655794809397,0.49008091825845823,0.12848398087372626,0.0,0.025342510252870595,0.6162628095339558,0.5594253770403083,0.28952410360905056,0.2936738732557314,0.09788058708924031,0.4053120928077966,0.4238627857399143,0.33047039227261227,0.9485389912311842,-0.13019924290429585,0.7374175878159345,0.4005209311941648,-0.06584130033480855,0.42410714499162133,0.0776452835683939,-0.19054506097863205,0.6746142413022315,0.3736231488202801,0.0,0.06335860828036383,-0.28587983976476333,0.2878316301708793,-0.11300196941476184,0.3797185761360738,0.32394944265630565,0.6302463261319962,-0.22512384849725672,0.34716160533765894,0.33012930049206907,0.1556437950325989,-0.094628602704775,0.4378886401358719,-0.9669990879653835,0.0,-0.10211707297481373,0.5312433843149291,0.4999471206420142,0.15399432903353386,0.3723091188532994,0.8110992463446699,0.2302951574502591,0.39435846342388825,0.5019835459294562,0.10219167260672574,0.4197707706411619,0.5075103020593169,0.10767664633702917,0.0,0.0,0.43638266531791686,0.4241853429086044,0.0,0.4913753903885378,0.16487454611485217,0.1119879118476524,0.0009222944520211633,0.0,0.0,0.37495798451533763,0.4629427019715287,0.2788098354506711,0.0,-0.24821719519939692,0.14747027598224702,0.7176369434519824,0.5123341674097256,0.5300109950128914,0.6187046035997901,0.07128697855301994,-0.0808409952242117,0.0036841773986998937,-0.13533422365889805,0.28266309819547086,0.22260974288429244,0.6364885408738127,0.6616626198585391,0.0,0.20198414071127058,0.0,0.24001189215097649,0.4053673000685984,0.3009179407724158,-1.1116092098293358,-0.013245742481921317,-0.2623351176291665,-0.006999175559410152,0.4238224112613075,-0.1869964828634638,0.19764959136256313,0.0,0.457624050015704,0.07926437737251762,0.5171409366838103,1.001663086220921,-0.3169953636386356,0.0,0.4450966913135329,0.0,-0.20566882971277442,0.11316172359585618,0.4617581680881577,0.8506863894915037,1.2066210199716383,0.16934036213537054,-0.007198408352368217,0.2738242661250762,0.2438669549082837,0.37385259812718985,0.0,-0.021269267994766354,0.08615879269666732,0.0,-0.24770127960176594,0.23160283865316533,0.36982503639618997,0.3097234333225528,0.9503277418378955,0.5292922826296067,0.2809178940735176,-0.08109686807374955,0.26380311021918806,-0.13585521454833907,-0.041088068670066355,0.48624240157453946,0.15819704454738107,0.24093721503035212,-0.11051174430543402,0.3076631369245173,0.7362549950667999,-0.03878044640665848,-0.0974987241367143,0.16109606584056055,-1.015173409768305,0.11562693587538748,0.2159448885232099,-0.375478202123,0.27291946971306635,0.6485817393980964,1.009377877275,0.5957594289094025,0.6569864539988898,0.0,0.6698532032636243,0.06484603414300597,0.38711153776721474,0.0,0.328654219134071,0.0,0.20751624170202806,0.7329515322546054,0.3960650335335796,0.9445667626380486,0.17730187805336062,0.31764820062613786,0.0,0.08758498241165565,0.22892247317356376,0.4627443608181562
SlogP_VSA10,-0.05688981937065328,0.0706435350466531,0.3545909108295617,0.0,0.0,-0.9140730329966514,0.505158667559006,-0.09025871478255265,-0.3133007397307283,-0.9491417151603774,-0.08167011839167201,0.8756324567281973,-0.01730193063485843,-0.09996918601677456,0.0,-0.06207497784247264,0.20642487802011364,-0.6133724528302051,0.658615581208595,0.09337944156913282,0.0,0.0,0.10069128563168744,0.7215484273546685,0.4560763027083458,-0.40571525679220544,0.2915955411580055,0.29230906723550176,0.46387855679200357,0.47738018542642063,0.0,0.07420006393386343,0.0,-0.5638541790872297,-0.22025404749732305,0.13090161074744386,0.4819432283633284,0.1839029326668511,0.18323558497331519,0.43669781957814613,0.0,-0.2729247152216313,-0.22611118061743873,-0.04501412094542854,0.2738943167705141,-0.4219926609734116,-0.7083003141271901,-0.3779741752701232,-0.08329089834998023,-0.15191515849537832,0.0,0.3804458763019379,0.44511319889628176,-0.44762244068195595,-0.06650263658042095,-0.009006369498605091,0.18898883055547394,-0.026292545951648892,-0.5903051664139449,-0.07043231482698108,-0.09230394997914469,0.41477692873183636,-0.11981353970302676,-0.28056824952503845,0.23054384733908678,0.13459567835811445,0.0,-0.8517489750004428,0.2885187826321138,0.228195243245732,0.1464341000589787,-0.4625103006203342,0.22342511174868113,0.5442658152176738,0.0267697492816642,0.0,0.9995990031185036,0.0391518695901078,0.7901638305216345,0.11056839089478655,-0.35040520415238774,0.39733362353711865,0.33392114193895256,1.0511665498830611,0.36239712450067324,0.35713205521111546,0.4499604276217861,0.0,0.22751023985670377,0.7223749942243288,0.0,-0.373634829715636,-0.7128797691952539,0.2220760199784616,0.12486220650823991,-0.31060246342567893,-0.41575765011568533,-0.5431580933567366,-0.2475727069072896,-0.046669744381091775,0.039097026049243935,0.21493002347750925,0.0807329030592061,-0.1279875549408823,-0.31009410312308244,-0.6934606420286888,0.0,0.0,-0.35265452092571303,0.0023268986659464156,0.2664577283805262,0.7526822229033124,-0.20281551346437082,0.13710983781146213,0.0,0.41436328602598965,0.4615928538029457,-0.5039942430442493,0.22304410261253202,-0.1744175270664001,0.38473614086048136,0.12463651415066226,0.024945074059892033,0.7094337957174067,1.105334551916112,0.0,-0.016944575910939674,0.62326710436966,0.0,0.4578973571621067,-0.16361907195337566,0.4820670267141055,0.25603980712065927,-0.17964433242807445,0.3739857166237517,0.15106894821213487,0.6666386193962399,-0.3499242292960993,0.6480773198283127,0.0,0.0,-0.16560970016337534,-0.05768105482476592,0.0,0.5880786465805877,-0.556490044706644,-0.2587925489044478,-0.20386673413397166,0.039106653756949585,0.13803093391567312,-0.08680571551640955,0.36241175751669163,-0.3769592329679569,-0.019426593400504726,0.009021380697789112,-0.043583035063288214,0.7107677685011368,-0.07230293814968113,-0.7673174665362178,-0.014664314476814244,0.36091388335988295,0.5098200556813772,-0.2545483347762915,0.0005108455195678836,-0.29633568964800167,0.2583194147276027,0.31537716005424565,-0.26001286508100335,0.27910825282962487,-0.05492732670052085,0.0,-1.4909861658556302e-08,-0.04229025191689311,0.6968978697192197,0.37952906374952416,0.0,0.2581077868328469,0.5482030903266479,0.3410310210751397,0.2707132622831538,-0.4485663739245052,0.0,-0.07470475235508081,0.2385605582946948,0.24831716622946087,0.5614815403704668,0.5800804872650094,0.0,0.25191851776177654,0.0,-0.053622200884198765,-0.31618241840880956,-0.5984526829184165,0.5944556611638908,0.43467187757503384,-0.3780328371759851,-0.3105698060762096,-0.3173396141479823,-0.2830684639557296,-0.24699812877683397,-0.267263019947484,0.2820016248893203,0.25224113994353975,0.0,0.26588206656613095,-0.9417110930629526,0.3529896455910698,-0.035144344649186025,-0.48429728052332366,-0.4278828320132955,0.3035517821505377,0.7044227196044447,-0.5573182996558311,-0.4467817980292518,-0.16318134641266294,0.31194392310035934,0.0,-0.19594328419644247,0.6449188894811428,0.3028836675979226,0.4373512225968996,0.4241327834720566,0.45665402681874123,0.8270411850551344,0.47036457720039915,-0.3108597389759069,0.02527346631993928,0.10777659545637024,0.9603967405215063,0.06948565801570929,-0.3967611475020021,-0.21765549269485174,-0.01349842164018246,0.0,0.3492851883826457,0.19511338480607748,0.7844439704161816,0.006153024602865846,0.506199454188398,0.0,0.7966840534592048,-0.06999210928380094,-0.6928857367882767,0.0005706538572390332,0.21628208844266222,-0.7634474263750979,-0.12462503556610362,-0.14682679688109457,0.26814032200542726,-0.4848936514420881
BCUT2D_LOGPLOW,0.13361136741164262,-0.6468015499899737,-0.5034662110283165,0.089355529665053,0.18879981947043772,0.08560228559015733,-0.6211218001564589,-0.15247809661463746,-0.7251798014477793,-0.5701575373977145,-0.015204589606705015,-0.12388693049709833,0.05246304593959065,-0.04158296324003357,0.0,-0.37898121858023415,0.09235856757987647,-0.39339595761166346,-0.1025854122910819,-0.12479249141806664,0.0,-0.054809464061005946,-0.5337305729770326,-0.8614220321499904,0.0792309776019392,-0.06450553402498499,-0.14188580095300496,-0.1763438195186996,0.0,-0.368715123197545,0.0,-0.1286234547059306,-0.2678505161225754,-0.6737300075285442,-0.5638436462322446,-0.14945049379686134,-0.03397490187987329,-0.21895766836649755,-0.33178747889415083,-0.49724489459549687,-0.5221684243325965,0.0,0.024616794030445775,-0.4678530647498224,-0.947128849515214,-0.2553331527730282,-0.199269219937724,-0.24481655261550692,-0.05294270334185288,-0.43392272146330374,-0.16406960348301441,-0.11181638275882239,-0.36120210164122296,-0.284675584457725,-0.03714420780245333,0.061146521696400134,-0.7988538867291225,-0.09363749534353634,-0.782280764263869,-0.20715496027542152,-4.984785315785306e-06,-0.5390801764041212,-0.13656912275716984,-0.1166087073471711,0.0,-0.4671708315488694,-0.24135788411087233,-0.7548279791263499,-0.16063604966446185,0.0,-0.5712824340551732,-0.19484454491870778,-0.3736279500837434,-0.2641953066330624,0.0,0.0,-0.46621509711675096,-0.4059608300241522,-0.42656982403133625,-0.5293250820918852,-0.3523828186507429,-0.2515802889114665,-0.09107084406471884,-0.2865937855738572,-0.283181986855665,-0.09923019088965854,-0.5485061747882894,0.0,-0.4215241383756243,-0.27785678909038075,-0.34611959264950093,0.13254674434137273,-0.0788217226541435,-0.24628999116772118,-0.8522573986374636,-0.23427736300980365,-0.10993930760239182,-0.423130680659279,-0.09365622675488564,-0.288042524508842,-0.7431520963780829,0.0,-0.45359163306520134,-0.2706054980245105,-0.06362567875191064,-0.23806375921548434,-0.12359876041109308,0.0,-0.3513708782158846,-0.4666052197425355,0.0,-0.21821168308781808,-0.01973410118025157,-0.02806797854310489,0.0,-0.029040313945824608,-0.2590434200579852,-0.5357994510402492,-0.0344842153604724,-0.37391670800981053,-0.6884266997733692,-0.12449037394960777,-0.10781175149349981,-0.5344213720455677,-0.08000627478548065,0.0,-0.24696619458083643,-0.5518734601757638,-0.08352774178692159,-0.5491154065148893,-0.11908748971673414,-0.48246979623875336,-0.6875593895428933,-0.36922845857676445,-0.7134291027605524,-0.2306191442680499,-0.16210156576703316,-0.6319886720361495,-0.07380627700321359,-0.08990455027039132,-0.37871932230484157,-0.24470566955430662,-0.02473357966277177,-0.19703587846930692,-0.5659529890943614,-0.0995173635426092,-0.055399957567029354,-0.12939721610103172,0.06279171408409752,-0.031736067916065876,0.02324776026880679,-0.7565308509176815,-0.0727092887448973,0.07096006383806275,0.15494845016927317,-0.09404157552397895,-0.49219450177138335,-0.13397480702927855,-0.6129068045227066,-0.5939559940847711,-0.0821908977978033,-0.5167832160032194,0.14340167915147267,-0.12867825022315377,-0.38262777817389493,-0.0601194343448633,-0.27455157072236613,-0.6007792474773995,-0.2910187560822585,0.0,-0.13233769007892457,0.038770351551012,-0.7869963194968462,-0.4578264520775772,0.1986925714954434,0.0,0.0,-0.20645046968864894,-1.1329235068665706,-0.25533355837744737,-0.2523061549063314,0.0,-0.09292442084321348,-0.7716825353259951,-0.3821153042904405,-0.5551661026393788,-0.30972711407675735,0.0,-0.4442319007408285,-0.047321627141832155,-0.2937908912145456,-0.2106793660693851,-0.44963757796960097,-0.5528057419545317,-0.9829768759179688,-0.15348560967167513,-0.17381093278704426,-0.1436127985560621,-0.17821186265277178,-0.3811201811765243,0.0,-0.22071122134730808,0.0,0.0,0.0,-0.020050384888037568,-0.4385974116618064,0.06538668332572921,-0.5913015238534616,-0.5664992004761673,-0.04563249910931711,-0.36669849804426574,-0.08678252951531563,0.09590112227925102,0.07171753947633287,-0.38779694697865413,0.0064276729190795474,-0.4457209305382953,-0.16328421222560188,-0.7651246087590582,-0.780050562203655,0.12446113756963575,-0.43000105774411546,-0.513302112331303,-0.23121861391264778,-0.31256808768596006,-0.6477054254906306,-0.6687692711441747,-0.6097339191843125,-0.49024878385049037,-0.34063950144592764,0.10428088588329212,-0.24942442601297804,-0.27793569947884383,-0.43609743439493703,-0.13885379812927692,-0.6219825976425098,0.0,-0.04212957294691544,-0.10690635989023127,-0.6332396188365913,-0.3532530237101859,0.018165499444342426,-0.5348575411424521,-0.7439088572207756,-0.17846825731220303,0.022514758523716337,-0.01731427031491831,-0.907902214230523,-0.35155292554844636
VSA_EState2,0.5206961801192961,0.19824510087661562,0.4407917733929689,0.46593806217193073,0.48799339628414606,0.6842017852485646,0.5309245208385277,0.5888997269956874,0.5008970842830065,0.722868819905968,0.7631389349791493,0.5267106927148008,0.6107382013246588,0.7563757291085742,0.4311420958503751,0.41133499577779026,0.6377573096495821,0.7675994531737294,0.28669557216016495,0.5159067590692232,0.0,0.47871564082724793,0.7270020205796214,0.7028216398297887,0.4034169248435539,0.5548905312809834,0.406332496423902,0.671928091997975,0.13356829285072283,0.5895317439705545,0.49926654311559865,0.49959160281518844,0.07971569884804774,0.4526714524068754,0.2623752762115358,0.19924912927557206,0.6631366467720173,0.47283830307872504,0.573437018789331,0.6905556388876486,0.46524336785754977,0.3747989951735255,0.5828475142879569,0.3345696236193143,0.8071759590751167,0.6502967068697,0.5644517225586224,0.4096388440599819,0.1078499819411399,0.7070407860735496,0.517294493259983,0.2213150706227452,0.42138957073826644,0.7111316837185013,0.6234944911214106,0.5673220124354805,0.5655784012841013,0.4026227600875736,0.6592911956019646,0.2761054481843836,0.44344064205474415,0.24076046861114234,0.8599751040044692,0.9634186012700127,0.490564376229486,0.6183284513627894,0.30890964498184903,0.846778535923434,0.18700246717786986,0.4461722088579982,0.655318510674389,0.6145081512842513,0.7726021962421703,0.9453863831400191,0.6520626391748041,0.10774062393415273,0.5316179865949529,0.47301381990505054,0.13775048632455938,0.1722003316428251,0.8830130344563797,0.5422982154935927,0.2977907327134609,0.3336938216481444,0.05407809984384464,0.014790528698683171,0.6960551022062216,0.29974652251474787,0.5035486944386355,0.5318620386943976,0.5607159783122122,0.36704279037397763,0.40921638148421446,0.5319712982734195,0.5476329357731797,0.5289264210648918,0.4715881828597743,0.567621007230056,0.5326442048016934,0.6489661096455842,0.5880552284029469,0.023155676706510808,0.37020536059505393,0.5042704975279861,0.5946510153330798,0.45398513637695664,0.03770755441800446,0.3297920409561687,0.47436338927404664,0.5513477650213937,0.3440471046899578,0.2182740140218932,0.8438089233176455,1.0384498206043298,0.561147846557544,0.2576747237062179,0.13023585474512203,0.7469311992443072,0.2312590870536165,0.49643380910924195,0.40028166245756064,0.6102500813009765,0.42064788978237666,0.743575269691004,0.24396708193429417,0.13255488928954845,0.35941695573077154,0.7226579000769252,0.3089252199677788,0.593149628661405,0.4761482023608211,0.42023990581036746,0.37578445086036555,0.25251599459852087,0.14010086091750149,0.19958234269892935,0.8206641678446823,0.5356306039543474,0.34920738566508885,0.30297000206487595,0.37854269049799066,0.4549159575194848,0.36601840580079203,0.33090478666029577,0.6705984624101101,0.4417226951811764,0.4009190201221915,0.4306792453001703,0.06057073940253309,0.40506287996326107,0.38652130204768825,0.3375224453066727,0.21649355926024588,0.49617512475466613,0.4799543181206103,0.5499224673192935,0.4115672800417943,0.408492186379732,0.5630208073664976,0.47392530331512617,0.6375449753550606,0.0472447137247816,1.0383895333236473,0.7324969266756648,0.5206636131014302,0.3794436182595985,0.6418224747152832,0.6884329235423395,0.22659251742464792,0.4950164350383357,0.21608140087412028,0.6505577616115733,0.8309823992307531,0.49661186943618524,2.1312076375048323,0.14540680685235938,0.29470407001813964,0.6631127565915182,0.8230463343616842,0.6794126128065342,0.6126056640010588,0.042962831262319076,0.3093567773934549,0.15170240437935925,0.3481022765440217,0.3040845280819387,0.5397431575799297,0.05432221187857392,0.3426544095149245,0.05776058307781236,0.32851688801768864,0.5732233377609026,0.6866476174760249,0.15086036562381364,0.8497768543123959,0.4012844095676797,0.39863369850761166,0.5183936867844474,0.017112874417448375,0.5306940164352708,0.4991694219638754,0.23943862893199153,0.194310485391652,0.5624439435900599,0.5366854096895656,0.47874213918817016,0.8001452036547624,0.486606620089917,0.7249731859698921,0.701145260492107,0.9955290030624212,0.22947613634718125,1.0182525716203932,1.0009157646310924,0.33508827860906293,0.3874881230929828,0.49895303382864137,0.5552048115180006,0.1547855377279869,0.47564355015900894,0.49708437684842927,0.6572013308274431,0.6662461137569078,0.7446779617463563,0.8766454671694658,0.5732805938266385,0.3683161371765003,0.5781738927081226,0.2586710567592617,0.7180682631645949,1.0260280244866797,0.44515591003891053,0.3373872744167819,0.19213161289768346,0.1969778809808438,0.0,0.651677949932294,0.2279482595302325,0.3222883501699564,0.10579034962654268,0.3459728392193455,0.44452453354943694,0.3944460738668843,0.6111563700494803,0.3539340174415633,0.4965900077463784,0.3771560271378347,0.4206076081327591,0.22671161965820968,0.7223257819282969
FpDensityMorgan2,0.10804688285417459,-0.6273798562898245,-0.427482295982612,0.0,0.011531182700872701,-0.7582280744427184,-0.07407712282495314,-0.8096385705798587,-0.5568807101919853,-0.8709683728984415,0.24013602749798368,0.04261234782375365,0.0,-0.3358581621939825,-0.015170943017395286,-0.47545856592331104,-0.4486847912574125,-0.8143389104233654,-0.5539118115101707,-0.2804981080964923,0.19829338220807513,0.369729014143945,0.16373517922564612,-0.3282546940515015,-0.2041075516604299,0.44527758536840767,0.03491664395069982,-0.5654167336202759,0.20209713896483134,0.3962164650812188,0.0,0.09293479299104024,0.20449879904605547,-0.4848817604557063,-0.6198466945895027,0.0,-0.23306301126230292,0.5412074068517974,-0.14840080876412431,-0.324987268883234,0.39859167681479746,-0.028519197404057908,0.06404799118396941,-0.4082298205723166,0.0,-0.2541601760133717,-0.4311795915650947,0.0,-0.3623686166927357,-0.47567135834711566,0.0,-0.29522591794863867,-0.006783588926612054,-0.649478839925492,0.04535185976604798,0.0,0.7734051714278192,-0.25552109749751917,-1.1898447024882552,-0.7840152181494524,-0.1802241286617295,0.11230478858576198,-0.3304209172890826,-0.03844004064600928,0.0,-0.4077732949222658,-0.050656101869795196,-0.5910712551665533,0.08590042618675124,0.0,-0.15926690034973906,-0.1406460380875757,0.1869949973521529,0.3107886460068157,-0.12759108974237665,0.0,-0.042423654525188974,-0.3548434494601735,-0.4275412674051358,0.6650066359556236,-0.0702838170587751,-0.55647617851717,-0.7000824277663615,0.4052226999130987,-0.1528316680116687,0.0,0.2750571571933874,0.23415331106391474,-0.1280313123953457,-0.3797921246186806,0.0,-0.28635245004199644,-0.5946527727232797,-0.3061043983255033,0.13036302344550751,-0.4055168816761733,-0.3973317833946833,-0.5792851558694946,-0.22200541022898523,0.2692064799819817,0.19001671842137885,0.0,0.1418680309405764,-0.8089410652069962,-0.5588211463736855,-0.9327007817568622,0.13319759597008882,0.0,-0.5453690296178558,-0.5943205025121617,-0.02936508566111555,0.44524364313175485,-0.0766483305847018,-0.6293963804184307,0.0,-0.10793354045296258,-0.27023977923818204,-0.7244061490229361,0.0,-0.02158495250838221,0.44635894851133184,0.006279009274409815,0.0,0.4675353738475929,-0.8752295107925092,0.04202942369452296,0.13277397689944517,-0.47957742654973917,-0.15945862056220608,0.15094460244982078,-0.36482426117973477,0.047868625300402715,0.18859220067245622,0.12654891671745533,-0.36123972596053466,0.0,-0.7428061446654071,0.016336079047935215,0.16043047019242196,0.0,0.276883032552852,-0.10155354047954074,-0.22210217388372125,0.029411623074087165,0.0011444558036305837,-0.3222091803805558,-0.2772913548060155,-0.15411715514411467,0.0,-0.06796744018711325,-0.34809016495839057,-0.818381091070056,-0.1431162469831347,0.0,0.145775416869365,-0.25431076319680346,-0.1731204561759504,-0.12072786220463627,-0.8025112150685053,-0.9542675947047807,-0.44279422700995785,0.289394915457032,0.17340058342838557,-0.3861979779830884,-0.8048892183219674,-0.3280266061691418,-0.7011379916539289,-0.08257262762933715,0.020622582856541703,-0.07872950228195622,0.0,0.16994362102136465,0.2791176076558595,-0.5885469146336372,-0.6224343358254745,0.2150810906754226,0.0,-0.25373085016871105,-0.03611474249263862,0.25141972875920254,-0.111970848106759,0.0,0.071588432489121,0.03531882462884137,-0.5514091456393717,-0.4195064645456383,0.5990020847281654,0.01674665328194628,-0.5736360474503021,0.0,0.10284194971815894,-0.17950223316912295,-0.26138694834167686,-0.1690897116978141,0.20111808776856296,-0.2617656339998862,-0.40485317799972315,-0.3560831351129549,0.02342041182393038,-0.7282798100966703,-0.4076201325913589,-0.04800111721753053,0.26447829874373974,-0.04384354547164826,0.0,-0.5863248260022693,0.5950053190298352,-0.6402445328248615,-0.5078597088984284,-1.2896054760090778,0.30458145874258086,-0.03409783653181978,-0.21154736249657888,-0.13620284925227105,-0.14940038216609408,-0.6931246145580277,-0.019824187401111686,-0.4124346002970713,0.0,0.12726256571170783,0.2943769204458071,0.01109650662526204,0.0887352972443726,-0.1048701992374056,-0.6386990188505017,0.6198364591815118,0.025876874940267264,-0.5870653566132307,-0.5452658894895897,0.6419222640410668,-0.5215010594295579,0.42723817492495725,-0.05768977236187987,0.0,-0.5749453550776434,-0.24024044917912135,1.1415582771827324,0.06455218548169522,-0.20541270640787204,0.0,0.01587578070952322,-0.4047380285179588,-0.4178520068240875,0.02579896775325909,-0.29310871460470983,-0.23917185012650302,-0.150689645424409,-0.11326243409652072,-0.09513207373806672,-0.29481393060383865
