,0,1,2,3,4,5,6,7,8,9,10,11,12,13,14,15,16,17,18,19,20,21,22,23,24,25,26,27,28,29,30,31,32,33,34,35,36,37,38,39,40,41,42,43,44,45,46,47,48,49,50,51,52,53,54,55,56,57,58,59,60,61,62,63,64,65,66,67,68,69,70,71,72,73,74,75,76,77,78,79,80,81,82,83,84,85,86,87,88,89,90,91,92,93,94,95,96,97,98,99,100,101,102,103,104,105,106,107,108,109,110,111,112,113,114,115,116,117,118,119,120,121,122,123,124,125,126,127,128,129,130,131,132,133,134,135,136,137,138,139,140,141,142,143,144,145,146,147,148,149,150,151,152,153,154,155,156,157,158,159,160,161,162,163,164,165,166,167,168,169,170,171,172,173,174,175,176,177,178,179,180,181,182,183,184,185,186,187,188,189,190,191,192,193,194,195,196,197,198,199,200,201,202,203,204,205,206,207,208,209,210,211,212,213,214,215,216,217,218,219,220,221,222,223,224,225,226,227,228,229,230,231,232,233,234,235,236,237,238,239,240,241,242,243,244,245,246,247,248,249
fr_C_O,0.07484943898306434,0.07858864283728327,13.40297322136361,-0.1311017866005896,-0.1567408889284108,16.329868743106836,0.10493428364029515,-0.06495487114022809,2.198374814379029,0.4195458285709489,0.20103118732126868,-0.7139420372157596,1.4391497986602282,1.5823385923168292,0.0965405283300554,0.005805159717229788,3.6100602609664136,0.44464003293070536,0.04394491693687119,0.014995565160350438,0.2173993731848981,0.20536227488279749,0.052964825225942924,0.600993782797912,0.061261036465105556,0.10006555043478492,0.12360228362208445,0.316507386325226,5.266313855168119,0.0026852895050873044,16.31395082622375,-0.031067457448681095,0.0031829111229639065,0.9646903960385292,3.1713636301389254,0.02665892170932022,1.943370202697034,-0.01754941017753303,0.629236130936469,0.1052496608735898,0.002869341718245209,7.734339019533851,0.7808586915983965,0.3135405717530732,11.105501531784627,0.020092133988838384,3.68105975132088,4.349982586720733,6.46254340639452,4.575656077253278,0.020479231424017873,0.024413685620939256,-0.002817479482069916,2.136829960409014,-0.011113716922418014,-0.008585777436842051,-0.009993408309754911,0.051996704138345555,1.6382184609380501,-0.08568988157395968,0.01808053356596069,0.08785440446395126,-0.029906654890817574,0.36167978042165877,0.14351383219927571,0.021434567140092006,0.047892321144345315,15.041098422804534,8.63512304920577,14.406301823790354,11.364147246611763,0.6573136078999969,0.08041543514178279,0.5424405198502082,-0.03195236848286033,2.2755254052578193,9.402481218806232,0.32995889782633414,0.27540260072940714,0.24527685388719406,7.18384281867444,10.573797364536821,7.068056070010905,0.061675483549228784,12.423603700512109,0.676012603583141,0.8930418523352555,0.03462576972788293,0.6422846381194727,0.12956909237160485,0.04478501106752085,5.555049762145518,0.2520140754271299,7.759762545692966,7.024515872586592,2.164537852714021,0.24589170743743763,10.08616337721182,-0.1453365341885411,5.832928853017763,1.0494596948219457,0.1898773336884979,33.372206091141834,-0.1632018924909326,-0.10965909167608778,-0.12384891715842546,0.15534510809319213,-0.00754656870287391,0.0344539805024188,0.12184053681521118,11.30815851284288,0.010790757508491886,0.046564862223600845,0.03409134057082256,64.89118400691449,0.3218890052591085,7.033665014049709,3.4371236699006933,10.715508431853765,3.670212891309938,0.0940183337082517,0.30751839364404593,-0.08042447489492123,3.955323629569091,0.02065841953333911,0.0109157105058451,1.9681997820187243,5.647932281872061,0.1810609258511476,-0.030082581389535613,18.693104046763278,1.3211548656191592,0.322097335639534,0.1292383695097877,0.18912741425332447,0.10038291122988532,0.10572486884283198,5.373172128087611,2.6540461501740573,0.04353555540447776,0.21621923664947795,2.254407590302485,3.5422738362931567,0.054672447403486646,0.6171887496737878,7.49818421214344,1.753130499082842,0.01623218640391396,-0.05307301355291819,0.17796706832075176,0.04892688324117826,24.787460452540635,2.303921380845479,4.739392948094914,-0.011424720522711977,1.6478147562393914,9.445160805625187,0.6485497479858556,-0.14666515356257198,1.8219943176534863,0.2636627034809016,-0.009980187973185282,0.20270710238138856,16.790241625195822,0.0230506126441266,0.04508069187998962,0.7108639727439081,3.853584976431998,0.07670219150136283,0.1354516893137533,0.1502776955289085,0.25796433109143035,17.40586806020855,3.23462963568091,0.5632890553764028,-0.0059968204807412575,-0.06056546212630815,0.0725280461389492,19.686141063365664,-0.11900322929742572,44.40198230317435,0.14408616085762707,0.289840277123934,1.5673905101184746,0.2750562779671571,3.81239587113115,0.5805523198185769,-0.011050965734362908,1.9769349090516934,-0.004396601847003659,0.07843940254363993,6.766310731817498,0.9971513260471445,8.157358945358496,8.509581037252447,5.6733404953859035,0.09511830120787096,0.10785951010169069,0.028156760657775295,0.021192613081687437,0.17819982877341295,0.09361337964148753,0.03536355632007004,-0.003415908481606544,3.435398153016815,1.224412214348837,10.755127367789973,-0.023103262836119853,13.691671706055827,-0.05825030364956249,13.244373133543673,0.013532809032242929,0.007544131867479808,-0.07572773507859229,0.06797896303142627,0.05781059822394674,5.005533717528842,1.3305111001368437,14.00657623935631,28.984377726466846,0.29814151769156877,12.292735420978932,-0.13459640594134353,0.09265384998822951,-0.49388826747412934,2.471260833227624,10.712580910453099,0.38173012245010624,-0.6628450454666156,2.5385865863420136,19.433918781315207,0.7616753380071212,23.954990587176315,4.9093028839961885,2.1941211466985466,0.21093209639140223,0.4909032575166669,0.07635111315216274,0.2514561295152646,-0.0060141989243458404,0.11559838772393308,6.092481147257365,2.0382420920013935,1.6121444498827002,0.10346214211177027,0.20709189323205937,1.132057232814312,0.07950193611118443,7.6043981182309475,15.55320556768747
TPSA,0.011628433441909867,-0.49032819198564154,-7.686043495245368,-0.13875287664646316,0.07350927055448682,-11.39979861817494,-0.03908899380436319,-0.12134061582992406,-0.9224596048637556,-0.020673451007166454,-0.21605055276863333,0.3427908456767824,-0.7104273503158086,-1.2150319517731532,-0.15600782511025632,-0.0838656131983042,-2.1107769228133884,-0.29678010455627357,-0.06452013480803874,0.05186803086795588,0.1589131308968292,-0.05420288779974549,-0.34483146592199165,-0.5492713634207156,-0.107840547758245,0.12525242749569612,0.09986054054963461,-0.01175667587261408,-2.807823346841301,-0.05629359210748698,-9.006798537401721,-0.1254267835786086,-0.11311648305986098,-0.9531886246374129,-1.464014521827954,-0.01495567970788786,-1.7304250451414673,0.019406385037351107,-0.3723608229020221,0.1765284681693724,-0.23141281845611086,-4.085685959991967,-0.2559849478038511,0.10845269228598205,-6.189490023442894,-0.08522906000173439,-2.182650792781662,-2.7958735438448734,-4.758759397211772,-2.877935243325115,-0.15452243819441044,-0.059399269251449956,-0.0848541986054316,-1.4113792222741641,-0.2870586998949427,-0.3226379914212588,0.023557882526449744,-0.055789974710346205,-1.0515715393559182,0.04610314521974259,-0.11148716806755705,-0.2543337425207573,-0.09123116743382309,-0.159903679264989,0.026534551772993315,-0.08373073962507308,-0.1416883872527515,-8.97229025325063,-4.766271462705926,-8.485755135000353,-6.358425787092012,-0.3859949944312025,-0.3498120339516266,-0.3976207261163323,-0.46191423306727003,-1.1673873077970487,-6.7739226476669785,0.20622190807645838,0.19618799310850335,-0.08214997169543911,-4.239063273958765,-6.8508921995798335,-4.341467289845854,-0.061602550013619965,-6.609432003477136,-0.10300872440019934,-0.4317563509632319,-0.18960503596890715,-0.08718196482911017,0.23320637647903192,0.074306701760104,-3.077652380823359,-0.38866211467862166,-5.239540457506662,-3.127300187462615,-1.4113434677867307,-0.18725961111942813,-5.752588396645599,0.044963944836336214,-3.520432696955488,-0.5928828452234095,-0.22502359591550156,-21.184991604086527,-0.49257458997849546,-0.19693730406516094,-0.5798759378906602,0.0610685659378055,-0.0784812819801884,-0.20241905336597468,0.026382135695544377,-5.800335754116741,-0.207471668697016,-0.0724463094438445,-0.04931251729678117,-31.72731119058114,-0.04050739921324616,-3.837094644308149,-1.7347828393813076,-6.832694935389586,-2.205174938594617,-0.09049233920155145,-0.07336175403656502,-0.2482257601148391,-2.1857271447015947,-0.07086273365412937,-0.14118254919552542,-1.3458269691736893,-3.8025157313186875,0.28136756295393067,-0.13504969618894627,-10.310291952643576,-0.82005178654142,-0.3635201659659945,-0.10050508356643299,0.0988217323049177,-0.13108172409573907,-0.4176864844133509,-2.7021437935548764,-1.500564217552431,-0.03949371448219523,-0.12753661544282494,-1.3243616267354708,-2.0141024062183916,0.005024279318448152,0.054051316325652306,-4.526861947201115,-0.9454308868707264,-0.03841559521873831,0.022674716982175356,-0.08729690258032528,-0.05506809945276321,-16.90253054180022,-1.2759310947568137,-2.8391090612692653,-0.12497465986553614,-1.197386297717595,-5.293889365104311,-0.33313758303664126,-0.3349479274128478,-1.3247677803806428,0.17360103862461834,-0.2950980750561695,-0.09272868841451722,-9.816865532116768,0.030503233120288267,-0.05645814598968151,-0.35954447047178023,-2.1286524828018765,0.014757064535000771,0.10237633644804274,-0.23943393523329842,-0.08875210524200636,-11.23975494314663,-1.9309476105646501,0.44430629834955565,-0.009541053434825385,-0.08824745017224563,-0.278242569550016,-12.866586149213994,-0.26181098778051975,-28.366077260652457,0.053911829717074,-0.1359944674092784,-0.5811023841187047,-0.00484726090621108,-1.8652368447733634,-0.07556635523525415,-0.07746203189967626,-0.9271387215934916,-0.22952155409976283,-0.1399823418951316,-3.947523696030106,-0.3258888036243618,-5.2610216448480145,-4.96309128498229,-3.2832121640181353,-0.0784429408651452,0.013515926005024737,0.3802894590038848,-0.07135739767459714,0.08841039433694468,-0.1401350167303943,-0.1385108521632086,-0.0973635454363576,-1.8019294232631862,-1.0153198838037076,-6.318837524292754,-0.2299722388197651,-8.200720021507205,-0.07062908397978264,-7.474695515033266,-0.3943955915004584,-0.08494903825374694,-0.23011471748451715,-0.21556108556480133,-0.056113477955057604,-2.799078074424957,-0.8916954144887864,-10.080301636040664,-20.71699274452858,-0.2024092278645236,-6.7830436006470585,-0.3106720594132264,-0.1696863108517827,-0.7018282114582897,-1.3289463186572446,-7.012979550380512,0.2475740450913366,0.8086199485493818,-1.317014203021112,-12.16879610764869,-0.41630162704250934,-12.597565428723568,-3.412573891571937,-1.091149421785206,0.07568538505278234,-0.04880115405546379,-0.10314146317645614,0.1376406478823815,-0.21449552037318634,-0.7814122914118956,-3.5531758308482133,-1.0893546028094958,-1.087807092519601,-0.09817970718931375,-0.10838067934666569,-0.6743995883773046,0.008863078801729908,-5.533076830505783,-9.432901894906225
SMR_VSA1,0.10005673924572588,-0.35557935254224654,-12.546115895780147,0.0064447458152867105,-0.0358344805055625,-15.784983090477624,0.23000123634700237,-0.04391166445853761,-1.5861134699980224,-0.3982392356799449,0.3527656399016959,1.249919877715919,-0.7000908205167721,-1.7432332380741655,0.24935891738219138,0.08918985764778219,-2.997427535763417,-0.23926046658799954,-0.09646861708614018,0.0180884470790213,0.14650216345289427,0.17500163016388542,0.17928272416211063,-0.28609430203404607,0.12505329168606033,0.09442784327669435,-0.009922218098469967,-0.15723131322322867,-5.358936249558621,0.1135492894941726,-14.946690903061599,0.14280225216113573,0.13231765247232985,-0.679680602554262,-2.5052729603525985,0.04147831803618171,-1.8326240000152134,0.0063328116027052865,-0.23078097267929226,0.1718080717688958,0.1902338014127056,-6.780504100628897,-0.45825268901828314,0.3116739049591414,-10.587021150265366,0.05097671230911439,-3.440206431423185,-4.074332737736249,-6.825271082877834,-4.106742033464968,0.07478347041516963,0.08797691601660006,-0.04522577710306795,-1.867674712843685,0.12560782525270084,0.0916992280159697,0.018534758643631355,-0.02858942216262672,-1.489955797344879,-0.09038818722360434,0.1460122743895778,0.3358276070844735,0.09073365659746828,-0.6398606786073742,0.1836008613101482,0.03866175650061387,0.10784710405918176,-14.102346774460345,-7.86040258661979,-13.872878176109976,-10.741728505156512,-0.487370772007303,0.19900219456302856,-0.2397372760159546,0.23960101705967124,-1.410624512335982,-9.276570434080096,0.13289199239568478,0.27901643152940697,0.17059817955247042,-6.319677137310233,-10.035460665334737,-6.834122552497525,0.15464187753652914,-11.44241674801391,-0.37750460317638046,-0.3467819087246758,0.1463071544996551,-0.2764720497284126,0.18163153547977648,0.09518061417008036,-4.980856430549395,-0.13003067319488412,-7.212920623901659,-5.8987358439093684,-1.9895391709218226,-0.14087730584450264,-9.339444543336521,-0.12582797546780153,-5.325920540545392,-0.9775044687100013,0.38584789160826655,-31.02553245581506,-0.19696827372384007,0.08012051620870161,0.22464967627882254,0.07006166327783618,0.12297160667583597,-0.22167656311007933,0.0804405051868291,-10.18657977630148,0.26023141946826334,0.17408785274120642,-0.023039498172772153,-59.15347344900209,0.40495253419724686,-5.824054836892049,-3.26991896882745,-9.730837516195077,-3.2472827056898677,0.12773857506741212,-0.0795922387092271,0.10560732758805522,-3.0283211839509594,0.06822194605497203,0.10597974278795465,-1.7066916253828357,-4.694425852326736,0.056450747303628285,0.06512080640771209,-17.101226608270874,-1.1110071536448223,-0.008533224087813871,0.3383014786217023,0.20303405107873007,0.15220423491450716,0.3912232530399238,-5.268030317443382,-2.243430576182906,0.18551303134055047,0.4213426225183453,-1.8186928053993292,-3.353140533068442,0.08864810410236558,-0.16589281817966137,-6.950983949775542,-1.5080748083592246,0.0197039218725674,0.055240149139583354,-0.08930103128462738,0.15150884321943184,-24.041217505402205,-1.976540269615997,-4.169357885848341,0.051534154497568124,-1.4250957984623347,-9.099815492329943,-0.44315986465467194,0.10888448796704096,-1.705564147340106,0.07606448283446439,0.33205235775473213,0.2197710895788577,-15.1064087385831,-0.03626588136082734,0.11805236355466524,-0.1595723545622486,-2.926834481821631,0.19139376762660057,0.1277173569137301,-0.25154050173009485,0.0003463932539184294,-16.936570752952957,-3.0826826099640217,0.6004102586358159,0.020343790741786334,0.008194780091118233,0.15112988306924427,-18.273289683746878,0.01639903963631839,-40.4678181685416,0.1950498538568356,0.2778859394623891,-0.8392590442116062,0.2607003321720869,-3.208506234601306,0.22784393952526116,0.028192725700697356,-1.8578736417579242,0.3245012849409463,0.2986606257164185,-6.11596859575866,-0.715730476350322,-7.789009247655286,-7.448908262057877,-5.054137195021302,0.09116686016813734,0.03519833634200115,-0.28033747604264597,0.12163377122271816,0.025687072454824364,0.15381996230285938,0.09668484992500521,0.1282374119405628,-2.9630624669098435,-1.5447820079410772,-9.990532590492329,0.07103846750542114,-12.506973811395454,-0.004273588489148929,-11.372208000171522,0.3627562620986076,0.16475310090189804,-0.005006850712533064,0.4125321197864249,0.049573387716708314,-4.424742713785269,-1.2325768045220613,-14.155653482931816,-27.490597773742397,-0.3699648471084795,-11.115587675847403,0.14184427495704977,0.21638742031402206,-0.20689420368808192,-2.066574073887568,-9.273620252063344,0.12155204646242783,1.7497748378206355,-1.7441565992978036,-17.890775277126707,-0.4609436215157388,-22.394648709189575,-4.6350437153304815,-1.9135325215850634,0.14270242802100336,0.3653570946788705,0.12804679009672415,-0.022807649620269602,0.20278583844934495,-0.15813684738398107,-5.501997021275577,-1.6298337406862253,-1.3687148994708878,0.1077496866208083,-0.13025144710235928,-0.9385229327790178,0.10227794272711055,-7.169378483385281,-14.845752792170218
NumHAcceptors,-0.05198866816222634,-0.23792891265843716,-6.992975103332278,-0.1441271343317704,0.021511728100056332,-9.566510881606485,-0.21476462422969672,-0.12215425723048784,-1.3778277013602933,-0.3026307730632282,-0.1512281230224907,-0.1429878523277875,-1.2115636711819155,-0.9350412632420091,-0.11203064719786443,-0.0973567940995987,-2.3032735463684166,-0.3832943739497975,-0.17614751671558665,-0.08097639442156815,-0.10127096056085855,-0.1791787858068167,0.08738026534413874,-0.7013742732749846,0.032397374728530735,-0.16694172801167123,-0.1058589029954645,0.25399242833639984,-2.4896173206259737,-0.13094768434296564,-8.723104389163,-0.17583951247132076,-0.1588234394579975,-1.0202260651015065,-1.815621664881979,-0.012688872146850145,-1.0545084584310105,-0.10749063646981667,-0.31181097921167505,-0.7218504575032303,-0.13581247148327255,-4.0998789446093316,-0.47846408081570346,-0.47859012537477885,-5.740053372422514,-0.10961425395337344,-2.1169461557939115,-2.572789747981492,-3.54195565990342,-2.844870073359607,-0.06121096000290724,-0.046256756689726515,-0.02436846740735187,-1.3123221064102288,0.04963757241108488,-0.0030119007585525394,-0.13079504162627753,-0.17243537160100741,-1.3020390695328914,-0.2716734701236771,-0.11870544833550967,-0.14203780046757863,-0.14587746719977077,0.11379488809901397,-0.175191258790532,-0.01808188666721586,-0.04389486354382648,-8.536475741713248,-4.715813654614773,-7.14639734634549,-5.7271007721551195,-0.3794780632847013,0.0029021801276455346,-0.3457148357184279,-0.01733029226121659,-1.6399258807109285,-5.46064481841539,0.014515993216485557,-0.17147169738344636,-0.42724760371545234,-4.389949424365986,-6.505952158279938,-3.9788175162883617,-0.12384332195922461,-5.928233091945832,-0.07436463046942596,-0.7570497602123659,-0.012065291399819336,-0.43087250201314714,-0.5239925080881924,-0.2560121797263219,-3.063036207736827,-0.24563966665778786,-4.797542241008177,-3.655958073389455,-1.4865173620244374,-0.20796237465492404,-5.646809676377009,-0.20720389809494233,-3.143979430070195,-0.5462722379074251,-0.5000483197602539,-19.297040404648598,-0.10344141297143805,-0.05048365430322629,-0.2531947354058881,-0.41697538048373,-0.19793862253050976,0.10262875674280063,-0.16375781470657322,-5.288623336144215,-0.2027731590469573,-0.17614965649247236,-0.0784391415793245,-31.63192888188228,-0.5130015687182683,-4.141839589400687,-1.6642146701256593,-6.458423517560333,-2.0795385849513943,0.023137434117415166,-0.21622505367994943,-0.059450894396481796,-2.144180325496033,0.013110205926126911,-0.012088575594693942,-1.2623825226022474,-3.5701597219686816,-0.05201572746165576,-0.1716838809403422,-10.234268777555519,-0.7681493798755137,-0.6368731459656063,-0.4114669116125267,-0.29869947972471517,0.011462791898375232,-0.3629463125694813,-2.548138359384565,-1.3123306611067844,-0.2323136895592201,-0.2738867714542125,-1.4771770857902906,-1.8116814624084607,-0.08140515174490379,-0.22419604392325598,-4.339796346020907,-0.9826885726562695,-0.060312580860983143,-0.22366444607573102,-0.10513058260734542,-0.19268016156817283,-13.426634022445793,-1.252404924472751,-2.886335157969765,0.0188226148761948,-0.948617854014732,-4.407923050682997,-0.5405756029014975,-0.17988791094071982,-1.3323550821125059,-0.057205737322700886,-0.3740874494376053,-0.38639678514277875,-9.989012789732907,-0.5435159802929598,-0.10007987780434698,-0.635523455698553,-2.243787802017815,-0.24566334626667116,-0.13058140137379448,-0.12512048853741584,-0.2412200621986531,-8.025542317461243,-1.7998992540229306,-0.4678201334368173,-0.03729861474099257,-0.06166831433947772,0.15356728390311628,-11.798035495661082,-0.20319607257253386,-26.9236039391671,-0.47523357191132737,-0.540128011547161,-1.298756988904486,-0.38735690894620406,-2.119775417178866,-0.6534644351507646,0.011555935218659713,-1.0234157344983383,-0.3583218524851356,-0.25777523978512357,-3.8436981875945264,-0.496183109145762,-4.552349058681007,-4.7746448801677515,-3.4284894246705386,-0.10226593542731839,-0.0923864871791916,-0.14390797398465677,-0.17759174060801672,-0.21771646335565623,0.04929517083465611,0.02234460229450158,-0.2334917173186627,-2.0652903222820287,-0.8319371994898018,-5.737517673243897,0.01401624370998377,-7.605943039890608,-0.02307852064525979,-7.358456823791109,-0.3164972674887844,-0.287603979268181,0.039056003905233574,-0.38789744089992345,-0.07970980026120729,-2.6996065005486414,-0.880032960696372,-8.24325560055609,-17.995798921384306,-0.23583390012305339,-6.605460742457505,-0.22422748314618604,-0.06592652558846587,-0.1784888535031912,-1.56765598992495,-6.496956908117519,0.05081284151078332,-0.5003046625276801,-1.7510526294689688,-11.474947408226903,-0.6727769985253679,-11.415889028175352,-3.117610579967016,-1.2468193457961894,0.02916505475702982,-0.75667281570078,0.0036120362600579646,-0.22858336072430496,-0.1546061639595264,-0.6363607140222011,-3.3278641123652903,-1.1190222405598709,-0.8599674043851447,-0.10827312639902456,-0.27416445941256545,-0.7126245668994552,-0.1527293591223316,-5.0654227146991015,-7.972905306464264
NumAromaticCarbocycles,-0.12423601735875477,-1.3960405141670569,-0.049065949878221556,-0.02652011908737176,-0.9465850453978903,-0.0055854934277220995,-0.2757332386497228,-0.41367892061423434,0.4074858993505802,0.24254269422274657,-0.11460694708212876,-2.1163770498079564,0.7149329981253076,-0.4467226906563645,-0.07098466338495456,-0.23613388977987151,-0.42031091029814616,-0.10731709143707278,-0.5578987813571599,-0.14913069338576132,-0.10240600917628401,-0.3978916287441355,-0.33701832485427546,-0.5392776146452753,-0.2887753066057494,-0.09203749184727435,-0.3255212143041435,-0.8136663524214155,-1.4640078207469507,-0.12612331894922169,0.5112826359518342,-0.1134967034118148,-0.06258712972900371,0.3115295136495807,0.19960051368080242,-0.10402822260350926,-2.0432707468872793,-0.10008708646061756,-0.8813367527298418,-0.004545213632746427,-0.2774437984018767,-0.31425027038927245,0.2605903513801493,-0.5457886911923012,-1.9098738408862135,-0.22752809222458922,-0.6853662067467893,-0.4841645288572969,0.20200524630296843,-0.11779256589751065,-0.17238012173364978,-0.1412218206573382,-0.24223984804832085,-0.5692414066472435,-0.16900504033546582,0.040081251667788184,-0.28026599942812686,-0.1465005963070891,-0.21178032957573883,-0.06015789005527984,-0.1735789172594005,-0.2829836403237155,-0.1610377816263348,-1.0868554572927935,-0.08503588986803291,-0.27559244575918,-0.23499163376900065,0.19981000873006724,0.21649812604904678,-0.5281681786661426,0.7302637825204243,-0.5760498753347711,-0.34791313115562167,-0.002346552392186747,-0.36651967059224555,-0.2807511087113197,0.9254660279646675,-0.457800805872183,-0.1774023298881083,-0.06981529775915599,0.3554073072277752,-0.7913138001421897,0.43140493538184554,-0.21182679677510713,-0.2789519249187418,0.07645424824985696,-0.17586513540667228,-0.13121881535001975,-0.621509361727335,-0.41597260120725593,-0.38779635471786933,-0.5236593564126271,0.17806102238820992,-0.6546960788043958,-1.8131995878167775,-0.39764591053847115,-0.5868217374587478,-0.32296163501964403,-0.20660156161279933,0.08647239616901138,-0.9118333550498277,-1.712639650222614,0.3719489406001993,-0.28990338328242204,-0.36948989808492544,0.9002892947449992,-0.5359214995117223,-0.16514477640982422,-0.20064316435195795,0.16639478808128982,0.3696022191560132,-0.3152668738269729,-0.1293236236420925,-0.4869309189724197,0.2117559674157035,-0.24702369124539406,-0.6656503522679065,0.3901400931452531,-0.5366719051254402,0.0669426942930892,-0.09460456532730206,-0.411536450080766,-0.2860132773078309,-0.29554373056904215,-0.08103895691180707,-0.2554237357449426,0.07943143011690916,-1.0478837803202896,-0.18945100751553953,-0.1427519819144964,0.14670132770983263,-0.6687900898386143,0.1855090476708522,-0.3517610498923938,-0.3267072375109027,-0.1146147813353585,-0.30684001833512375,0.5035594516822924,-0.8548667402032981,-0.2593186819869328,-0.6701054722127947,-0.055887804566131356,-0.002838241301239447,-0.1766571635140601,-0.23219584101613502,-0.6839446649014002,-0.6860463190075833,0.0070998096429803785,-0.2248569607228866,-0.170082184544163,-0.36289055537975995,-0.01904523152543735,-0.5645290464227227,0.5631096793339658,-0.4005622953416091,-0.08663059682013617,-0.9589085104082714,-0.98454448283125,-0.10254337019890625,0.8720684016607255,0.08828466218361693,-0.257668453633931,-0.35601924133458873,-0.6492399105064939,-0.21057799114933792,-0.12930664320989846,-0.214511231709027,0.8737591248870704,-0.24075628532338883,-0.20291630376002912,-0.5515111875283838,-0.30266751010266024,-1.1933824995927886,-0.21493307098969325,-5.3788193584881565,-0.13288150890278688,-0.15993280909680518,-0.489422261682633,0.012762889168995359,-0.13936882182573096,0.8085984598233781,-0.22183239026498439,0.4252759061646183,0.5897123966382464,-0.2753918676150767,0.1065211218641196,-0.8722616595515923,-0.08304445595422072,-0.06578112326795016,-0.38134489333758714,-0.6404201345666494,-0.0018097706378924563,0.13584287203824116,-0.3159173051802718,-1.1634258718574102,-0.47753391780480176,-0.2940938669596525,-0.07990497456031014,-0.03857261763794598,-0.17589228144120767,-0.06428920424916332,-0.19725267251114373,-0.22164778467620486,-0.09218998077040408,-0.3811126772136632,-0.4882826237146393,-0.532744254090621,-0.14994106927719397,0.7614415106149341,-0.07235969724124475,0.2995394616575646,-0.09968454420639614,-0.14618789405718913,-0.5307826413384943,-0.24864661929844986,-0.45557725207955746,-0.4329670010755772,0.08943463809667788,-0.9947263014877653,-0.2651482907487465,-0.34925404277276567,-0.43861843890748337,-0.4486636564260322,-0.20603637002812833,-0.6406222729128337,-0.8712516240273109,0.8049464193605019,-0.339773484930073,0.25815322076952746,-0.7180451726418672,0.3131849242229272,-0.3282504801085025,0.7690329290080276,0.342311356020303,-0.2468656922147468,-0.1744158900222393,-0.4570826492407586,-0.06079487509723558,-0.40367460724257953,-0.1898153798240182,-3.1559570855583354,0.12281224856298764,-0.000169739737475731,-0.059804624806893,-0.5145539567693177,-0.4599539345711567,-0.5168407322067041,-0.12735336303631017,-0.24483960368242333,-0.09144401417350675
NumHeteroatoms,0.004772930670002499,1.111033803774679,-0.3450178345062045,-0.11878788336323272,0.7539799701847668,-0.1508046908818881,-0.07028450796399362,0.4276149785343124,-0.7815841985564652,-0.4891839714826646,-0.013677550928558576,1.9991776208986372,-0.6681407861633049,0.3540452070161897,-0.025404861255196563,0.06449987475363278,0.23321761324023488,-0.14865733951507565,0.3172506759186638,-0.014324088910945235,-0.2509323635576214,0.3425092807319822,0.06352685296349761,0.4853746345601695,-0.21680101446016967,-0.13210222358409754,0.04249174810773154,0.546521200888567,1.1405234740548127,0.009034529709302764,-0.7077428004074805,-0.02360568643750027,-0.11866576594546224,-0.5328637460098218,-0.3485353273956957,-0.0637054697965578,1.4342263465415088,-0.11270401046462702,0.7688840641884923,-0.37076454056381936,-0.11358731614908832,0.008674586252806059,-0.3217206127244202,0.4794102414217955,1.8143620245949812,0.26306360509103655,0.838604777926179,0.4295410676788663,-0.6240131989375227,-0.033509405178415295,0.14201887472678895,-0.10542370095207645,-0.08154768341440256,0.15520932751332844,-0.015510921931778722,-0.20201155761505696,0.014200155901501116,-0.043232179668882806,-0.1414377837836893,-0.24488405247102032,-0.06229029161620836,-0.10356731800684997,0.00422299143861289,0.8618178765513544,-0.034219080072382356,0.37070099647664656,0.1160051725394648,-0.5220088553702291,-0.12352720739642235,0.20354147292486474,-0.6389734000950301,0.6730393017211485,0.0931842071850345,-0.2846544907032471,-0.1719836407216158,-0.20850266268273865,-1.2752381019378787,0.35668931507045565,-0.17367738533724902,-0.0922405693957549,-0.6172838481992271,0.5484639426631421,-0.310304219080247,-0.14206634933765303,0.14878944989958792,-0.32686106414025057,-0.15344381893806783,-0.04534138872599814,0.7494828545409586,-0.07608610644092129,0.042045051553833285,0.25809667491042343,-0.37255385663765855,0.49769155294298384,1.7941711474174018,0.4903492026678005,0.5980171287250649,0.3590835337296114,-0.24948572798283172,-0.16824721648183738,0.9693061498262086,1.273423919282037,-0.6327904441923001,0.0530304041581194,0.17829503936309574,-1.1826945931772905,0.3443323832413324,-0.07600312149689951,-0.11448149372036127,-0.4356895245073874,-0.6100672602722009,-0.07013026183361515,0.002751288418328134,0.24621337769727558,-0.6500378617333802,0.23076088088818714,0.5126538293411755,-0.584639069430251,0.2545189019455173,-0.1007562750171425,0.016555054069855833,0.4222280853959509,-0.06389740571332615,0.008782726178915923,-0.05871538884229993,0.058713957633696454,0.12666613698556478,1.075394234297052,0.19907161777062227,-0.06665691199043462,-0.4409647188546584,0.5339483357268318,-0.3317722057896119,0.06987109029119766,0.33820799433830406,-0.15385721729753343,0.03187068074092546,-0.7173728146280636,0.7824582538910575,-0.18924876368723786,-0.19575634372323306,-0.00799805690356019,-0.2923099140159539,0.05589583836621517,0.25777184160388783,0.7663476064996652,0.6585378410231749,0.09997599870896855,-0.24208440782009,0.14039948126489174,0.2868791392347449,-0.15027630328395628,0.39802723688190317,-0.7343532814076877,0.02718616197256833,-0.187367790670877,0.6583645486460721,0.7009403336823078,-0.13893904009230124,-1.1724613871354388,-0.28163871553068776,-0.017207412477306474,0.2852945809420215,0.5198325687618697,-0.1471555258117815,0.044115929737431246,0.16124713270976082,-1.0701578557862919,-0.0845320697182891,-0.04264908797046945,0.4562440822857936,0.3892281795053065,0.5858279040300072,0.03344715353808287,4.37686556471686,-0.05890740507986287,-0.04998985207308748,0.20689403341390786,-0.34193998213559096,-0.07964668823262455,-1.124332716342009,0.30227896358747064,-0.43154357702394835,-0.7004470886315233,0.19974477300611368,-0.3386051982223305,0.6076926054878528,-0.04870277430819343,-0.06797520259634338,-0.2093950049338262,0.14254009581696103,-0.14296701179718468,-0.3774323566802783,0.18990904992587776,1.1057413729224796,0.5897345121296399,0.3103024905107723,0.08338390795179654,-0.3713898880771788,0.006624532971154501,-0.038972338665212124,-0.046671001208076233,-0.014496123105692387,-0.11096502368759135,-0.004403059138236968,0.3773039015147409,0.3749047104045253,0.024049349618386617,-1.1661129530211851,-0.13575138145151738,-0.40996085775965585,-0.2331267221254728,-0.017834343253530387,0.421452047856358,0.10040066468785311,0.30813736707165,0.36439939837032675,-0.38925533398607387,0.9235116762630963,0.06501817218616664,0.075189826063655,0.47093531795236804,0.22703059367245354,0.02462242726613052,-0.4076854273807786,0.4677777941793892,-0.9417320979285629,0.19911035688461468,-0.4512530724666309,0.4436538948070189,-0.6978160924051455,0.2684916595518217,-0.8181509322858849,-0.49912871226216976,0.1625655513981486,-0.14740483399092058,0.33432202806711125,-0.12152429557238886,0.34073866388295954,-0.10866278119058419,2.300543963698067,-0.2688010452927001,-0.17355015609170968,0.006620180547002098,0.4290840467042022,0.5989960154595712,0.5216319390263379,0.10411739640318776,-0.5500139813402922,-0.07577490584351844
Chi4n,-0.11956736420325018,0.2326761284593096,-0.011974924265018344,-0.0002680591150348185,0.6771191206304931,0.1276187696140488,0.044402891913517636,0.19817410189739038,0.7607909493141398,0.509470320438598,0.22704962729782188,-0.2909838720471172,0.3986594137433232,0.37409628274238255,-0.09694470122434462,0.02632036190903992,0.05697250617986613,0.4622202649971342,0.3647837515676699,0.10155579674701588,0.5866434797482968,0.0962358300617383,0.1466949761556043,0.06598655890195672,0.01884543960856669,0.3027160142732881,0.521516189373052,0.9486467230204544,0.21111377932748976,-0.06907612346309838,0.30379786221311245,-0.07495236390231245,0.05580447031107851,0.5429620025841594,0.20570235701240766,-0.06290852504113624,1.624785397735382,0.10083032891814937,0.00790801534736609,0.38147491126399286,0.023869101325510837,0.2889129668286439,0.22701061676025241,0.18714371515322,0.4731261771890211,-0.15218889332925578,0.015398864212914722,0.20918048485417354,0.9691823085536668,0.29583084536825305,-0.1719450729659267,-0.07560195119721275,-0.030742351410436054,0.10230442276643695,0.11528837024735557,0.13771696845315498,0.0982212195063153,0.4534553734198156,0.7955835586085196,0.37650574782812213,-0.01574573353328956,-0.12201441827101855,0.08833705725686349,0.3098666823620937,0.13066732379406937,0.42490061799680134,-0.07274092990118944,0.5405430163929266,0.2096823094661329,0.5357052705196181,0.6694307357216887,0.09968126940344542,-0.10570748539549095,-0.029244082186033075,0.04601057489903792,0.4519694916961288,-0.1132655434095569,0.23741946222393445,-0.04844380652725853,-0.10020644436680373,0.5096720999176236,0.2806857847355788,0.6513882790833906,0.1015164364945743,-0.23477396807503062,0.358523502126358,0.9810404286698255,0.09849672287113992,0.30845165106624883,-0.028719901440294668,0.10877690181666437,0.09663934911509942,-0.05484328999897047,0.31475915934360094,0.5137340972910395,-0.015455960403838797,-0.018754815933875117,0.19942662924537435,0.5787667937664895,0.15405710008872328,0.040963483684720546,-0.2919494053045706,0.23544189311126995,0.20448330200538495,0.22673041035011,0.05667447946481036,0.1427837666630872,0.0766183644660996,0.449176252023149,0.4430578947481971,0.8361483396137219,0.011043122696744135,-0.005853030588626097,0.2461289191481014,0.13369613976922845,-0.031764786759732135,-0.20308588987123183,0.6809878949379942,0.8334217104006374,0.39082272821014385,0.1022259669847294,0.10949212594494498,-0.057730737894860155,0.38940383891376285,-0.010040605827251,0.11207742596948378,0.5959032894404476,0.7259997523427346,-0.03820296537583678,-0.0672596408220538,0.051435716141986464,0.2688683895342353,0.03916357592602414,0.2927457294084525,0.24915431941821767,-0.16223130575226707,1.238071923948587,0.525099751560993,-0.039234797180744393,-0.149703033363897,0.05344927597939758,0.27992533607428455,0.05330724013477706,0.04063961218401671,0.4816420873470637,-0.2124043691776505,0.06503611519315487,-0.09482251289451563,0.1569425057870907,0.13094036294876635,-0.11331300459959166,-0.05067572381533819,0.3223150398436975,0.11182209736167316,0.08400490789471464,0.5787222652910063,0.663881285208406,0.44578167682593944,0.30666127464143644,0.34153106178515025,-0.016146878330040502,-0.0039538966028299025,0.35075431059269147,0.5158891929791762,0.3466634211295262,0.046632173618949946,0.2615095001291781,0.4206420904071286,-0.026646349015662516,-0.0004489002766166064,0.44436452166215146,0.04536035952005224,0.22732451955668564,0.0810677855771479,-0.5340189708376182,-0.10796706676221657,0.0321492451815857,0.19598289035162775,0.3059699111550203,-0.03640995541756289,0.2003026018251593,0.17580242764418758,0.5542048492933975,0.38405895153829495,0.25549533778378425,0.6251029467644198,0.23677876614399215,-0.038108626412032394,0.004931133902068568,-0.08756680421092251,0.1077306583065337,0.5426147269836715,0.8183679197789706,0.17450027398899337,0.7594069774793093,-0.046921820249385175,-0.12902361956470837,-0.10126384089518396,0.46438760627235715,-0.008329710332972608,0.14231525764313283,0.04483448897653125,-0.20894979247034826,-0.007610860897166803,0.38791602635562283,0.25933203372694,0.6592217629806111,0.018130874510029475,0.23469593222950524,0.06105616132024625,0.4691149354234237,-0.5629502077869151,-0.006686508113529356,0.053107414790361455,-0.0590690662577225,0.059810289605901706,0.18324554958327627,0.19396315477678752,0.8425665143531231,0.4155919322355631,0.8198351506415632,0.11286659568253692,-0.13745049258595973,-0.09509169674390185,-0.39194508360636116,0.7806928352603226,0.5531156176308071,0.24903930667015073,0.00502779046642906,0.4951868556377294,0.35278935977359216,0.0428836759891527,0.6035686220499381,0.561383444885145,0.08956407791056183,0.03075217098357148,0.5740023811681709,0.21750431550578656,-0.140508484447402,-0.01666505495493949,1.9310515797665648,0.29764147263990465,0.3589440561731824,0.3803074688859584,0.33977073701649896,-0.005814896671377867,0.19808997740644546,-0.07308377282787068,1.4288624254937032,0.22867602132647946
VSA_EState10,-0.2370642205293931,-0.8584599441465153,-0.34260157583843587,-0.29324908190565774,-0.8693305595894967,-0.4011163826404612,-0.15350872603667196,-0.5040230918195931,-0.9697292669601819,-0.8791845857697699,-0.23107674502164638,-0.8954849305094409,-0.6877859773485994,-0.5636591099988344,0.04121707580152637,-0.16042776366821104,-0.28455150767348064,-0.7610415257124649,-0.3917893909340907,-0.09566996279935715,-0.5970408464297788,-0.24895557074033542,-0.48324540217814915,-0.5272666940436412,0.02534815595156997,-0.4902605414623154,-0.5496331981732552,-0.7781650587284771,-0.7525083703314511,-0.05587325945336977,-0.6126788347619668,0.020123311149819485,-0.20214070853180152,-0.8215511571548857,-0.2533982362728666,-0.049143023336188474,-1.3432503523756276,-0.30980315527288504,-0.18930328211148098,-1.056182924180557,-0.1939487747710376,-0.5246509727387917,-0.4389859235057166,-0.3355452359395412,-0.773239692376004,-0.2880269352167712,-0.36034708557896156,-0.5168588655204768,-1.1796129665735047,-0.4949503345003824,-0.34969690597630426,-0.08518469185560994,-0.4226923468211104,-0.5598433043041373,-0.22961071553272377,-0.5005292823188541,-0.09211203677401229,-0.6324471990576194,-0.9982486930157635,-0.7289793311902973,-0.13724487228274526,-0.22509620322812438,-0.10739594413386201,-1.0864160984494327,-0.14629907127039232,-0.49611875332536737,0.02271308693378664,-0.7690053750763574,-0.5370968466765061,-0.639170494221106,-0.4026101970180699,-0.333529744728646,-0.040620929984256864,-0.10887512268668227,-0.2652278739022539,-0.6222909893872332,-0.3261871737433272,-0.49579883738607494,-0.3141299867967125,-0.20257387847378786,-0.5105025504245131,-0.33351296332804603,-0.716337651649363,-0.11336089508218938,-0.11460491321921851,-0.5575077744821038,-0.8524143801766085,-0.09959829602914924,-0.6027724359474237,-0.3755784923089552,-0.6570997267884294,-0.37669990413590104,-0.1474172027180299,-0.5435244419094916,-1.3851782505771808,-0.43670430827172274,-0.29879356988243594,-0.5049829324078288,-0.8973310762378938,-0.42167521271071334,-0.5777972645449426,-0.009054628122289517,-0.7131360462275108,-0.6631421431500633,-0.540309197630878,-0.5023584897248993,-0.49149459650964356,-0.20997760799905113,-0.6437040736361999,-0.8177064044547666,-0.9741977788747758,-0.09614143926410729,-0.21077675715200245,-0.5465639053041821,-0.7291748138477058,-0.08342672518928979,-0.14471443939753986,-1.0282404875411733,-0.5940196703848115,-0.4654264551998288,-0.09835582135989124,-0.4576356875249663,-0.012271787698596397,-0.6347635209485671,-0.05376383216957761,-0.05879642701217114,-0.6807316573527376,-1.274060062213396,-0.4892242132405052,0.05428689814833939,-0.2810020464978449,-0.25365945361331743,-0.06185692224339667,-0.33897825640360374,-0.3485653027651802,-0.09167076567158701,-0.9951739344006715,-0.7669680026829572,-0.38276923710814426,-0.20924718346787494,-0.47307019384476395,-0.34573447910492927,-0.30226750714328027,-0.08657365393494465,-0.6449351332350612,-0.21042787923385337,-0.374483016623192,-0.2700499999041897,-0.4347720604159496,-0.29197147344373486,-0.3735157046897777,-0.7514058559888405,-0.5514832909963776,-0.7567968806817753,-0.4862717353573253,-0.9606351946946474,-0.9687676277427534,-0.521030894132956,-0.3528884879260488,-0.6059735165220012,-0.48128614204960996,-0.3205443175958102,-0.4571731947530506,-0.762629658284774,-0.8802031497872217,-0.10055563130491456,-0.3234467425520633,-0.9489393267641865,-0.1293930728574839,-0.1862060349853685,-0.09854106458999094,-0.2096067960380908,-0.5571701465614366,-0.8637009910397612,-1.2923931699350575,-0.0574566248204053,-0.04403064095542544,-0.2750414856457918,-0.7029380637075361,-0.1338984502468638,-0.46267603335464985,-0.20328271305818654,-0.47389864444047963,-0.7696029091883775,-0.3725746658346563,-0.6031001517872815,-0.3656221477181737,-0.06595383103733687,-0.6021196142372792,-0.302181571942036,-0.6113324414239358,-0.650825735761833,-0.8616085055198623,-0.2784356066800292,-1.1174618671896688,-0.4284693255626648,-0.16977545397358546,-0.20231538451696252,-1.4346759007038066,-0.2678178897406869,-0.5120430170859657,-0.029886832003991278,-0.055369039372040886,-0.3041817789756028,-1.0908665868736358,-0.8591037172187053,-1.031985958839099,-0.11113981408496508,-0.6577523745408419,-0.28954468059807614,-0.7437143141118427,-0.46606545727869675,-0.440870536133587,-0.39585729857702295,0.02339190103260295,-0.2515773813907342,-0.15685010677637753,-0.49886719591106465,-0.8155459785292933,-0.7289875717211955,-0.8569285854146615,-0.27047967828124464,-0.2740397267059371,-0.08330776956728897,-0.32552916235995777,-0.6907821104540973,-0.8531137703724225,-0.8909282164495729,-0.6395585128619132,-0.6743680426841081,-0.6436185512048264,-0.10005951702448132,-0.8637928364751902,-1.0583865346543466,-0.25823906574809885,-0.13637803970643464,-0.5521631171732976,-0.11692127067586598,-0.24118748852817193,-0.2433137795164273,-2.039067130890543,-0.5402785769215454,-0.499510691675389,-0.5349743439053113,-0.5037166951679,-0.42688107063706776,-0.4037287099565427,-0.2686169727352238,-1.8740905894150408,-0.41461889853700534
VSA_EState3,-0.06501926957303994,-0.12748440430187105,-0.2917509859129482,-0.21379081719317047,-0.2795972617335136,-0.08339782287171825,-0.05247304463357617,-0.1724223717779562,-0.3146924995467526,-0.2697210096913621,0.09538640423259644,0.10026600204705984,-0.22110974860690302,-0.1856941966811907,-0.009449085208011016,-0.17260855902824915,-0.14836008234856884,-0.20322707073280855,0.19240819841593432,0.021197169667865477,0.0805250013318214,-0.1662324120211516,0.24938983667949938,-0.1572586628487899,0.07560786156670385,0.3290543686714006,-0.015138549868349383,0.40170286669436633,-0.07003763390820995,0.04587527519705535,0.07403352549028498,0.051849662411985006,-0.05760484020907493,0.32072826276273964,-0.37729910702495295,-0.10585891371009486,-0.17951792888989104,-0.043542569142275,-0.04911781295829902,0.18237967462872545,-0.03923440090638194,-0.17980592438435464,-0.053075713389245605,-0.07506333820459175,-0.170020020719238,-0.16070604202455016,-0.12454904967479052,-0.11429749259587188,-0.5236510369210586,-0.20445679189753857,0.07310000478334143,-0.013065200625551856,-0.15913671951935046,-0.27198982369919006,-0.08415435182662019,0.2799080020552502,-0.10852430365497875,-0.1410341394830152,-0.3343116513663296,-0.4002119306213132,0.13234023910140136,0.05695651775666044,-0.06991225210133288,-0.10620958077691577,-0.07315480403810348,-0.15105979947461945,-0.1642588301470181,-0.18446414118016968,-0.12274234012875983,0.3877812819124999,0.17737359577917874,-0.1593909234890483,-0.04813406142361407,-0.2736258705074112,0.2858009485933419,0.25689720148665385,-0.06608018615374256,0.4228386223329936,-0.17739436458756,0.02471013759686691,-0.082859627719071,-0.04490790953635581,-0.1723419402039192,0.004177976418759349,-0.35825396990151176,-0.08796175239468891,0.012292224114350546,0.05944919838652557,0.05910244320132696,0.18794179534032857,-0.10143914288629544,-0.29813516161376014,-0.18823447896065681,-0.18494019936659073,0.0772384608574235,-0.2365615301582615,-0.11266814948327286,-0.23120615063840966,-0.034934101131819044,-0.02171155781820399,-0.3581387624971633,-0.42859656785827543,-0.22996866480930298,-0.25229796892161543,-0.03707752205857029,-0.2687957863967296,-0.05491067591784723,-0.1322667210585748,-0.31438590636950464,-0.10770837697107022,-0.057368233194422774,0.023497986639881424,-0.11134128134386274,-0.3823992834057084,0.11929347305636158,0.05199949218766234,-0.2898045275891547,-0.07225780990828617,-0.20775291163720366,-0.03339409388892906,-0.00846199995907471,-0.16179284060279722,-0.06400321492652127,-0.4291170532059554,-0.039677004058708415,0.09134179345987077,0.20445141935898276,0.38464662452518955,-0.03616162461407899,0.009655597820828605,-0.17988380768326784,-0.17005851558152596,-0.07392415570227452,-0.05729740397280874,-0.34131498638147745,-0.11964874222123374,-0.028672786837043218,-0.30627681131023793,-0.010104713467968781,0.06138435077403508,-0.2974058018044293,-0.21063183919653986,-0.2646721438155098,-0.11463437720358387,-0.08092606081891117,-0.22289560414917922,-0.08554183668950319,-0.09511317016092227,-0.09224633018229637,-0.2239329363622366,-0.002757079359354488,0.08043076023272593,-0.05058746678005998,-0.1760201740204958,-0.05370566800050904,-0.2802151043471637,-0.5377344622937361,-0.15569099960461175,-0.16368284581118014,-0.11540696999906588,0.1421791981495353,0.24850189029933412,-0.20294916384345257,0.030220441602942183,-0.28497200142156437,-0.10983488858222869,-0.207833845545004,-0.07598906183463784,-0.001430221052832164,0.0012549775649088693,0.008357009159609302,-0.16928051249290263,-0.24268887704398445,-0.15270125508806556,0.7116341551314226,0.013781241720851715,0.06176315040486786,0.38066092867454804,-0.03552234901102076,0.08891207203332491,0.11601976236452734,0.048531136208527365,0.3658594428084948,0.16964428702886586,-0.14481514166167544,-0.27417402243777605,-0.2185901803336461,-0.03481574098846614,-0.05789239945166603,0.10128271426533968,-0.16444207190725518,-0.13282165219439387,-0.2041148476176867,-0.06430627577176311,0.1406037961592395,-0.16763609475821092,-0.20336116845102992,-0.18048904801629762,-0.5264051758740077,-0.13196440523428998,-0.17964947460329822,0.029629700666033525,-0.06525374280070922,-0.11888736742646319,-0.3023042879801022,-0.13764228742918802,0.04818860122984054,-0.07388493468693755,-0.08531931806075699,-0.2103186702705489,-0.019468794515962645,0.03132952957367889,-0.25136212923190226,-0.29967049505360044,0.37970898700714195,-0.2694894903270897,-0.027507275071810753,0.04350968878266172,-0.34487548574025745,-0.25150730674206817,0.06026962401511248,-0.21813467711480583,-0.05157495887245668,-0.1745841126470289,-0.03193186592026881,-0.029883365277090658,0.29209720928966537,0.08843954040947713,-0.5018213132230378,0.0031345216871904017,-0.13496206151233103,0.030581439259707237,-0.10609616967258466,0.1513892781454672,-0.24111252583310322,-0.04600749345230334,0.562430005298868,0.027148289297287017,-0.11530767036228584,-0.016718894045515294,-0.3470459551337709,-0.13902237254708205,-0.05715782424782176,-0.07945393340482766,0.2562317567505426,-0.10125090375727294,-0.16827174879306853,-0.09439959621659579,-0.5267753906545852,-0.30775002433105314
Kappa1,0.2652088064995103,0.7380550487826537,0.5837326243449684,0.3727924046499341,0.6635731549915491,0.5808238960039266,0.32222350700839336,0.628283064269359,1.2399926509199655,0.720504826799559,0.7195433554127915,2.1122393546270826,1.2090175044491835,0.6953118049228768,0.39896360750609233,0.2622145397634431,0.7801769998159067,0.6486419105876956,0.45842298209354726,0.4087391722902773,0.6973805650995278,0.6477816796698652,1.3031939204887237,0.5354105155819726,0.3312282840417113,0.37831408879563483,0.9025700046732226,1.318284690354896,0.8233818735843423,0.23505533537657125,0.7439839777548218,0.33818563894325254,0.42728727240651465,0.46364800307695325,0.7846331833050185,0.17875208187441888,2.731971327225929,0.3711776582657366,0.5681062226118057,0.44291964503941056,0.39073614042937277,0.9696774981090633,0.7746513058464494,0.42244662617275897,0.9032820335509949,0.4110032410862088,0.36011490643326105,0.4569799493824366,0.835404949142079,0.6517187186405733,0.6424705200919886,0.15958069083601,0.41442413062001693,0.8088327332333338,0.29325824423503377,0.7267417996293007,0.28789583706539473,0.3590212590485698,0.590385445516954,0.49434555229172694,0.40178280918432124,0.4687181454305237,0.44605881502281636,0.69693619295786,0.6273992875036409,0.3670018070622448,0.32733112401460124,0.9572321637558743,0.7368423032104342,1.082039405659271,0.4039300460810749,0.8306552802287657,1.0923504028126303,1.020798558347123,0.7987071027668188,0.3912339599757969,1.1878732270455705,0.9579223694550133,0.5157855978435314,0.36290899647110436,0.7485683818002518,0.6714789474924279,0.3500690366266733,0.340949797920301,0.4237178654768666,0.22441526980472246,0.9059454721655812,0.49206774658630026,0.7323414065674786,0.5234537627964453,0.8491434666114546,0.7251542442271833,0.7527151711906885,1.1068795720876,1.616553166937065,0.3627946172610523,0.43140407079830834,0.22164855966524322,0.85751657546957,0.8384930610598427,0.7787488702289177,1.3193136839302224,0.9830395659372555,0.5642540993102547,0.22800050531262914,0.7041305767754723,0.6303517770935396,0.45768739943717646,0.583770347611044,0.5475256999242091,0.2682946901426733,0.44809583743132564,0.42191055065719274,1.0811223387088884,0.7565568197551491,0.1802562501179796,1.2629631341637184,0.7236310425719823,0.654103642182303,1.2413033371987379,0.3240386765290954,0.5172362257701703,0.5951319132283436,1.4905178346470571,0.07098179158894169,0.41588579773089623,0.9686326156845264,0.597193567640351,0.888088193281591,0.7402160094038792,0.7502754636158938,0.716954320574599,0.5163125573103018,0.6901057737645874,0.5611752365034866,0.3313761264657901,2.210693437197208,0.9430809620166709,0.42464173418071116,0.48455571893933025,0.9341551738183318,-0.02324045649091083,0.6312295104216504,0.4573869797816589,0.8726739364228938,0.43790188529571855,0.38258467458645073,0.18330506936285101,0.40557234767681755,0.748840518216221,0.6161323858844454,0.48371195528634114,0.5387041180370095,0.6999586207356393,0.42579805699791473,0.7343428791385538,0.7592218966651031,0.3862026829102939,1.0289831221081356,0.5381983811969222,0.5700989976769887,0.9164948323053467,1.1332797667484598,0.018358533334931752,0.9870240555230275,0.356581142754905,0.9050662533726831,0.7149162685891512,0.31810289891859095,0.3391842807359454,0.8648314838778947,0.5842238364507387,2.186991962936446,0.4812940027641805,7.57234508010963,0.19067762479429928,0.40401663219770706,0.8959844867932707,1.4966007663659489,0.4057152092280176,0.7879293913936074,0.32017085815650237,0.5692117013031656,0.7900058900466024,0.7444861914879903,0.07639120489938593,1.1116806909489032,0.18877118546231395,0.43839485263891276,0.8274714162244451,0.7236106248540636,0.6409518247542477,1.0790135088640462,0.7308378145732501,0.4357096396361101,0.32004363496520305,0.3519621512331703,0.35782524176445285,1.5401433272542575,0.3041111292596914,0.9199812445013856,0.3199496562885353,0.3389292227895809,0.415510389253911,0.0294634467715993,0.526399906580764,0.8764073038772239,0.3089005709075488,0.5045090816160055,0.2467617754277649,0.31800699931687315,1.3639519681672727,0.7678204812457715,0.5948593523726452,0.8929582952449362,0.33168558848201835,0.7230069583064466,0.5712797050174528,0.8131317134140738,1.087776062524843,0.4720638936933743,0.4491684058675003,0.7920995712663608,0.5488153424190351,2.69146401426596,0.8594672924941686,1.4806294433839442,0.818476127138739,1.5017391733685594,1.204829104498459,0.4059424691986097,0.45376789504493403,1.0164924997139284,0.675737105617819,0.4866370218323274,0.3497232761660907,1.0132896515118353,0.5161701605138319,0.2688772480114236,0.3555173877640691,2.6991277069496245,0.766914028194552,0.2671993645126114,0.9005157788472284,0.5403528557590624,0.3018237374737089,0.4500037688432996,0.28530588437833315,1.1773000072195208,0.7588264920128253
Chi2v,0.26361778800671787,-0.1986250279606243,-0.10978064149679834,0.05225285068403636,0.517051938526539,0.00852978295452766,0.18399646097415825,-0.10388858987831462,0.06239599808170282,0.2502630383004169,0.4147814336989699,-2.3896128661318805,-0.4014857975641192,0.7690329106614261,0.21983358752859272,0.16080131593359367,0.08248777078928729,0.6699162973492991,0.08712472411007352,0.15703153002951523,0.040886099166795156,0.0803285249650913,0.1344010209843147,-0.005486865442069165,0.06439097461946755,0.6064666924606744,0.3993439142270113,0.6571397268031837,-0.7857524430986579,0.16038437713153267,0.6869763651390147,0.2873235646156208,0.08669718638831438,0.49042614365903603,0.4687697153894446,0.10258646173708233,0.12785589103178208,0.148544159650505,0.26236696528300874,-0.21840117585801894,0.10680650439382978,-0.22604362554838814,-0.0640261581014338,-0.1739482994613936,-0.23140627029894348,0.11999997235267246,0.41803935923831864,0.4307274672854938,0.05982492622141584,0.3070805868136825,-0.18823504403129668,0.11732423773307159,-0.1397358304506817,0.08888941762516187,0.1486410072246601,0.07277324202175821,0.16167142148569322,0.3394486856550731,0.6753030971714937,0.07010994263130417,0.39268284468245623,0.08756613743064498,0.13385947619827326,0.14093354885201437,0.1799611381731102,0.03272651847380998,0.09094956793823021,0.570503701861121,-0.5463520003002825,-0.26111437586150027,0.22257378035803085,-0.08333059395788861,0.5795810901645385,-0.24718526388915338,-0.08527847382753669,1.0761569213102693,-0.6163247910102226,-0.13425111080078925,0.30468420151132564,0.032135998589221774,0.7010362699357958,-0.32987097944674854,-0.06911290692829998,0.21026106858127078,-0.3403701703648188,0.40942181690976337,0.5790150202300263,0.08488293424446293,-0.108875061218403,0.25494180539768774,0.14086505240178412,0.06071421718882676,0.021724976301081944,-0.5963768307347334,-0.5739017625509167,0.12140406544536117,0.2526083303370698,0.3530720354861262,0.09172971465646153,0.29018979061141176,-0.556194796394374,-0.32255557508859656,-0.3313836073899478,0.07638988720070876,0.32259248115700645,-0.0021265749444891948,-0.16738639178223347,0.13413417472150493,0.20611000517335026,0.2778025590328052,1.3075382894957457,0.0629271302976731,0.02316272219899022,-0.09568380114595859,-0.40466345065175463,0.0637002908063618,-0.44828852926916823,0.520240338148708,0.6988668778919521,-0.08177750169376213,0.12697290812316356,-0.027602635048079447,0.2083007681039361,-0.33943334458040053,0.04659731216265022,0.28332213130681483,-0.25728352816879296,-0.13134174948420416,-0.05393844867514549,-0.13263791064104186,0.2695547432422412,-0.2904032568358877,-0.06618926134416755,0.24736331467724046,-0.0651835178818591,0.014935010086384766,-0.27279418417037316,-0.17790394282693625,-0.3075284610790052,-0.03240558879456815,-0.18816477941561147,0.3544118757294298,-0.3099677646951101,-0.10434276125900364,-0.0861158097374648,-0.059281742707648084,0.34129395955639763,0.24081123491904363,0.1557063213511399,0.001735486744499429,0.07472668484594465,-0.11354447993942178,0.046902765893295804,-0.003391020390702554,0.1072926540411519,0.2193300566224123,-0.5338845923583644,0.09379199143765843,0.3189091402889592,0.22630405700515935,0.1350375540290893,-0.21751119192585094,-0.020206818703601855,0.2887296323323052,0.28307457709316025,0.17471310040213725,0.14882802609149062,0.5088240329134261,0.16371891243783968,0.12457704252213275,0.1463141310615147,-0.12266754723487618,-0.00929763596489038,-0.22019197895162712,-2.8192010619945513,0.20191093635165486,0.25192240490778617,0.35380811363431885,-0.0032666567036888157,0.1878446116907977,0.580291402968517,0.019625169302364544,0.5638501867440346,0.2504483531948831,-0.1784029351140822,0.4064637970333439,0.25397707345956416,0.07103502007794586,0.002426043237381794,0.002619205451589923,0.17461269494087325,0.3676682007247354,0.6845151602127134,-0.6221348267310293,-0.048349635958462166,0.1553260847212293,0.3211033794019308,0.24101195527064362,-0.6173152960864277,0.33875713891119763,0.2398154817701722,0.27625967633603216,0.1265323638935134,0.0933910283063432,-0.02751029234714528,0.04588889745744213,-0.37801702154001704,0.02901706058548943,0.7360713584080923,0.06472033230749107,0.43900549678948514,-1.913159641008121,-0.20066117436069195,0.09950359687461924,-0.026492512701231697,0.23866895331448137,0.3690908389884673,0.6194073245575874,-0.5954231309870297,-0.0975485517166791,0.34854293478871884,0.0017463142884489695,-0.09905355855581334,0.04988169518137733,-1.4179036548976898,0.7425244605860051,-0.3560210172637032,-0.06643480600460305,-0.8826175184719016,-0.30206442706476355,0.5688769122621374,0.19033118626949327,0.1611334812594805,0.22740817283939274,-0.02524760628970811,0.15270746663680024,0.36753859082485174,0.15524655581496033,-0.03379409885089935,0.017724050776202392,-0.2237677347926567,-0.081273743925759,0.641967284404395,-0.3431557218106447,0.06025008920696992,0.38141186039957864,0.3514244025070052,0.3133650701871635,0.15926024965658905,0.4055704079436808
SMR_VSA10,-0.02406711139989502,-0.701558479853074,0.19867115500582425,-0.27063652587445075,-0.36130792426047387,1.2298670469696256,-0.12520079589128638,-0.11493152574336847,0.12567849604934858,0.08224591990179003,0.1546535125881373,-2.3492871726507,-0.05029053898464838,1.1906235951551738,-0.08196109224199077,-0.12443861171795909,-1.0605892152107506,0.2615662113024647,-0.22090903269115522,-0.20734600059055452,0.3087618328625459,-0.3339049726758975,-0.4643879876660703,-0.35581514719059704,-0.051825396911034355,-0.17349304559033835,-0.5002029952178821,0.035779328291564355,-0.6551119724794523,-0.06775335999655896,0.6730099431440594,-0.14488721411632605,-0.0105318247999118,0.1957851107584464,0.020385089791110658,-0.05786038059207325,-0.2702898798072616,0.017976544540367033,-0.442592761619851,-0.9231675048408244,-0.026628955325145563,-0.40348063437666776,-0.6076733533327129,-0.08710304823864343,-0.4058413601584485,-0.25318317766208037,0.04290377052413171,0.39157276548192466,-0.2326288034200089,0.1346696978655241,0.020287095307088936,-0.026450451489170343,-0.4585871277539422,0.2575489898230298,-0.14330940563643174,-0.20468153898356684,-0.057571347464963014,-0.11008279798564673,0.7830611660063506,-0.09119395825710716,-0.0622228983277498,-0.0859552780553957,-0.2071892113265451,0.003457652302348973,-0.2985667454433117,0.008080327764806872,-0.11919285509864702,0.4571463365173971,-0.5764772277296326,-0.4461457784984676,0.3602192049418006,0.1411381939109347,-0.2449134833862976,-1.05176111959251,-0.3486734959257302,-0.0305761932099805,-1.5769650109985587,-0.3749890310719429,-0.3930188577341781,-0.36023210287159396,-0.5176377030964568,0.6605230500612411,0.953743829620776,-0.10745631829908235,-0.5462482886693436,-0.8758226415782729,-0.8594015539409596,-0.030410044084870778,-0.10005536548729786,-0.33530961640398343,0.010731761338101765,0.796251797424022,-0.28295077310026256,-0.2939937191988722,-1.2091814840568633,-0.272491848237283,-0.27513441176167897,0.4658917655445686,0.2867287708502179,-0.1687186876370566,-0.8010833425986821,-0.9600690467259936,-0.6916708954159503,0.42147944410834304,0.43717088704842366,0.11767859455366224,-0.23109663446660314,-0.26914897700209506,-0.11496034765265796,-0.24391439943033855,2.682624869134129,0.043499095960614825,-0.16328796304295504,0.11898105713768124,0.5770808692678426,0.023786528725812033,-0.8581613021990093,0.100542912346754,-1.3110768505602732,-0.6775758125790088,-0.02571334396339715,-0.3402006511157474,-0.13268275592603254,-0.9338724564430313,-0.01013883322488436,-0.050212377155770316,-1.347425567838823,-0.1803467592708744,0.08317030742599218,0.02920953462074455,-0.187844533314684,-1.8610899954053095,-0.0169284260416205,-0.5238995700288951,-0.07161711840323715,0.03254188773781128,-0.3616975094272469,-0.011703570558779866,-0.3661039634668279,0.05593006777073628,-0.30049366849415576,0.3754323351809798,-0.6349039138527494,0.015585357080716759,-0.5416114743448743,-0.2974949148627299,-0.3366242006609818,0.06778258461496803,-0.029571534180506995,-0.17809398688294212,-0.29354926287610317,-0.955686654983489,0.010243956468689048,-0.593011004670347,-0.21179874358822878,-0.2516423498997028,-1.0581032948282982,-0.7527820080711959,0.4656838478982909,0.25669856956923576,0.36199076582582673,-0.041455293780916905,0.20162832429488325,0.6474185700901459,1.185441041450141,-0.11202576100949144,-0.0025251027385866398,-0.3077004092128498,-0.09222252910570691,-0.023605160263837202,0.06803054812320315,-0.19053075312309278,-0.30988875196022025,-0.4074917432394456,0.35116937861949643,-0.053614788439185636,-0.1884804816619589,-0.1300549570773611,0.13835752650583755,-0.05359352718954649,-0.5083823846624965,-0.5894892794016132,0.12373199941473167,-1.666995490746284,-0.11994681572949299,-0.3023729209244333,-0.944215093849774,-0.008512674701424921,-0.8143007435036619,-0.14464434641539464,-0.3507021081022491,-0.22587519070198261,-0.53243541900599,-1.5486422988880568,-1.1721589247425206,-0.23429440440949056,-0.2801272734353003,-0.1815899796079186,0.3397114647373811,-0.14205180561191585,0.42420518456976875,-0.09827937353404137,-0.13482472482866173,-0.1325933037734204,0.08761041900719636,0.8753889688301225,-0.4624486897559333,-0.25868288556204366,-0.13112555116703492,0.027248450380087413,0.5980026770075098,0.2110185237670394,-0.09847982153735557,-0.1080272572089076,0.11712698717254415,-0.1682614463633398,0.07243768499550109,-0.056914938446282655,-0.3660236225487262,-0.9370759138893374,-0.2461939282440147,-0.029680682368692177,0.03887231360514378,-0.2454232279863281,0.9716484603555836,-0.7175347375288862,-2.1283845228279556,-0.1957209802037251,-1.3305429647328157,-1.2487699512522956,0.15973683093987862,-0.6871700020238627,-0.4398911981493384,0.7714869162261442,-0.15466138249959452,-0.05903373157225911,-0.7866275115438784,-0.09463551993156029,-0.29692592733343925,-0.0010448393467312348,-1.1059472364495133,-0.08813581883368396,0.2348003057770614,-0.3978391834218173,0.12050874274307746,0.07354146615956798,-0.640292610821868,-0.1434648569004344,1.053320756523534,0.3380906349504907
SlogP_VSA2,0.1509087581510988,1.9350349490557386,0.11922635683323479,0.11152329830378394,1.2362209203151124,1.9835654209919207,0.008647625505068172,0.6031083435274736,0.09312237156128217,1.34294784895923,0.0612942397050256,1.9455601932003286,0.4464403716390672,1.8012622044037716,-0.041096606313073276,0.21543526568756177,0.5484020490978877,0.7634870709557354,0.3807911941989836,0.45605812555400066,0.8090372377295673,0.8578933034644887,-0.0792812034542363,0.6749294344316825,0.14278473900179753,0.5209349652083434,0.29689379365911056,0.81722332137419,0.872534091450624,0.22849833676260053,0.799730576408453,0.32751355173757873,0.4350790471107934,1.3961054598965459,0.06496936326297792,0.13127419872972765,0.3670696045850344,0.05705435754319831,0.880242983394052,0.983538939043876,0.15367969034990747,0.18497149136402213,0.027309075876721246,0.8402114860289394,1.6326488634550216,0.5022214955447925,1.7624705045958529,1.6962689215746298,0.8984568223355703,0.5163333006179899,0.6164891453305378,0.10165885696816157,0.22854056590435406,-0.09098529138848951,0.18032069338103957,0.060609644658246066,0.262728195987026,0.44354370340648436,0.8605505382432461,0.48425188720602513,0.14541876666947867,0.22136939368563208,0.20554227911801726,1.2016651097545776,0.05420349233122456,0.9140966943740101,0.3303579127823237,1.4685192070443107,0.054334171393724956,1.3881170719050586,1.4303987218689562,2.0056775944156744,-0.2462573422264185,0.6593230798964801,0.11544307682740945,0.19051041105858524,0.1504242128931968,0.7456726310260336,0.6662414306958394,0.7000303130300227,0.3387422687076176,2.138911278040881,2.70438868060594,0.2769976412950499,-0.26654710623967465,0.7508600128080879,0.42461740418952204,0.1079874709335106,1.5178207325248443,-0.15992210239982263,-0.1746016822763205,0.36061395821541287,-0.033902172453146424,0.7049702376118947,0.8928908453056217,1.3028397537487884,0.80420725517538,1.8158935442543624,0.6616385097020079,0.005462430068835761,0.40476423142076723,-0.2393262856454249,0.17020667854431218,-0.056964629536918984,0.5751558884116423,0.8080518682536459,0.5184637700934235,0.2648664738586931,0.5677718582714805,0.024715310071119788,2.490688487751188,0.2422928995819151,0.24127717304665222,0.6807325459667923,0.8534344764957197,1.0263962685000818,-0.47974819854486384,1.9252079971865428,1.4709862591421883,1.4469710129925886,0.3385751222113871,0.5984841302097754,0.024641351521089507,0.2067331872067817,0.05766948618756517,0.36669950852320965,1.4749410489905648,1.1864633645307774,0.522998131238437,0.3335509720927316,0.3575506711328207,0.13816450624510043,0.980281898902649,0.12224251539819309,0.27534857565266235,0.22435901872196776,0.5226188167977995,0.9789467668798104,0.8488594937732414,0.1651494356318592,0.018587107623890257,0.7610480432057266,0.04844625599779126,0.42923205584747676,-0.05825509832997133,1.2917571049846834,0.8008499469815291,0.5405742627731815,0.2792148969879082,0.10475431946372303,0.6333026740014746,1.4814277333048391,1.7160597064240595,0.667317013951785,0.6591631952364578,1.094362186471186,0.6385396727481035,0.95101392187199,0.4335715343558554,0.10309978637236335,0.4043979096810202,0.2674687617220253,0.4911176147591833,1.6254017205088258,1.9929039793047902,0.18147575340859246,0.4929172610538554,0.4131981515220052,0.288737180285277,0.4530232924831797,2.288097361883554,0.8046112337468991,-0.620157194149796,1.3254054422584103,1.5666538872391438,0.15589466555511336,0.161260203181734,0.2556309631857973,-0.16490017362305187,0.7670776281224413,0.7311301634926668,0.8356227702491521,2.059703894829987,1.1234567120590222,0.3695030992835667,-0.03595381103259768,-0.1190703697116751,0.11411420368505394,0.41618072743163637,-0.3163104888475189,0.5043579699982867,0.428661466686242,0.3040490235765975,0.752670352230845,0.9184509011980614,1.6916221222638284,0.4307285973231251,0.384889932704065,0.528284816101219,0.2371148421438464,2.1219143122545554,0.3232338206259699,0.044115073585284534,0.6685415216238036,1.720136036221193,1.3028458214811458,0.8949462367434426,0.1878731182964538,-0.031080149351217765,0.2580476573795846,2.019234322767866,1.9074444018062768,0.3812170403108273,0.35534207569767806,0.736140305940336,0.19446478378752052,1.028023897932543,0.03467825664772095,1.795452552491254,0.8344607815019401,1.0253557693938986,0.5602897409339508,0.43359039560937823,0.24527920854325216,1.535063188506927,0.7620191977255201,0.16120430911660982,0.430028867212595,0.6500978968721312,0.8102906000685036,0.33523980880512655,1.5998099608835106,1.4228109982188186,1.9893774618838662,0.5612778632946684,0.3214583480567949,0.6754362393321781,0.15205209579341997,0.4882370168490495,0.19741285791246516,2.126897164499941,0.40776378099281585,0.732443851148692,0.6297521087370613,1.108778507513633,1.5276983131714112,1.0310158811753123,0.34861713845455167,1.022872490295951,0.4704146193496138
HallKierAlpha,-0.24120148937823047,-0.2750941382416987,0.11452597641479649,0.03582010730489399,0.11190342336886969,-0.3871978224965827,-0.06996126958898288,-0.5749229297209633,0.05742668286154448,0.14032220223629926,-0.586563274244971,-0.26389369934841256,-0.6643176233153434,-0.29757754254758295,-0.1215863336535279,-0.0031697695435470227,-0.7527492158112714,-0.653676217960312,-0.39936982119576153,0.016648402211670268,0.1622370381835088,-0.6745317625049634,0.45747509607203984,-0.4046257746918361,0.03011714458111043,-0.38047020754984895,-0.5914108378881915,-0.44642526679361405,-0.08832998055569023,0.06276032905086239,-0.3345151220908733,-0.04826072107319745,-0.045838208315921274,-0.4911404408320972,0.5141720061086849,0.016948820601492828,-0.6030967436280227,-0.14465355942002753,-0.8431476992045746,-0.6606601125888529,0.06838178149922061,0.06268994576908818,0.10464774719078038,-0.30850457452862756,-0.035971731055554526,-0.17245897605300092,-0.40129222811787485,-0.34222615777308957,-0.3350481512295563,-0.4983517865587376,-0.30011830610292095,0.015694963178984382,0.07825848471952217,-0.4827131164260416,-0.16997391863502823,0.06894741745581616,-0.014004127368377625,-0.37344163937505964,-0.14780353180298528,-0.13287629434872747,-0.16503393679475825,-0.07074217252268351,0.08883489967890601,0.04434436246813693,0.0538699765540093,-0.049306060873406735,-0.1400051130846066,-0.299402305998372,0.10742286330028464,0.2603658254726011,-0.1935481786357072,-0.4984028553744417,-0.07776567672909475,-0.33479912963223607,0.05982716730588108,-0.8412573455899185,0.38044714847769356,0.017921608276750444,-0.21850775855893936,-0.33675253008240136,-0.2145281395000364,0.15436106471968547,-0.19829164690788043,-0.21878130245869645,-0.12022000677618797,-0.23338526430845238,-0.255371190540636,-0.05310542983746343,-0.05407370829957783,0.037076943774367176,0.3656112908649226,-0.3957991888217616,-0.30158061567619804,-0.29496307072756145,-0.2237993862788782,-0.2144934292694087,-0.39417999629038997,-0.1749224576853017,0.30912158665173967,-0.03672175151327495,-0.2487921038205002,-0.23193535939403703,0.19353722774694676,-0.17852640213839202,-0.0789859927331432,-0.5732344554594524,-0.14373800013121646,-0.2813436416841651,0.05069123694246006,0.08465207007536936,-1.6513607219930027,0.13071634318678382,-0.07372337425817456,-0.24183118800284042,-1.004238536684108,-0.2617466202450366,-0.056858140310664836,-0.15160352980954733,-0.5060504205606309,-0.2194699649504304,-0.07535880610566709,-0.4240012694262019,-0.08464291801403283,-0.44784648939728944,-0.0014303494560331386,-0.28320125227176535,0.06209254203273813,0.03287731935322934,0.08176137587985557,-0.09074105829392995,-0.08291906692318125,-0.40268773241830413,-0.3223575474893237,-0.2801684724595409,0.3037375483512318,-0.06274081466517321,-0.8441117547273299,-0.4150212293043574,-0.5007922008289855,-0.1042580395182312,-0.4329493809190397,-0.07291231682810094,-0.2552846108379306,0.11567773513512557,-0.12991916608787257,-0.09720294010424095,-0.1868408707521042,-0.10661822153763693,-0.05690472630161505,-0.2845381756142373,-0.45238709514279013,-0.9073111504808744,-0.4680519007978438,-0.22509163760458983,-0.3110924465060039,-0.6865574471061293,-0.16234612059623163,-0.4538909647467336,-0.1251668299210186,0.2634208018481311,-0.6244515588983871,0.36557333593228963,-0.25085633311409444,-0.5513141278551781,-0.442434301707757,-0.05755381236816027,-0.4827689953588896,-0.6829840936590423,-0.11177059927641361,-0.08553979189665753,-0.013458138729461814,-0.5010333936640547,-0.46093022770190095,-0.11630546744155913,-0.41740813288639284,-0.01423754506693822,-0.009255605548196323,-0.49608067169517234,-0.7233333501514017,-0.27462619726903525,0.002190270722115508,-0.13684177967525776,-0.30927762691917265,-0.5412382971512547,-0.2678530978300109,-0.024717263864449435,-0.4867686883451328,-0.04547325022245819,0.04292036721632642,-0.18565438145175667,-0.22801715227910072,-0.3594946977777199,-0.30328590829051727,0.2540893689792652,-0.5172544594550244,0.025597310441911617,-0.19012427424858938,-0.18943056251746773,0.44768964554255364,-0.18816767813740642,-0.8204563420507364,-0.18828907270869488,-0.16623236923458057,-0.4182156963369199,-0.3097886256334615,0.32465619301238857,-0.29843219556299255,-0.30469260456318153,-0.15147172448495122,0.04289748242625996,-1.5083475425547064,-0.7512960896375466,-0.21517582035017327,-0.39906980593880415,-0.3886057281695714,-0.060962531644288796,-0.19394654243670545,0.09649831432962906,-0.010606367474084331,0.10891816469256346,-0.029189680167101134,-0.4025394500694833,0.018392665283296864,-0.2165983732049124,-0.8421634624645522,-0.5026751381702009,-0.008290255655055246,-0.2588174625128502,-0.42291507352941626,-0.4835835003674425,-0.23175341810736683,-0.2033934558632199,-0.364310724913767,-0.6109263263545773,-0.1640379041853364,-0.12488935534370413,-0.2140231004335369,-0.057739572597182924,-0.2439689898346042,-0.047364634901309634,-0.990868189371249,-0.5872889462206767,-0.3082488622232896,0.2585195508174704,-0.2504344922730554,-0.2782155254369453,-0.3261323016916414,-0.19236458917131813,-0.03446264720192848,-0.293409671560501
SMR_VSA5,-0.0464510948223737,1.559976530575772,0.6658186243987083,-0.019936401889021824,0.6401259506357767,-0.8171303462871976,0.1469032090313257,0.28408591559464574,0.8936206001468878,0.35369895159655473,-0.02855841317274827,1.6934080717474471,0.4451687550903572,-0.028901540776265635,0.03929764353504558,0.10337938739027687,0.7044442940152277,0.547175986370538,1.1482432915202774,0.13162295464850185,0.486722802386442,0.047641429641855644,0.1179094614974769,0.8297487260766429,0.02131278732941088,0.45783596613763294,0.704923186413446,-0.12606729301034797,1.8914117414395972,0.13979614206129515,0.7349672716365712,0.24922664452130916,0.07266890094092354,0.6964004194511587,0.9643242819422758,-2.2702393819115706e-05,1.491923511034472,0.09958662354307124,1.4519212335568301,2.1335667861288226,0.004492377007921122,0.4533749787354869,0.7983131688762832,0.5422175697808213,2.2966128165130164,-0.028467636183899615,0.0933013516541456,0.08062942123180183,0.4533372695913802,0.703317249527121,-0.04617633935819388,-0.005567745624891811,0.6388805660646435,0.6261161542812733,-0.09294242038988369,0.04122574803665002,0.22202731402874665,0.09574597310665679,0.8649426452304323,0.3678401334532787,-0.05730849729910197,-0.05869181433677244,0.03878029805176369,0.2003179807709265,0.010357747131302724,0.44372530956496753,-0.014753394451781534,0.930548430328209,1.0978475363368665,1.7459483603285872,2.016888899949305,0.13438241216087773,0.1956418234244054,1.0756738833148256,0.09080574386543495,1.8503640243234254,2.3009283414961166,0.10144098473554744,0.44857624078052355,0.6600177061299015,1.209677313455135,0.3972390567297908,0.7430748917824057,0.030767324187340947,0.9616852023934442,0.8618246752922274,1.238293213662455,0.11013693757760025,0.983402347892956,0.805548934875146,0.4621954086034671,-0.1219592233744753,0.4441122650397419,0.9295613838483211,2.0643212670359925,0.38392318718913865,-0.017535572261057883,-0.034409525874840786,0.08321556763263034,0.7276600861796129,1.771154271005635,1.275553809535106,1.1419151243269043,0.1118179946730563,-0.0500926386579906,-0.3423137128079259,0.5596079226167936,0.010318463776279083,0.2833555721076222,0.26279255381628336,-0.7977177299020629,0.03237356618077223,0.06880911410443007,-0.11348362798821619,2.1269884843277787,0.15776010568076648,1.0900190642862424,0.8530967015181229,1.5519227317870918,1.0851142004513468,0.10214947534982402,0.34435118802074993,0.09315072523680153,0.4041164738728552,0.013699559311597838,0.1108587040894572,1.8471751629949025,0.8881361449329599,0.3655009508213563,0.4841498249564835,0.7975235264251771,2.3251664792302638,0.8919374164622327,0.6176499976656943,0.5047604154713162,-0.012340931014931151,1.2548354370108683,1.8686327166060899,1.2233706055597802,0.05822800738169334,0.06924844270093435,0.40420310620349226,1.0289076055091884,0.03872029730586594,1.7287392006818176,0.0005143923141532562,-0.29966476557665195,-0.13219532057879388,0.081600693754031,0.20322983047601928,0.3433098829463992,2.2230507175205254,0.1706100570366321,-0.027465692724569887,-0.06483519418704253,0.42048078757658547,1.6856082035234619,0.8180807351163313,0.2365351510620926,0.5111930034393597,-0.054515376904700846,0.45142341385987006,-0.24367226005043838,-0.026854772627497095,0.8765004098697713,0.06876817793513383,0.665408607133979,1.0459175939735523,-0.019683810710803117,0.022228940919605276,0.914659992514459,0.10934382258310074,0.9891039143992071,1.045495533420316,-0.7159492497946459,0.043646643169645484,0.17310629268865838,0.260723137817803,2.6139091216675965,0.5557011199463877,1.2515971428772048,0.5715601617751244,0.5508421699632753,2.5483205832240334,0.5570176947131865,1.1392729471053837,0.9960145218723488,0.005166234302038538,1.8202654575016672,0.5980490866014759,0.1892555984176407,0.6264668982990685,1.6153840492472158,2.0353248730876397,2.6533318655975626,0.09210861525554687,-0.18837421287186576,-0.11541377431611576,0.6823855765694368,-0.006095608538997001,0.11151984960288644,0.22778654683406901,0.15470588671086433,0.2703755983995558,-0.10201365641356944,0.016284699171448667,1.2601858007491424,-0.06623223693455807,1.3866935993328218,0.05575985671065553,0.6048068452186576,0.4412300279515909,0.17961347844879785,-0.03335199115263308,0.08561682006312345,0.3418878882013567,0.4360059121766622,1.225396993673429,2.1457410788996087,1.5839405339616626,1.5823560956897533,0.037433534152646566,0.4040730996610214,-0.004998170320068525,0.7078051190942825,1.944689902242162,1.5214051626582907,-0.022421486389577423,2.2267802755961252,1.6925022980897588,1.000459020171993,0.7839669790048241,1.4995354180723215,0.45353739677885163,1.52806313506713,-0.012749255896628457,1.2773170254097046,-0.10894097895850015,0.5774039188253731,0.1302275212791224,1.4765746147115895,0.9062691880054267,0.3697557844650169,0.961515742957181,0.7741445840108585,-0.15140541444709527,0.16575943738373236,-0.13914093358259566,-0.8888247894691004,0.01088065967829354
VSA_EState7,0.18313449326005457,0.8887902563651657,0.6480859931926484,0.24780348776897645,0.49715252654688113,0.8798885509423588,0.35576132816858397,0.5308593965864024,0.6975427212385941,0.6946043852404228,0.27656330651836053,0.39013864165230644,0.761728513196771,0.9951111061089181,0.3613829824255261,0.19475221423939915,1.1863395160746228,0.9734842494587855,1.2792454041175492,0.24640563456058703,0.331750630836532,-0.06658817003646983,0.28611190795979785,0.5463404792225065,0.17051712466911054,0.26255520204987426,0.543202922584198,-0.017581967444377865,1.5211068367919993,0.03137878398923576,0.7582891807534661,0.22485748960262678,0.146896983569601,0.5901270485230037,1.1605748581846025,0.12679597083865085,0.7117661148164128,0.31835052795698876,0.890243519905877,1.0740410560882567,0.1827432624472124,0.17547380790439154,0.586349403874273,0.7713026696007704,0.3114690213301552,0.10230381276162653,0.3724202871693254,0.31905176281373326,1.4252191032377823,0.5552363823616726,0.5559852394860009,0.08761601853821033,0.4189387124391032,0.7642452554729408,0.23633454316970587,0.731894852758109,0.18227307494076905,0.2605722965269405,1.371659501604977,0.7247010397076367,0.2920536951097149,0.2350257595790307,0.10596772187834544,0.638970924544101,0.6250704067954355,0.49159603099197485,0.32058046036629967,0.6170643892181811,0.9481824877494822,1.2132665962664304,1.5299711260988837,0.07577311127278231,0.505592918155071,0.4956309645741961,0.5513053423595671,1.3555378740404869,1.2050248141602828,-0.1712637051616143,1.0283674434865395,-0.27856864758411926,0.9504428638929961,1.1325134859924022,1.4047499988582735,0.21036930280370206,0.8001573046865585,0.920707821145842,1.032085326059821,0.3798251735352385,0.887928576961908,0.3712695448569324,0.5758810988300255,0.2508668473739571,1.0115079003215963,0.7390314008352623,0.11355547818979599,0.5128391991414014,0.3838317945046729,0.561667911701887,0.5364385335362427,0.2188138326832502,0.7679536160024207,1.1709180688991232,0.7184296100877913,0.5768789281715906,0.4353366494917742,0.5602369046534362,0.523348024188474,0.1321759988742692,0.6725997213386044,0.636100868855422,1.1273221242733529,0.013876293788425972,0.10233010724462757,0.7119524292815843,1.5560289100077183,0.6761071414758004,0.610299022283912,0.9454605333180358,1.4947775674541262,1.0921059328103044,0.1389856886154355,0.3431625464736068,0.13652997472268866,0.10031989942553354,0.06653591256892219,0.2595279392921776,1.2861075513045022,0.9534131268112044,0.6574205252974881,-0.021922477886325252,1.0841109451297828,0.9937241254095767,0.18941143592744353,0.6650364392921531,0.1442820712167547,0.18484785668947068,1.3680876031573044,0.9026440045782207,1.4253816244587985,0.16977305249584035,0.3278157137468077,0.8041141675375317,0.9584513230812683,0.22732726875744122,0.5799020900521035,0.37119547668356806,0.3262993695503855,0.14441753847103256,0.22009169502932102,0.3035432684888721,0.3204011250073257,2.9231185116287066,0.6508978238358665,0.6925964856469168,0.3048978764623915,1.118435728929573,0.9234302994825953,0.42416783390654217,0.32754166187374695,1.4680955712895662,0.557553926021289,0.18934272499053437,-0.11056769745019046,0.43459199195178677,1.092255935495487,0.20966020941927435,1.0108332193115652,0.9183319490460841,0.12755264273522662,0.22704806498847033,1.0565831355925088,-0.07109576650576328,-0.6171378683585761,0.9244797641481982,2.987787139653591,0.10971328531054578,0.22735932022774538,0.3195070654857744,0.8916908920956349,0.3476129781648602,0.8370331746733928,0.6250762155315375,0.6898265387565613,1.355282180093378,0.42750529283215877,1.126903602264545,0.13049561460908146,0.1540587290085392,1.3007638194451827,0.5340742825653159,0.48969220373358463,0.25987912028430876,0.9840754894112997,1.1966226095813641,1.0780381667726207,0.4539188876331583,0.17405145179406958,0.18103279067850606,1.2585994871837995,0.24605732952967055,0.9050748832181325,0.16787872323055528,0.22054029751923337,0.3348445627393182,1.0926850373591088,0.6358371899990886,0.677251106887226,0.28098574281068833,1.3951593958645152,0.367629305519143,0.515379859165485,0.7404900694923072,0.23830386561690475,0.06343073005883368,0.1383250329738317,0.7423496276776101,1.0218958634610602,1.006904976716102,0.953909371986318,0.7096544170973597,0.7503226951920219,0.18029776618644813,0.3709613564228625,0.33020512530988116,1.7120851493089495,0.3452882244745535,1.1598613769181942,0.40781498703895946,1.7207464946168312,0.6100276623835016,0.9828807166584181,0.4243541522558683,1.2224830625770742,0.9359271422277801,1.0168918987744833,0.30050999600905254,0.2757943448828682,0.34719838454262775,0.553943856450324,-0.012467476830435361,1.4980286764093549,0.6302766318867437,1.208239010809633,0.6700349773963603,0.40174656004958786,0.23265953929428002,0.3800870862525077,0.15778483784385533,0.621036926779919,0.2604865583898513
FractionCSP3,0.07282223434018771,0.08216531205928973,0.8334506667155219,-0.1208695589541736,0.08737186537886972,0.31665488044487167,0.001284731165004806,0.31993358887324297,0.9134569110855427,0.6017452562464568,-0.09156198491916388,0.26088463360941994,0.34183201018243364,0.694151915263754,-0.2011691646622253,0.13687037915897032,0.5851140169834642,0.8164958402060383,0.3161220337159963,-0.04174125259523352,0.25868753607102635,0.16594150755986464,0.003846382353342286,0.04615318466466505,-0.25174640027223644,-0.012806402022812365,-0.22248203723507634,-0.10191497251989441,0.6858538734994583,0.1291680182084552,0.5742479890976264,0.09853805472009249,0.17735010393607759,0.7742616554628189,1.0197904244036695,0.06956155513465342,0.5058233459283551,-0.0653854259955068,0.6939009332170324,0.1718100176734527,-0.07152987672033229,0.4129184761020607,0.366107948063962,0.37852191993798645,1.1459992534388592,-0.03557516046194657,0.22748160471142206,0.6273478049791186,0.7969721894624189,0.5320889550492179,0.013546625857474338,-0.037569281604497885,0.34343695235398525,0.560613491563236,-0.10343911130242804,0.2000446952351725,0.08617269872385341,0.0092479910374936,0.7346817201219518,0.06530401961483119,-0.09773863039021322,0.09194323639454925,-0.13563193775954613,0.1178415453075466,-0.27133451975140277,0.6233888716708695,0.07286653788709294,0.9635740002884369,0.2236136816035131,1.3172043079960196,1.0337263630512619,0.5585818388178991,0.23780196665640982,0.47499893236966023,0.00796664257873323,0.7727850733724138,0.7483226518298715,-0.1499568102674554,-0.0013630654173665605,0.2347205961170079,0.77851283866124,0.9954946310212551,1.1138137972461721,-0.03168066622342491,1.0520046085549417,0.4231081611966916,0.4709302416869585,-0.1172238393727834,0.668686142969353,0.0677129043404613,0.11649261109933215,0.27903833032491293,0.7657863270563703,0.7799642398937437,0.5692654876197761,0.33212330077774666,0.08460521921063181,0.460364895379702,0.3412625802353272,0.5070613953689083,1.2005796161558013,-0.11947803956493709,0.9924941647484212,0.3949149804914126,-0.1273130408287886,0.3839375574945512,0.2736791610246923,-0.15443426583457123,0.48501192097885804,0.218515160886546,0.8446686458246698,0.00958555229821153,-0.1897570899120253,0.4019026744815047,0.8472939777649477,0.5182708107259139,0.48777492610086676,0.9217694316283579,0.07054350128628932,0.7251674279803569,-0.011336743491742896,0.1481025707900087,-0.16248814442721846,0.4742420253946682,-0.05713537464307076,-0.12690427011305092,0.21029551944824104,1.3434127638587774,0.29967098032820627,0.07941781305056331,0.7858034443239238,1.1635978115968009,0.3531223643639245,0.2906106075955261,0.3775634932779468,0.11933356584958246,0.5816707866915047,0.8853384262137081,0.9346548023139294,-0.06600310230601772,-0.04277682370337103,0.7822102516087678,0.8030222593541613,0.015877617709808157,0.4837712784607609,0.2292256081400166,0.10427571815548763,0.026584956103281147,0.06363990453641107,0.07050836500776181,0.32889001709895466,0.8049495653853062,0.4397825934894902,0.3048607313204345,-0.2612332427084234,0.7052796675718636,1.1441902850023424,0.5847496784205286,0.265406671210185,0.596283242050317,-0.008444087064560438,-0.06788645846800005,-0.020673509880589223,-0.17471693544960326,0.7342983061493125,-0.006151468421904734,0.7957819134809059,1.0303753736740335,-0.011809990452649874,0.05252649348203609,0.6996500004079286,0.2465696961067184,0.8701100307790466,0.571792553058505,-2.3460048003885334,-0.04424924275706835,-0.22258475884945977,-0.05979014609183206,0.8578924200351967,-0.18043912367733944,0.7217977015808293,0.26375392938253106,0.9011541670419173,0.39641105653021314,0.2698627182126677,1.00633261988148,-0.29173032317464714,-0.018545410542020323,0.731860011785194,0.11125948572222398,-0.1827615877447169,0.29815212380765554,1.040050964936095,1.0777307186043048,1.3679110173751021,0.30868751212612355,-0.07798969775484646,0.06194261046086839,0.4432684728099314,0.050078318975936835,0.5188547715265774,-0.08580239406838112,0.07974209862959168,0.1918543278128817,0.09107577567079413,0.25198705148412626,0.6611792513395239,0.005384662018513931,1.258411446592762,-0.048847376631497415,0.8957615881029839,0.1522043555408167,0.017395306046984527,-0.1195412360034514,-0.053078960003108015,0.32526563956019905,0.7527190935471654,0.62104484991399,0.9006312409312776,1.192710352056283,0.8251305106554967,0.030694317197959693,-0.06542320961117373,-0.1302128355396708,-0.9705761199698271,0.5095818403195818,0.48860424378895967,-0.3241026398736853,0.5403187274494473,1.0427649551952702,1.019529231572654,0.7379000392681888,1.541059542941406,0.6729186323778872,0.98862187757721,0.08694596653081398,0.39325476399898357,-0.021069665331736712,0.3139085246434276,0.0050320579600294825,1.329707224644683,0.8205357132075557,0.8522538916424061,0.9872812449858689,0.10023553539189245,0.2909946908756698,0.16158335116783185,0.06542234386591139,-0.03046214316819868,0.5443747863576579
SlogP_VSA10,-0.1116612552757852,0.0066144261033786135,0.31274688004430085,-0.02752742307517977,-0.4203419428106938,-1.364176838571508,0.19735771453352227,0.029347056253097345,-0.3279149286447888,-0.8591154057887684,-0.04046130069138807,1.2033096021542637,-0.3132889291101047,-0.9743441815912585,-0.021400664326404487,0.0984481577120195,0.2456243545356135,-0.6040917732663766,0.579843355854603,0.19909223032887374,0.6288393586979278,-0.23068434561183612,0.13691844888782462,0.7252902631742563,0.1236565899275877,-0.19481898997725933,0.33193710132999177,-0.03135880840615357,0.8516664215724093,0.2673110041620898,-0.32951970915459083,0.1523340515567957,0.12750950819799334,-0.4882023360334311,-0.2739908430215458,0.07388373091104936,0.07477305359833354,0.10475326436543816,0.15285146597166807,0.8116175345371431,0.0848716004570105,-0.6468012059364929,-0.2279573372248263,0.05855402130374916,0.10888618607128274,-0.06739962067034401,-0.7550653108086519,-0.8947595007109301,-0.1676597292886715,-0.14014815286912827,0.009549836798800495,0.09504665692817282,0.41178411705627876,-0.5318390780299216,0.06900553059962586,-0.2372733736607614,0.2263840021001884,0.03488747532709773,-0.6490876460720162,-0.04795081476266465,0.08857395105910698,0.23008065455090507,0.02739382889103681,-0.5825664481167827,0.33812420814310234,0.22631990102625021,0.05355378912991976,-0.9240980015731673,0.7385689934775305,0.47331812610623525,0.09184802976391343,-0.5148885784083371,0.26671760711547066,0.5418403241187294,0.4208545066060723,-0.35545641921863635,1.469263358372668,0.0761710346058192,0.582297483723922,0.1339700122262619,-0.326638473535171,0.05324355799173818,-0.2708017965995981,0.3997917599905183,0.8791601606583362,0.42738158075712196,0.33035560662213054,0.07773346741254672,0.15608487038324786,0.4846469016844106,0.11721204288215174,-0.7389432470352474,-0.7345735561567825,0.11534257375930847,0.06694804266693091,-0.3150580208535088,-0.3590964869742794,-0.6465737257807135,-0.15436724731421692,-0.051721233851180305,0.03939341849701416,0.7530929215442114,0.015685726676947787,-0.1491966887709681,-0.1825273096795296,-0.6533392063824207,0.12401583978546726,0.03769937054818474,-0.26547836319910434,0.005397454966069618,-0.9319104892583278,0.34059004031799184,-0.07574577265831796,0.051316614965251625,-0.20334527884566286,0.35509178328318547,0.5832140513045317,-0.6812787673329326,-0.11699557328061791,-0.28662704663899774,0.2493584208336477,0.15974174009129666,0.23928918758606968,0.70778688025246,0.04560076392211243,0.16870265262674605,-0.08369980799232643,0.41318897531500004,0.16484026244262628,0.4185123921405274,-0.2635771426980411,0.6022785239356585,0.27201009093384015,-0.07342119629844285,0.3155328661374589,0.17788717113465646,0.5559752817496758,-0.548733852106568,0.6440428909848788,0.11400201407573425,0.3348542348442815,-0.41355060347261813,-0.07092657771666662,0.2091261372950187,0.5822079172860959,-0.6118043415990699,-0.2453611130948251,-0.0858637354377952,0.16274053837563215,0.1766381878296666,-0.08244239931492708,0.5404650996812014,-0.636605434965662,-0.47791918192509547,0.024089990868751857,-0.4260506537054587,0.6869211654602044,-0.05610398426292616,-0.4972998673990648,-0.0067385151614008315,0.2697656739991735,0.3514779471781747,-0.15951239597984,-0.2066952554956363,-0.72379049108969,0.22586175609514045,0.2512687028437236,-0.322977465277379,0.26670606067623587,0.1893503874200381,-0.6845653017152942,0.04178690517316848,-0.24854551192391966,0.6759682385370616,-0.052475737248028446,0.09062487820173411,0.2446721847707112,0.4755851671720341,0.42230092974627104,0.27362815401478485,-0.6877191153388944,0.34214208732458407,-0.4777049915647918,0.41989761007005455,0.25944497210342654,0.5869244001727361,0.6341055233137063,0.050655833687228834,0.3105214670332581,0.26619481378675924,-0.05827283275275207,-0.37157103331076735,-0.7166257870485259,0.6054803711578753,0.4585191675629259,-0.5746293086517336,-0.08206618741593144,-0.06306899434782164,-0.5386403948206381,0.012708582222744586,-1.1187085074053238,0.2702248933191046,0.23656542901102323,-0.04961025508518015,-0.1600443348459933,-1.1586350287643645,0.4237496468127526,0.07373096923407556,-0.5474653540149659,0.0021995023771749123,-0.1731750402375226,1.0587032606751345,-0.3313955006795692,-0.24330050263558456,-0.19254346094276004,0.29337807327666565,-0.4062655177403898,-0.2878128212557858,0.8094936126666725,0.3904602778034544,0.43705514161921877,0.40999468033234276,0.40188296466464596,0.3512878330661356,0.67085012157489,-0.5017781266225039,0.18402774458362306,0.09884364729962178,1.2891876714175774,0.08241424062440422,-0.29331068397162907,-0.2958657259439259,-0.31977460270716584,-0.7788167289967163,0.24574904847314483,0.20263639180688825,0.7155976081971689,0.13613280017271365,0.49757749141227176,0.09375522325900452,0.43294304459082844,-0.11131003149572183,-1.0393496969719902,0.01637676739735764,0.30361038309454036,-0.6661958494668552,-0.36732502769492276,-0.0847561999390555,0.02517137043536258,-0.5317441840759258
BCUT2D_LOGPLOW,0.13670787638601894,-0.6909864587192073,-0.6164679639897113,0.09225721291716603,0.04717108926284982,0.015710017425693404,-0.040676839276512514,-0.0053521833097423125,-0.8056880949262935,-0.5159758443345605,-0.042279760081066924,-0.2543940454048524,0.022228923488537666,-0.4211556889876944,-0.04705937130055326,-0.13447708977025846,0.04205996195683012,-0.41831571108846394,-0.19190876056593933,-0.03958826878244901,-0.530540666456204,-0.12644423909666258,-0.5152613081475125,-0.8627336987948896,0.08659217086732666,-0.01546997589534244,-0.16750818861126404,-0.15598444182845841,-0.3824697601762131,-0.1314681815068763,-0.40558049819586894,-0.04837840663772911,-0.22632982050938205,-0.5925640289510474,-0.6921282403349651,-0.050357720992199484,-0.5514623254578147,-0.03160540891223853,-0.4937822572332895,-0.6777851199339342,-0.25994008297675264,-0.06799060291665539,-0.060128608280511954,-0.322035535711342,-1.2783045941414883,-0.1449496025324018,-0.22260766205205593,-0.4478530405517591,-0.15176218299059255,-0.4311374487033098,-0.2181763187320981,-0.024407619030636242,-0.22132707994035447,-0.4744098884608161,-0.021962185377726564,0.05866090557116453,-0.12559398527096263,-0.04439301418246056,-0.7967241332762768,-0.12057191320425859,0.05844851185366633,-0.28341181849110125,0.009697973054245839,-0.1442227504537752,0.07829559954267475,-0.3927907616532115,-0.17312577803933477,-0.7903903758342492,-0.5288203525157928,-0.44659084408779476,-0.8189088022009227,-0.2507854642837624,-0.3152624328019126,-0.25780468892469394,-0.13007496138215247,-0.8784149000003011,-0.8108606349977089,-0.3353682542787642,-0.33514874063661165,-0.5162253665575411,-0.40156651567297047,-0.49710496414215427,-0.45125599189593707,-0.07637158030654573,-0.6625193823360872,-0.4045360874680228,-0.7420713687356834,0.004120350791107102,-0.5396437393266793,-0.05845499966186696,-0.6736436126643073,0.0695646740270763,-0.16125669525914874,-0.36410590642694923,-1.1472205213509672,-0.2552720583282548,-0.1119670223887386,-0.4501638874789813,-0.0450182065030404,-0.3798373019334835,-0.9169838040414825,-0.45468452418357524,-0.6077084140867157,-0.2672558796717269,0.019256180378328134,-0.22456909385574694,-0.28481672381776146,0.012610206591342201,-0.23588057753546873,-0.3538985880042768,-0.4662822918379864,-0.11517805075738378,0.006889266562095515,-0.10710242691755002,-0.5909273604823405,-0.08798116578403113,-0.3636958783872911,-0.7186652361895697,-0.3995200566059483,-0.587273609465328,-0.17490202147581796,-0.1252501027441817,-0.08960376431017991,-0.5578631965864422,0.03873400077169699,-0.0946561220424362,-0.39278521375953385,-0.9924631556512257,-0.005410748143343306,-0.45013170263155355,-0.34519488581915925,-0.7223917694798409,-0.7629207282173353,-0.3029380806049557,-0.5586149206233507,-0.2001290880440284,-0.29631454451286915,-0.9681695912321162,-0.4575955405081056,-0.08829205040003411,-0.5526826641209496,-0.39362139738493973,-0.21149625911156616,-0.17001277633688266,-0.5529000510851115,-0.12619230532784398,-0.05268404166321337,-0.11007879025365151,0.0791585100540337,-0.10057679724194693,0.020840648552377935,-1.128151631072901,-0.15602198304520243,0.0748199290976998,0.1588485806939747,-0.40245237457429334,-0.6642903084328904,-0.17543120892842745,-0.41063871632331805,-0.575584067797024,-0.05177130051183836,-0.3505762236681431,0.1426781269325357,-0.15365271985226686,-0.6661315642901054,0.01995844858459519,-0.3545239239846814,-0.8209950671022317,-0.19222141883769286,0.04621057915583854,-0.624787719333773,0.027866051495260356,-1.0414846326750737,-0.6695921226108102,1.58550087969135,0.009475218663545438,0.024410947751717194,-0.18859543482897553,-1.548218451804807,-0.21713601734934218,-0.5349202406875291,-0.13474525564725773,-0.26328638482631417,-1.145442832926095,-0.27705305602589514,-0.5537659945601104,-0.33254590782633164,0.0013753082890486463,-0.6040969839963594,-0.30846145016608545,-0.248105624201534,-0.29140621122726934,-0.837976035489803,-0.6954738246359286,-1.1453580588081564,-0.22672360723999863,-0.1553374791345586,-0.08590002821992387,-0.28801156415025825,-0.17015044252911984,-0.33329601159067096,-0.15627879132124814,0.020980833472148956,-0.1923205756330449,-0.019637293928985618,-0.032827326632099224,-0.5867467103066647,0.08188100274436598,-0.7882939553492279,-0.037882821347377506,-0.3473964183274372,-0.6184472868149022,0.06353520151644644,0.09636298927607248,0.06414859635092644,-0.28929500491496085,-0.143358123734853,-0.7602224203126382,-1.0331401948522092,-1.1637414704660203,-0.8155283554527628,0.10245191044074732,-0.42317574006908026,-0.11413371715525719,-0.44138872395222434,-0.7422715866893049,-0.8299343168657134,-0.5619687176555447,-1.0041802684544503,-0.6811398723105397,-0.35822215681522346,0.035102122346888934,-0.6679029709056817,-0.8633256426826571,-0.5898250482147631,-0.12596992014947864,-0.5980661257676696,0.003855413865056011,-0.045189485211999975,-0.04939854570981247,-1.1148683726812574,-0.3995194260432277,-0.18776829689774566,-0.5594081758468034,-0.5748853028807037,-0.16936679477334676,-0.030382743641719362,-0.034948349427706714,-0.746725976766245,-0.3812498787798041
